0.136040
0.219430
0.010999
-0.126941
-0.098712
0.059628
0.211935
-0.000085
-0.222795
0.075495
-0.113349
0.155408
0.074281
-0.263842
-0.096838
-0.297058
0.013736
0.234484
0.094777
-0.344840
-0.206719
-0.003521
0.123179
0.030176
-0.274695
0.119106
0.026185
0.126578
0.206629
0.109141
0.047051
0.145465
0.042227
-0.072754
-0.027296
-0.252096
0.044540
0.124055
-0.055303
-0.194953
-0.333215
-0.090027
0.192120
0.179221
-0.078216
-0.128927
-0.346435
0.206967
0.341714
0.052070
-0.002118
0.224189
0.074248
0.002169
0.035142
-0.073522
0.137004
0.064432
-0.087031
-0.204189
-0.346085
0.078002
0.180604
0.154444
-0.202425
-0.121438
-0.056708
0.305589
0.262862
0.045749
-0.139022
0.085668
0.077964
0.112080
0.032774
0.234073
0.058793
0.233395
-0.132442
0.139354
0.248430
0.167213
-0.035566
-0.456715
0.140786
-0.165853
0.009835
-0.224679
-0.766900
0.085603
-0.596918
-0.168529
-0.504821
-0.640803
-0.093938
0.139153
0.373051
-0.355940
-0.222727
-0.191959
-0.000990
-0.278150
-0.051809
0.186113
0.258413
-0.233914
-0.529602
-0.241761
0.151232
0.425869
-0.106980
-0.587301
-0.365565
-0.134190
0.391401
-0.085660
-0.103748
-0.131657
-0.047905
0.028701
0.291955
-0.151835
-0.124273
0.017522
0.192049
-0.201594
0.092351
0.293596
-0.207142
-0.135168
-0.140024
0.012808
0.232436
0.076496
-0.246294
-0.151915
-0.187786
0.171117
0.248919
-0.193983
-0.469364
-0.465417
0.131971
0.297601
-0.090371
-0.513040
-0.631790
0.181893
0.252861
-0.025133
0.158314
0.012435
0.016440
-0.044380
0.049384
0.202509
-0.131462
0.084617
0.089763
-0.029806
0.225501
-0.189963
-0.237866
-0.090114
-0.127641
-0.079267
-0.627933
-0.745498
-0.359603
-0.504051
-0.083438
-0.344848
-0.220602
0.151560
0.108334
-0.516688
-0.143635
0.023151
-0.006420
0.027416
0.006765
0.107749
0.076556
-0.031370
0.040373
0.253388
0.141197
-0.189705
0.061556
0.089484
-0.008408
-0.049241
-0.397058
-0.212850
-0.337798
-0.016803
-0.134701
-0.038367
0.134997
0.090017
-0.101452
0.085197
0.060913
-0.092613
0.007852
0.161393
0.136932
-0.105867
-0.057015
0.066153
0.006058
-0.188135
-0.650029
-0.452343
-0.361914
-0.022952
-0.217285
-0.257910
-0.139065
-0.135930
0.091117
-0.074293
0.043639
0.297814
0.177431
-0.155503
-0.428803
-0.217573
0.011389
0.309660
-0.066987
-0.282981
-0.268489
-0.099921
-0.210032
0.163162
-0.220925
-0.309191
-0.239994
-0.266396
-0.166629
0.010578
0.116764
0.207379
0.243951
-0.010278
0.232124
0.429777
0.236110
0.161225
-0.327279
-0.269738
-0.281484
-0.080960
-0.062870
-0.155035
0.036969
0.070687
-0.050854
0.066273
-0.096653
0.034569
-0.116467
0.101132
0.390227
-0.032682
0.137779
0.169362
0.458298
0.412501
-0.193788
-0.253970
0.043279
0.063537
0.085788
-0.381992
-0.197137
-0.196531
-0.075562
-0.020914
0.024789
0.260696
-0.156497
0.033958
0.174327
0.407622
0.206758
-0.289080
-0.315562
0.120025
0.148061
-0.026150
-0.414845
-0.861362
-0.218127
-0.012246
-0.155764
-0.231759
-0.395256
-0.154831
0.156875
0.010328
-0.145935
-0.066012
-0.333107
0.192249
-0.002634
0.112155
0.111873
0.053226
-0.005268
-0.082789
-0.162232
-0.190724
-0.240583
-0.175877
-0.355289
-0.507395
-0.061760
-0.061715
0.148069
0.154230
0.084867
0.088737
0.130574
0.112290
0.049278
-0.006232
-0.038605
-0.143394
0.229725
0.233737
0.143976
0.176491
0.099110
0.100820
-0.131811
-0.137021
-0.274392
-0.360434
-0.346202
-0.598727
-0.509109
-0.213771
0.102649
0.094839
0.179591
0.098552
0.174059
0.103626
0.175182
-0.050795
-0.107913
0.032398
-0.029059
0.109014
0.084564
0.060607
0.049417
-0.043364
-0.227316
-0.472260
-0.366187
-0.378685
-0.299957
0.026147
-0.034617
-0.064380
-0.047378
-0.030706
0.241135
0.216427
0.168788
-0.076724
-0.153828
-0.250821
0.002121
0.255695
0.204326
0.080520
-0.413994
-0.246209
-0.232055
-0.401339
-0.483258
-0.057011
-0.088716
0.034491
-0.012370
0.059012
0.229245
0.181955
0.156328
0.220252
0.016396
0.051267
-0.130819
-0.288376
-0.363757
-0.373529
-0.124247
-0.063404
0.057043
0.023124
-0.049452
0.071217
0.077546
0.160453
0.096736
0.134159
0.368917
0.402913
0.534445
0.431195
0.407657
-0.115258
-0.019988
0.132181
0.129147
0.016008
-0.128270
-0.035309
-0.043746
0.264293
0.504701
-0.108514
-0.087183
0.130347
0.009180
-0.052234
-0.057467
0.047273
-0.055331
-0.120764
-0.137482
0.035608
-0.035468
-0.476285
-0.481399
-0.435855
-0.443094
-0.410291
-0.644365
-0.667003
-0.383086
-0.170985
0.133900
0.030417
-0.143276
-0.132476
-0.088877
0.013390
-0.050969
0.017129
0.133131
-0.065516
0.137490
-0.185528
-0.036746
0.000224
-0.177947
0.061070
-0.363037
-0.298199
-0.116733
0.053619
0.087683
0.097172
0.130156
0.115937
0.018420
0.110068
0.108666
-0.005534
-0.046554
0.034645
0.009034
-0.151692
0.001604
0.243058
-0.030209
-0.011982
-0.192599
-0.222217
-0.266213
-0.207025
-0.059326
-0.459511
-0.656215
-0.299948
-0.092734
0.063315
0.088585
0.198379
0.299676
-0.150628
0.026452
0.175279
0.243810
0.060766
0.100533
-0.019289
-0.120645
-0.137349
-0.026820
-0.086347
0.026060
-0.246528
-0.373937
-0.252850
-0.094244
0.068152
0.070308
-0.054439
-0.005716
0.065198
0.131341
0.271198
0.264497
0.171380
-0.123172
-0.118015
-0.079026
-0.132304
-0.009118
0.145278
0.099482
0.044308
-0.063134
-0.205521
0.072494
0.174009
-0.324828
-0.120249
-0.057863
0.206753
-0.086475
0.099467
0.255396
0.202198
-0.052558
-0.139193
-0.100936
-0.078374
-0.273984
-0.189572
-0.278090
-0.455123
-0.165567
0.236910
-0.085811
-0.338827
-0.268788
-0.253386
-0.035448
-0.258434
-0.454527
-0.060893
0.132754
0.006570
-0.224111
-0.143987
0.199989
0.266050
-0.086245
-0.133475
-0.168729
-0.109664
0.071958
0.481857
0.025260
0.114951
0.271885
0.352441
0.192509
0.139758
0.354566
0.206673
0.153171
0.527818
-0.043190
0.308077
0.158873
-0.217318
0.047393
-0.097975
0.091035
-0.279649
-0.525815
-0.206714
-0.163796
-0.113164
-0.417418
-0.069438
0.200965
0.012410
0.060864
0.020428
0.104259
0.028838
0.084543
-0.118876
0.124935
-0.020304
-0.200207
-0.321444
-0.380065
0.091112
0.147692
0.020774
-0.419120
-0.558530
-0.195691
0.100316
-0.015174
0.148311
-0.033117
-0.049113
0.192742
-0.074453
0.047597
0.049681
0.118790
0.131388
-0.154804
0.253075
-0.057438
-0.031355
-0.236528
-0.471993
0.046687
-0.358576
-0.094939
-0.184906
-0.351627
-0.247696
-0.317135
-0.350391
-0.315676
-0.082106
0.096127
0.160367
-0.006284
0.015409
0.138748
0.334133
0.234301
-0.090818
-0.047801
0.139413
-0.194327
-0.406732
0.009845
0.053138
-0.155437
-0.414763
-0.590801
-0.161882
0.080477
0.104551
-0.098458
-0.162171
0.039543
0.100356
0.156118
0.106201
0.083862
-0.016712
0.087535
0.124040
-0.034463
-0.042404
0.087132
0.040925
-0.204991
-0.145347
-0.086542
-0.183452
-0.113269
0.070232
0.065206
0.021517
0.000593
0.144764
0.125441
0.106110
0.044913
0.124722
-0.032256
-0.464387
0.322381
0.139901
0.032159
-0.332485
-0.502686
0.058318
-0.052067
-0.108689
-0.716028
-0.589935
0.259990
0.199937
0.007499
-0.260537
-0.147269
0.225504
0.058286
0.028583
-0.237616
-0.443190
0.351834
0.445904
0.058859
-0.508959
-0.663390
0.367579
0.428951
0.044134
-0.619662
-0.427814
0.557460
0.518583
-0.098873
-0.187107
0.081727
0.330294
0.106627
-0.064418
0.531458
0.301867
0.074775
-0.186432
-0.512743
0.226807
0.034633
-0.342786
-0.623824
-1.163573
-0.267215
0.009493
-0.426852
-0.145100
-0.479239
-0.179545
0.166341
-0.184105
0.143525
-0.216606
0.039217
0.148087
-0.196382
0.120712
0.398979
0.214963
0.051495
-0.032622
0.075969
0.144146
0.035835
-0.119642
-0.111869
-0.013734
0.012598
-0.097958
-0.062781
0.199565
0.120721
0.061352
0.078680
0.147971
0.017677
-0.001247
0.018190
-0.151081
0.162415
0.211640
0.165135
-0.052885
-0.247692
-0.257654
0.078184
-0.387940
-0.347217
-0.067774
-0.006828
-0.451517
-0.115242
0.150798
0.252238
0.048060
0.132987
0.325030
0.178771
0.030479
-0.091666
0.067259
-0.139393
-0.252871
-0.308941
-0.112940
0.146978
0.008561
0.092596
0.161630
0.088174
-0.095014
0.053140
0.093305
0.046507
0.029941
0.013443
0.026882
0.215532
0.087697
0.163877
0.070159
-0.013031
-0.114393
-0.194948
0.153723
-0.099310
-0.034228
0.043830
-0.298870
-0.200626
-0.118667
-0.201977
-0.043563
-0.190430
-0.201503
-0.386710
0.047550
0.148816
-0.038967
-0.041159
-0.331134
-0.062335
-0.006764
-0.108922
-0.140465
-0.348482
-0.067779
-0.113499
0.025336
-0.099391
0.119029
0.155974
0.207717
0.105187
-0.113504
-0.049171
0.091275
-0.123924
-0.157504
-0.192774
-0.001773
0.088282
-0.064227
-0.191299
-0.295414
-0.311711
-0.517439
-0.365908
-0.247693
-0.075074
0.165438
0.405231
0.454422
0.202550
-0.220858
0.283095
0.139917
-0.127176
-0.128402
-0.264259
0.004395
-0.045123
0.114055
-0.108303
-0.158860
0.016680
-0.324529
0.070796
-0.079130
-0.054252
-0.421958
-0.156490
0.012419
0.057086
-0.014138
-0.016468
0.217742
0.207139
-0.141056
-0.342124
-0.019343
-0.085324
-0.086698
-0.147584
-0.319388
-0.031020
-0.138029
0.019999
0.031356
0.066334
0.018204
-0.084779
-0.347745
0.003551
0.060032
0.056774
-0.086366
-0.491408
0.008435
0.256302
0.037459
-0.112120
-0.359034
0.014531
0.152639
0.068555
0.077914
-0.011878
0.134836
0.237046
-0.034611
0.093933
0.206274
0.069370
0.002493
0.031720
0.030952
0.000258
-0.339397
-0.095657
-0.020387
-0.050532
-0.374843
-0.670412
0.104630
0.024441
0.121885
-0.454731
-0.688482
0.136272
0.090995
0.104710
-0.264055
-0.274670
0.138484
0.114939
0.085220
0.014099
-0.014535
0.019504
0.033886
0.121792
-0.226680
-0.223809
0.035727
0.048959
0.029069
-0.267931
-0.260791
0.155993
-0.042485
0.000228
-0.059188
-0.025122
0.118317
-0.044775
0.084540
0.024388
-0.006813
0.198561
0.107773
-0.086492
-0.176150
-0.030357
-0.058322
0.396933
-0.059137
-0.285196
0.230633
0.103515
0.555171
-0.310523
-0.106767
0.183304
0.147760
0.387689
0.004497
0.228531
0.217519
0.108869
0.010012
-0.010224
0.044519
0.227378
0.129172
-0.016142
-0.122731
0.053928
-0.061887
-0.229203
-0.060584
-0.086365
-0.061105
-0.094315
-0.244350
-0.259664
-0.208370
-0.235539
-0.275483
-0.289683
-0.336485
-0.222221
-0.213386
-0.422701
-0.528716
-0.148064
0.091260
-0.076487
-0.412155
-0.529221
-0.242621
0.088102
0.079845
0.003146
-0.037983
0.133588
0.186427
0.187608
-0.274413
0.108985
0.198950
0.255934
0.021480
-0.182243
0.230380
0.006164
0.193300
-0.048941
-0.061317
0.186947
0.087916
0.262783
-0.033003
-0.003844
0.210160
0.022628
-0.060809
0.039148
0.206161
0.031673
-0.476180
-0.409330
0.010212
0.240281
0.239200
-0.063381
-0.660227
-0.431109
0.005267
0.188792
0.421268
0.329137
-0.095771
-0.595415
-0.277497
0.224447
0.342869
0.478460
0.207518
-0.221035
-0.086992
0.041977
0.156647
0.067143
0.044672
-0.104185
-0.123203
-0.150525
0.038271
0.206231
-0.090981
-0.571576
-0.718239
-0.264288
0.123312
0.461891
-0.036012
-0.489310
-0.750835
-0.619952
0.036575
0.214037
0.154750
0.113390
-0.048197
-0.313194
-0.251870
0.013035
0.157271
0.203213
-0.052032
-0.553701
-0.528349
-0.059372
0.289827
0.462027
0.061041
-0.670812
-0.757286
-0.240512
0.326775
0.336239
0.257187
0.030421
-0.289088
0.039506
0.198238
0.242323
0.332145
0.229701
-0.011805
0.274357
0.419932
0.435261
0.498052
-0.184911
-0.307394
-0.329864
-0.166824
0.074899
0.101571
0.117253
-0.225575
-0.432565
-0.473037
-0.156977
-0.070808
0.135074
0.160281
-0.153947
-0.111752
-0.322896
-0.086540
0.060924
-0.006560
0.109752
0.116448
-0.049128
0.005818
-0.068074
0.147034
0.284412
-0.010796
-0.103733
-0.144484
0.091069
-0.009022
0.165930
0.287944
0.407921
0.157292
-0.540410
-0.642942
-0.220790
0.240368
0.342489
-0.046616
-0.204228
-0.420372
-0.216498
-0.059911
-0.087926
0.284659
0.375419
0.250955
0.006576
-0.018179
-0.061169
0.142073
0.390607
0.035985
-0.291812
-0.538267
-0.453048
-0.130412
-0.026915
0.040941
-0.049145
-0.411380
-0.331994
-0.229002
0.226629
0.376043
0.251324
0.144886
-0.120639
-0.093794
-0.147956
0.000360
-0.131541
-0.074627
0.036109
0.080158
0.147217
0.051620
-0.091093
0.020650
-0.002728
0.033940
0.268221
-0.217234
-0.414593
-0.705414
-0.139792
0.363696
0.139671
0.045603
-0.208083
0.056688
0.140019
-0.080298
-0.094130
0.025354
-0.259351
-0.276440
0.015153
-0.024309
-0.016868
0.095552
0.036435
0.181844
0.195545
0.200326
0.050772
-0.090220
-0.122407
-0.395249
-0.691088
-0.647485
0.133873
0.101889
-0.091708
-0.367935
-0.246557
0.199939
-0.033657
-0.151267
-0.254809
-0.273630
-0.146439
0.132782
0.114502
0.282687
0.184075
0.141197
-0.041681
0.180957
0.038741
0.034019
0.280653
-0.062926
-0.403902
-0.493239
-0.260242
0.214209
0.093553
0.198229
-0.101865
-0.237231
-0.000739
0.047912
0.188817
0.237350
0.170481
0.132975
-0.020497
-0.154385
-0.309070
-0.413285
-0.421974
-0.071860
-0.452695
-0.722559
-0.454171
-0.300005
0.129877
-0.062762
0.067543
0.032102
-0.274181
0.152090
-0.077419
0.153259
0.309864
0.177615
-0.188986
0.101477
0.199704
0.200262
0.128264
0.006963
-0.073808
-0.151044
-0.376500
-0.186320
0.388560
0.407064
0.531374
0.154311
-0.470498
-0.016493
0.096408
0.103063
-0.177391
-0.315365
-0.141701
-0.164358
-0.167898
-0.157157
0.110367
0.056731
-0.179828
-0.048797
-0.151105
-0.262140
-0.060585
-0.107568
-0.288292
-0.226735
-0.000964
0.033437
0.064450
0.118167
-0.129878
0.066832
-0.101124
-0.122038
-0.340595
-0.652084
0.126584
-0.096456
-0.116724
-0.192789
-0.189392
0.267418
0.000689
-0.150028
-0.256224
0.086781
0.219662
0.091751
0.046203
-0.126727
-0.135321
0.036212
0.121457
0.039758
0.047283
-0.051901
0.111264
-0.073670
0.040972
0.084828
0.078657
0.038544
0.068455
-0.050348
0.093758
0.109858
0.037674
-0.091495
-0.099422
-0.050953
-0.080930
0.070921
0.195764
0.014634
-0.279053
-0.474736
-0.323265
0.052267
-0.041942
-0.250205
-0.006764
0.152311
-0.071554
0.078942
0.252101
0.183943
0.155157
-0.174749
0.093870
0.108279
0.106715
0.019658
0.311215
0.018032
-0.245005
-0.100342
-0.040085
0.259932
0.217418
0.044627
-0.027030
0.002577
-0.058153
0.142283
0.204875
0.065357
0.164539
-0.097051
0.021535
-0.005988
-0.027796
0.084534
-0.156947
-0.234771
-0.138210
-0.028068
0.037224
0.137354
-0.094356
-0.154733
-0.293050
-0.336525
-0.273504
-0.093129
0.140800
-0.044586
-0.376476
-0.048518
-0.121770
-0.221608
-0.061522
0.103593
-0.028883
-0.184508
-0.627322
-0.512431
0.000522
-0.131781
-0.392843
-0.406728
-0.147318
0.249515
0.015152
0.002986
0.205793
0.164428
-0.010862
-0.192712
-0.075474
0.194818
0.270709
0.106264
0.026033
-0.353310
-0.228468
-0.058361
0.159157
-0.072246
-0.236298
-0.093568
-0.045901
0.058431
0.014910
0.067018
-0.063581
-0.051360
-0.112485
-0.300787
0.075207
-0.040435
-0.280813
0.091066
-0.249385
0.216635
-0.064373
-0.433865
-0.095324
-0.288373
-0.029901
-0.308403
-0.089673
0.056886
-0.294111
-0.284069
-0.164677
0.182211
-0.073558
0.052718
0.016967
-0.024140
0.083672
-0.273023
-0.387866
0.075539
0.142231
0.033647
-0.044828
-0.570295
-0.200864
0.285238
0.151162
-0.212271
-0.451297
-0.064414
0.233559
-0.008193
-0.088467
-0.280221
-0.168047
0.130683
-0.064387
-0.114092
-0.063377
-0.341267
-0.105633
-0.120939
0.006404
-0.042632
-0.022277
-0.156831
-0.059170
0.055695
-0.303192
-0.510333
0.077208
0.292165
0.119307
-0.309356
-0.129201
0.289964
0.131967
-0.454991
-0.133843
-0.034105
0.055120
-0.218193
-0.522717
0.016264
-0.103651
-0.167480
-0.361635
-0.239807
-0.492518
-0.305335
0.085276
0.184261
0.111100
-0.472051
-0.277054
-0.065518
0.083523
-0.042378
-0.369775
-0.159743
-0.102454
-0.225109
-0.495464
-0.208499
-0.106720
-0.185958
-0.419074
-0.503832
0.017970
-0.103355
-0.251217
-0.271795
-0.308977
-0.351444
0.028291
0.082081
-0.072976
-0.454400
0.254140
0.375751
0.369328
-0.142799
-0.080919
0.318702
0.497550
0.113160
0.048021
0.101108
0.287252
0.389726
-0.116569
0.142780
0.096220
0.172418
0.224027
0.426372
0.185284
-0.151172
-0.090787
0.312805
-0.089965
-0.333509
-0.301031
0.066893
-0.165151
-0.130331
-0.074174
0.009149
0.108026
-0.198121
0.032228
0.038184
-0.271315
0.135029
0.211777
0.185405
-0.090479
-0.178884
0.278117
0.239440
0.111888
-0.040560
-0.254380
0.027504
-0.603106
-0.141602
0.119250
0.127389
0.439367
-0.415414
0.084064
0.215684
0.156811
0.087130
-0.047648
0.220651
0.278492
0.006912
-0.113417
0.162741
-0.065187
0.050559
-0.182279
0.016393
0.101544
-0.172625
-0.023282
-0.067636
0.135463
0.078555
0.049861
0.229459
-0.307657
0.256450
-0.306049
0.093857
0.335361
-0.414976
0.135268
-0.673192
-0.106782
0.215805
-0.192999
-0.189957
-0.361087
-0.071159
0.049681
-0.126424
-0.017935
-0.065313
0.054920
0.009417
-0.033736
-0.320806
-0.205775
-0.047638
0.003845
-0.147309
-0.397907
-0.121907
0.046698
0.061648
-0.293720
0.155255
-0.128969
-0.394161
0.014109
-0.212757
0.357157
-0.328886
-0.474411
-0.080964
-0.107229
0.100823
-0.165185
-0.018512
0.257415
-0.008034
-0.277748
-0.106249
0.219179
0.241364
-0.176687
-0.052871
-0.387121
-0.139240
0.114528
-0.068394
0.150065
-0.273838
-0.269309
0.043490
0.038909
-0.024913
-0.156513
0.048436
0.177283
0.027181
0.053607
-0.038720
-0.103299
0.097575
0.038109
-0.127692
0.098666
0.350115
-0.113244
-0.105664
-0.016226
-0.212424
-0.037906
-0.274871
-0.084787
-0.296769
-0.016944
0.027003
-0.275638
-0.082705
-0.204572
0.073712
0.146611
-0.227661
-0.165368
-0.130531
-0.143685
0.123894
0.008405
0.126406
0.354780
-0.216202
-0.432742
-0.418496
0.126415
-0.498790
-0.170885
-0.083342
-0.306603
-0.038298
-0.483077
0.073060
-0.030940
-0.234208
-0.033813
0.096701
0.182154
-0.042529
-0.129282
0.138373
0.355345
0.135865
0.040470
0.102762
0.227349
-0.324600
-0.201949
-0.085693
0.266347
0.241650
-0.121184
0.173813
-0.211346
0.400088
0.301361
0.258751
0.243147
-0.444026
0.131759
0.142879
0.360837
-0.125023
-0.836770
-0.052868
0.005226
-0.017636
-0.694744
-0.423721
0.095641
0.013993
0.199238
0.034436
0.035233
0.021542
-0.099716
-0.043581
-0.256552
-0.065636
-0.169818
-0.066337
-0.018192
0.007657
-0.066477
-0.107788
-0.151354
0.086478
0.168322
-0.002603
0.007151
0.005824
0.230978
0.096071
-0.053663
-0.032846
-0.008850
0.128589
-0.095820
-0.321896
0.003866
0.109051
0.199696
-0.401747
-0.388124
0.157882
0.189565
0.206921
-0.195484
0.264225
0.270109
0.137932
-0.189854
0.234229
0.248240
0.167906
-0.217038
-0.047473
0.139704
-0.034541
-0.118219
-0.223645
-0.061592
-0.315090
-0.118101
0.077714
0.076509
0.051620
-0.160129
-0.003733
0.103859
0.011136
0.086838
0.035407
0.067995
-0.048984
0.011467
0.057427
0.080533
-0.015239
-0.147442
-0.067285
-0.033360
0.022389
-0.140394
-0.186985
-0.223427
-0.368680
-0.242580
-0.164901
0.057510
0.246761
-0.275353
0.031694
0.377745
0.402728
-0.266374
0.150327
0.350896
0.395762
0.137049
-0.410826
0.212799
0.158538
-0.172619
-0.494984
-0.393936
-0.127247
-0.325543
-0.726495
-0.866158
-0.597890
-0.112868
-0.009857
0.082678
-0.213587
-0.286151
0.266321
0.424850
0.072219
-0.251551
0.137980
0.428689
0.117119
-0.397117
-0.042070
-0.018219
0.054845
-0.223764
-0.028386
-0.012566
-0.001243
-0.332870
-0.142080
0.028968
0.020072
0.015568
0.247205
-0.070434
-0.722090
0.050383
0.183281
0.276708
-0.354516
-0.828367
0.188292
0.257341
0.094497
-0.772835
-0.145629
0.162791
0.210343
-0.238775
-0.316974
0.083432
0.143081
-0.003473
-0.112798
0.067278
0.089439
-0.001738
-0.205894
0.006706
0.104297
0.017032
-0.021061
-0.118229
0.053519
0.001838
0.028991
-0.004404
-0.237915
-0.055890
0.263688
0.129484
0.147252
-0.046666
-0.471122
-0.212953
0.081919
0.216819
0.276325
0.016700
-0.216202
-0.303299
-0.213338
-0.268044
0.045631
0.202035
0.012506
-0.090806
-0.047046
0.100729
-0.095426
-0.130745
-0.096246
-0.147728
0.023427
0.219826
0.248488
0.210767
0.087196
-0.230052
-0.319021
-0.087201
0.032966
0.154484
0.031261
-0.552536
-0.403271
-0.156030
-0.115349
0.085867
-0.096627
-0.037956
-0.137013
-0.188290
0.057197
0.130074
0.068166
0.041035
-0.192429
-0.096446
0.037120
0.199046
0.164794
0.298039
-0.162648
-0.404749
-0.290653
-0.053340
0.047236
0.095740
-0.092454
-0.144130
-0.212229
-0.197778
-0.012692
0.068568
0.317176
0.148382
-0.052942
-0.109661
-0.173578
-0.173273
-0.223578
0.161086
-0.626163
-0.693798
-0.534661
-0.411110
-0.331323
-0.034835
-0.174724
-0.069290
-0.209640
-0.377864
0.533126
0.454039
0.486349
0.509210
0.346157
-0.210237
-0.202568
-0.045996
-0.013630
0.159372
-0.023509
-0.548726
-0.662405
-0.232525
0.074211
0.232536
0.121960
0.037278
0.035681
-0.061484
0.056159
0.272898
0.493837
0.390787
0.328691
-0.260327
-0.416497
-0.174864
0.327768
0.163090
-0.055801
0.094333
0.079739
-0.060091
0.022984
-0.083562
-0.184447
-0.193397
-0.229261
-0.017115
-0.110478
0.023765
0.053716
0.038513
-0.014372
-0.113351
-0.209065
-0.178900
0.116751
0.009388
0.234728
-0.093102
-0.188411
0.006480
0.060687
-0.179835
0.143066
0.145047
0.374108
0.082145
-0.222756
-0.126363
-0.027490
0.151496
0.097501
-0.141220
-0.147147
0.025260
0.177837
0.129198
0.095137
-0.140617
0.038157
-0.093142
-0.194038
-0.013221
-0.083420
-0.311191
-0.083309
0.234086
-0.381915
-0.233865
-0.127623
-0.056669
0.017104
-0.543505
-0.285476
-0.110153
-0.142548
0.113228
0.058329
0.130959
0.105654
0.221333
0.363817
0.274063
0.087590
0.081970
0.132290
-0.360334
-0.071058
-0.117135
-0.529214
-0.606095
0.068599
-0.184028
-0.068604
0.001254
-0.100732
0.023170
0.115187
0.136529
-0.072757
0.007904
0.117151
0.120070
0.097459
0.130983
0.174853
-0.083131
-0.083891
-0.065734
-0.372484
-0.501452
-0.212111
-0.150173
-0.220103
-0.363791
-0.559491
-0.198393
-0.089244
0.010812
-0.041781
0.048333
0.192857
-0.073069
-0.115137
0.044071
0.313917
0.353365
-0.450160
-0.361200
-0.150072
-0.192001
-0.204583
-0.674758
-0.409523
-0.314012
0.199282
0.408927
-0.320670
-0.399125
0.022224
0.242360
0.115151
0.136723
-0.209444
-0.379583
-0.194620
-0.000616
-0.253569
-0.462606
-0.509151
-0.385848
0.086151
-0.320891
-0.212377
0.028725
0.100212
0.511154
-0.054901
0.050681
0.232593
0.351637
0.153868
-0.015202
-0.155923
-0.101938
-0.202815
-0.330248
-0.199023
-0.241784
0.318380
-0.133950
-0.287571
-0.503251
-0.062238
0.268971
-0.192843
0.029349
0.031092
0.331638
0.264048
0.133257
0.373661
0.160140
0.225515
0.083476
-0.080245
-0.045288
0.072603
0.068560
-0.198888
-0.353421
-0.038036
-0.026480
-0.085259
-0.096236
-0.070565
0.015874
0.118952
-0.104063
-0.078760
0.033051
-0.247983
0.150318
-0.104515
-0.278786
-0.341586
-0.092649
0.019078
-0.118533
-0.352151
-0.437991
-0.307290
0.125032
0.080025
-0.167737
-0.197692
-0.278102
-0.036340
-0.078699
-0.000310
0.036801
0.199392
-0.023557
-0.028427
0.105815
0.226357
-0.091665
-0.118082
-0.094946
-0.209391
-0.159316
-0.115963
-0.321409
-0.082641
-0.139092
-0.154122
-0.038842
0.030907
0.153428
0.126013
0.036683
-0.195527
-0.083678
-0.100792
0.068142
-0.073152
-0.128542
0.066404
0.053035
-0.050576
-0.188238
-0.197480
0.065070
0.240221
0.037698
-0.114235
-0.025512
0.267541
0.157921
0.204191
-0.039724
-0.153951
0.289670
0.247099
0.217405
0.065207
0.033832
0.006537
0.065349
0.316786
0.533421
0.130425
-0.245595
-0.067367
0.074687
0.187669
0.321346
0.103249
-0.035534
-0.033816
0.301821
0.217641
-0.002927
-0.371446
-0.204233
0.100566
-0.247794
-0.087193
-0.248527
-0.158825
-0.224440
-0.279734
-0.152172
-0.265811
-0.280623
-0.105449
0.171765
-0.193764
0.011938
0.310226
0.311743
0.290828
0.052764
0.060539
0.149059
0.049490
0.067789
-0.264526
-0.298938
-0.226257
0.031254
0.194799
-0.466223
-0.440013
-0.561299
-0.258407
-0.017315
0.140583
0.112218
0.289519
0.521611
0.274812
-0.037281
-0.025600
-0.007134
0.140248
0.198622
-0.165129
-0.310396
-0.213236
-0.108824
0.001065
-0.475109
-0.360069
-0.151834
0.164190
0.164623
-0.081159
0.051358
0.139077
0.221074
-0.099222
