-0.066670
-0.014017
-0.013210
0.260622
0.198168
0.102581
-0.147909
-0.123556
-0.006365
0.113809
0.094991
0.073771
0.237524
0.049230
-0.065813
-0.169870
-0.052462
-0.063776
0.024419
-0.072852
0.067670
0.076580
0.116740
0.000052
-0.190400
-0.066116
-0.040395
0.127207
0.122674
-0.043820
-0.185748
-0.218124
0.073379
0.136598
-0.048538
-0.095878
0.075710
0.171346
-0.011660
0.127733
-0.061829
-0.113544
-0.054863
-0.024787
-0.013578
0.065064
-0.155767
0.082622
0.126163
-0.155784
-0.013510
0.046262
0.188579
-0.099258
-0.011025
-0.101504
0.097843
-0.066258
0.143364
0.004192
0.075871
0.070591
-0.134438
0.004836
0.060801
-0.080320
0.063286
0.097428
-0.077679
0.002119
-0.200415
0.018888
0.017542
0.045758
-0.088450
0.233080
-0.019900
-0.144127
-0.074546
0.190339
-0.044915
0.005929
0.061258
-0.041950
0.034888
-0.060259
0.009397
0.021577
-0.016155
0.000831
0.275537
-0.047752
0.083638
0.179956
0.135714
0.158236
0.093286
0.092171
-0.069652
-0.152786
-0.066727
0.058329
0.048001
0.010797
0.018558
0.190224
-0.052769
0.042004
-0.055610
0.039307
-0.045387
0.103769
0.349012
-0.154211
-0.014328
0.020043
0.123927
-0.116655
-0.061151
-0.166343
