-0.099255
0.228400
-0.013572
0.018231
-0.069480
0.119949
0.120344
0.455701
0.201529
-0.030651
-0.540729
0.013347
0.178772
0.297640
-0.095118
-0.577055
0.019057
-0.041201
0.051176
-0.319947
-0.028225
-0.124661
0.228510
0.091745
-0.049501
-0.179007
0.338562
0.131827
0.427625
0.051538
0.207494
0.652118
0.682130
0.307342
-0.115546
0.255393
0.315521
0.088156
0.156353
-0.358505
0.093254
-0.175797
-0.388006
-0.466195
-0.190268
-0.371114
-0.374654
-0.499515
0.123313
0.071972
-0.255601
-0.092732
-0.388953
-0.219803
-0.451503
0.167126
0.246849
0.042113
-0.057484
-0.104432
0.189591
0.276069
0.440199
0.287210
0.112927
-0.009296
0.300763
0.077552
0.203223
-0.140303
-0.311274
0.084406
0.169647
0.026302
0.215564
0.360435
0.341782
-0.031261
-0.669457
-0.295327
0.139957
-0.468350
-1.494544
-0.485333
-0.017674
-0.240512
-1.243230
-0.262170
0.185117
0.321668
-0.799633
-0.569776
0.073886
0.394496
0.358496
-0.562924
-0.069986
0.398484
0.329108
0.426868
0.355886
0.455138
0.360687
0.302674
0.347575
0.096614
0.376097
0.121140
0.184484
-0.025734
-0.147480
-0.619484
-0.688947
-0.628914
-0.416617
-0.265582
-0.876404
-0.556338
-0.307164
-0.225652
0.108420
0.466190
0.349539
0.324045
0.249737
0.304029
0.229728
0.298931
-0.103614
-0.170609
0.444722
0.439082
-0.014244
-0.212965
-0.336807
0.269435
0.433304
-0.235966
-0.441467
-0.306086
0.053597
0.349608
-0.232235
-0.488823
-0.073278
0.126408
0.165581
-0.227136
-0.209258
0.211935
