-0.053263
-0.027145
0.069601
0.074087
0.114911
-0.022388
0.056204
-0.074799
0.175536
0.087955
0.003368
-0.038101
-0.136416
-0.120384
0.139609
0.190562
0.090500
-0.103472
-0.400381
-0.110409
0.167744
0.074316
-0.036943
-0.321347
-0.267177
-0.055508
-0.282884
-0.185097
0.073212
-0.120280
-0.192025
-0.155764
0.023412
-0.115291
-0.274002
0.038104
0.061202
0.265569
0.041854
-0.001874
-0.240191
0.039548
0.091655
0.137672
-0.142541
0.017283
-0.001254
0.179060
-0.034505
0.067252
-0.091549
-0.093704
-0.393114
-0.078897
-0.023460
-0.006406
0.131416
-0.091407
-0.015237
-0.170328
-0.140042
0.065586
-0.089355
-0.137095
-0.073104
-0.072255
-0.004473
-0.016009
0.237440
0.012260
-0.030576
-0.064330
-0.095516
-0.123883
-0.005892
0.004825
-0.063378
-0.112611
-0.110594
-0.198664
-0.381824
-0.313060
-0.158466
0.128067
0.076493
-0.211017
-0.284307
-0.022970
-0.137677
0.046363
0.012555
0.096232
0.017287
0.046525
-0.262936
-0.096480
0.040717
-0.058221
-0.037163
0.024714
-0.107058
0.004053
-0.049550
-0.256230
-0.220786
0.126153
-0.190031
-0.271812
-0.144353
-0.106553
0.168965
-0.125980
-0.364438
-0.102079
0.177636
-0.084020
-0.005103
-0.038743
0.005470
0.006018
0.128250
-0.019002
0.084746
-0.192565
0.062490
0.106575
0.022282
0.000160
-0.120774
-0.231014
-0.138516
-0.221733
-0.108564
-0.190369
-0.166838
-0.329169
-0.093238
-0.321360
0.210182
-0.120210
0.025255
-0.237766
-0.328108
-0.198046
0.184838
0.133884
0.159222
0.102571
-0.007090
-0.090739
-0.039211
-0.081905
0.070986
0.223630
-0.015721
0.128995
-0.173638
0.212136
0.049128
-0.097842
0.092679
0.114105
-0.004124
-0.123982
-0.236599
-0.068676
0.178045
0.011555
0.113990
-0.171643
-0.051600
0.161301
0.144844
0.077313
-0.154329
-0.231520
-0.269684
-0.250457
0.124023
0.023834
-0.235640
0.023956
-0.126090
-0.062043
0.092547
-0.035875
0.041686
0.138486
0.023066
-0.125088
-0.269400
0.150755
0.187245
0.123424
-0.143459
-0.040834
0.012350
-0.013268
0.161870
-0.066532
-0.089481
0.070646
-0.077676
0.016789
-0.052951
-0.029787
-0.020104
-0.193328
-0.107926
0.013991
-0.189628
0.028381
-0.050851
0.105356
0.078547
-0.024415
-0.225305
-0.103360
0.066037
-0.104652
-0.097587
0.017980
0.033138
-0.045320
-0.200596
0.163045
0.013448
-0.115765
0.066814
-0.041713
-0.301738
-0.208649
-0.187929
0.121579
0.061815
-0.217057
-0.321434
-0.160317
0.058301
0.185023
-0.002173
0.000570
-0.007459
0.040173
-0.143591
-0.033759
0.119271
0.104769
0.107183
-0.180152
-0.055985
-0.067555
0.268812
-0.175582
-0.017600
-0.039723
0.280975
-0.012702
-0.150522
-0.111097
0.002512
0.171861
-0.059489
0.101425
0.018277
0.154023
-0.080313
0.263095
-0.013046
0.296924
0.188877
-0.136076
-0.055432
0.157710
0.257727
-0.047710
-0.206244
-0.035809
0.187121
-0.211604
-0.042306
-0.040739
0.083343
-0.054489
-0.405462
0.057856
0.028052
0.153987
-0.073631
0.033911
0.086766
-0.021652
-0.340476
0.010028
-0.111955
0.160203
-0.060412
-0.131383
-0.278124
0.248183
0.081967
0.105415
0.028639
-0.011286
-0.270499
-0.024980
0.118615
-0.099295
0.078264
-0.150551
0.036379
0.000760
-0.103029
-0.121418
-0.169494
0.213221
-0.228290
-0.082574
0.000338
0.302733
-0.005894
0.112172
-0.048099
0.126960
-0.083630
-0.113696
0.026893
-0.085197
-0.153499
-0.284422
-0.237793
-0.318972
-0.000796
0.092836
0.050786
-0.278017
-0.163963
0.046420
0.264399
0.243120
-0.002869
-0.070233
-0.222593
-0.055224
0.080912
0.037895
-0.008155
0.000232
0.060803
-0.130877
-0.177782
-0.142511
-0.210048
-0.194118
-0.106942
-0.037759
-0.080825
-0.267745
-0.023695
0.095666
-0.347987
-0.138408
-0.004714
-0.082223
-0.119853
-0.327035
0.091626
-0.189825
-0.076295
-0.039280
0.020291
-0.125688
0.190971
0.177972
0.016609
-0.026850
-0.197365
-0.190278
0.117207
0.104799
0.059513
0.093777
-0.173135
0.002450
0.106281
0.047429
0.135783
-0.195200
-0.183412
-0.092906
0.184635
0.089219
0.181818
-0.048194
-0.019426
0.075350
0.015244
-0.026589
0.096008
0.155463
0.041771
-0.042958
-0.033294
-0.000875
-0.024853
-0.018261
0.015997
-0.045543
0.015429
-0.006766
0.015045
0.006922
-0.030010
-0.020718
0.027077
-0.030405
-0.009723
0.012439
-0.060902
-0.070196
-0.000665
-0.015512
-0.001298
-0.010024
-0.069749
-0.064304
-0.001628
-0.017778
-0.054216
-0.046561
-0.040524
0.001232
-0.007112
0.008724
0.021914
-0.047085
-0.041754
-0.010021
-0.060008
0.010955
0.005804
-0.069500
0.001411
-0.033710
-0.032784
0.024284
-0.025062
0.010406
-0.025145
0.003008
-0.054313
-0.068294
-0.018264
0.028424
0.039426
-0.016577
0.005492
-0.058589
-0.065820
0.017651
0.016757
-0.044063
-0.032499
0.030341
-0.059610
0.004531
-0.023846
0.022662
-0.067781
-0.017355
-0.001849
-0.039597
0.012211
0.015597
0.025078
-0.017153
-0.026599
-0.036695
-0.019096
0.009978
-0.059249
0.015367
-0.053430
-0.067202
-0.000721
-0.022605
-0.006692
0.017851
-0.068740
-0.010299
-0.032177
-0.029724
-0.023994
-0.024250
-0.023331
-0.006003
-0.030952
-0.066026
-0.008840
-0.020330
0.014159
-0.022807
-0.011011
0.031724
-0.030794
-0.013611
-0.023864
-0.018153
-0.040239
0.023331
-0.041691
-0.007825
-0.036835
-0.070899
-0.051843
-0.049268
0.039231
-0.027917
-0.009946
0.030848
-0.040296
0.006881
-0.014914
-0.034886
0.018135
-0.054514
-0.019230
-0.066301
0.009350
-0.044138
0.000972
0.025909
-0.011032
-0.045888
-0.006027
0.031354
-0.047283
-0.060055
-0.002537
-0.034304
-0.017898
-0.068948
-0.013183
-0.031958
0.017524
-0.051358
0.006458
-0.025964
-0.061949
-0.017658
-0.028203
0.013353
-0.065609
-0.012579
-0.029939
-0.056910
-0.038930
-0.025354
-0.031596
-0.027606
0.002543
0.022052
0.025163
0.030048
-0.025962
0.041166
0.033923
-0.027614
-0.035134
0.019231
-0.023809
-0.021410
0.024496
-0.016810
-0.029407
-0.036214
0.027199
0.029631
0.040359
0.005602
-0.002156
0.021015
-0.070069
-0.062602
-0.022873
-0.067690
-0.026069
0.030698
-0.044007
0.015012
-0.053214
0.013794
-0.030464
0.017454
-0.022077
-0.027482
-0.011458
0.033387
0.015052
0.012443
-0.060133
-0.062252
-0.055647
-0.043284
-0.002406
-0.009967
-0.049204
-0.007805
-0.026690
0.031414
-0.039722
-0.057023
0.020614
-0.053489
0.024357
0.006852
-0.011693
-0.046775
-0.022582
-0.039435
0.006922
-0.065398
-0.061975
-0.022449
-0.021167
0.042174
-0.018221
0.006283
-0.011551
-0.033958
-0.060127
0.016322
0.033580
-0.005119
-0.037895
-0.008085
-0.008589
0.001772
-0.000827
-0.029630
-0.049283
-0.069094
-0.016620
-0.056342
0.013030
-0.064863
-0.060269
0.005417
0.025768
-0.051967
-0.047394
0.030145
-0.003428
-0.028515
-0.068796
0.039240
-0.008619
0.018055
-0.018154
-0.052759
0.037592
0.031502
-0.033980
0.031330
-0.012332
-0.022467
-0.061565
0.012297
-0.005206
0.013564
-0.052827
-0.006854
-0.053436
0.012003
-0.003630
-0.016865
-0.050745
-0.037701
-0.000281
-0.010374
-0.066099
-0.005302
-0.027418
-0.035119
-0.011692
-0.065961
-0.004708
-0.007675
-0.003760
0.016503
-0.063550
0.008122
-0.005004
-0.001161
-0.001259
-0.005718
-0.038229
-0.054535
-0.050648
-0.007654
-0.051662
-0.057984
-0.067925
0.004891
-0.014099
-0.016988
0.040180
-0.057012
-0.017732
0.035311
-0.027478
-0.027111
-0.029635
0.026177
-0.002639
-0.011384
-0.057101
-0.005853
0.030918
0.042695
0.003574
-0.055237
0.012976
-0.012160
-0.028746
-0.016082
0.012496
-0.014956
-0.018702
-0.022222
0.011241
0.021070
0.028342
-0.040359
0.013954
-0.005291
-0.051196
0.022772
-0.060416
-0.006822
-0.027767
0.012155
-0.063596
-0.012387
0.027126
0.016208
0.028114
-0.000225
0.023479
0.013663
-0.009504
0.029057
0.023102
-0.030634
-0.047362
-0.006033
-0.019857
-0.034053
-0.004369
-0.043787
-0.000905
-0.026736
-0.053895
0.001186
-0.055733
-0.035594
-0.035736
0.019556
-0.044727
-0.009741
-0.036498
-0.035361
-0.056175
-0.012112
0.007513
-0.055434
0.007706
-0.072496
0.015101
-0.052602
-0.008788
-0.000584
0.006745
-0.030590
-0.054942
-0.034868
0.025967
-0.040563
-0.005834
0.018758
-0.005221
-0.027917
-0.034933
0.022375
0.019868
0.011106
-0.020120
-0.051769
0.026344
0.044151
0.025573
0.045327
-0.009563
0.015711
0.029515
-0.042478
0.036907
-0.063622
-0.073730
0.017792
-0.013426
-0.027588
-0.069212
-0.046785
-0.028248
-0.020493
-0.046865
-0.026968
0.013979
-0.009192
0.029715
-0.056471
-0.008727
0.001513
-0.031924
-0.072297
-0.036206
-0.009621
-0.059504
-0.045649
0.019120
-0.052248
0.031046
-0.035903
-0.047836
-0.069860
-0.039441
0.034630
0.029647
-0.032490
-0.011677
-0.029893
-0.057409
-0.052124
-0.068193
0.006412
-0.068046
-0.043194
-0.074449
-0.070707
-0.047026
-0.029357
-0.057661
0.000082
0.011000
-0.036041
0.020330
-0.002172
-0.033571
0.002259
0.007439
0.014651
-0.037427
-0.074929
-0.003534
-0.027123
-0.000544
0.003628
0.025384
0.024739
-0.068047
0.009765
-0.001398
-0.070903
-0.008296
0.036359
-0.011202
-0.082119
-0.002183
0.031119
0.001414
-0.023450
-0.034656
-0.019496
0.032530
-0.026376
-0.038779
-0.044622
-0.021838
0.007323
-0.064098
-0.025142
-0.015730
-0.039614
-0.013375
0.017039
-0.033195
-0.007951
-0.034234
0.013879
-0.026911
0.018159
-0.014549
-0.020398
-0.006960
-0.014092
-0.065750
0.023540
0.036182
0.026046
-0.034849
-0.005194
-0.038029
-0.035064
0.010414
-0.069539
-0.002286
0.003961
0.018353
-0.036960
-0.065604
0.026878
0.018707
0.036222
0.006358
-0.045599
-0.025565
0.004135
-0.052344
-0.013322
0.015427
-0.008445
-0.050761
0.002799
0.011540
0.038041
0.023150
0.012241
0.010180
-0.002521
-0.023636
-0.005463
0.026747
-0.072439
-0.026614
0.001332
-0.024133
0.006276
-0.020716
-0.036009
-0.029701
-0.069777
-0.013374
0.008115
-0.081635
-0.029560
-0.055629
-0.044245
-0.090321
-0.083258
0.021370
0.006802
-0.051002
-0.022997
-0.070661
0.015875
-0.039722
-0.011171
0.003940
-0.015568
-0.045025
0.048238
-0.049030
0.009935
-0.005167
-0.041960
-0.001239
0.041011
-0.050085
-0.001030
-0.012109
-0.016933
-0.006124
0.000500
-0.055574
-0.008458
0.036990
-0.006297
-0.046145
-0.012420
-0.041806
0.011630
-0.036979
0.001202
-0.056161
-0.006693
-0.000350
-0.009628
-0.037424
-0.017394
-0.023847
0.023694
0.009697
-0.029435
-0.001262
-0.033439
-0.045308
-0.011696
0.004114
-0.055869
-0.041127
0.040437
0.017140
0.003610
-0.024032
-0.046704
0.012619
-0.025350
0.027252
0.010984
0.005262
0.028905
-0.053074
-0.021985
-0.075834
0.007372
-0.049637
0.011058
-0.022421
0.021252
0.031879
0.037013
0.023993
-0.029168
-0.029152
0.018132
-0.023920
-0.054795
0.033696
-0.049880
-0.008579
-0.041931
0.003621
-0.014494
-0.011350
-0.007067
0.000586
-0.004654
0.002535
-0.036177
-0.067454
-0.060450
-0.024377
-0.017766
-0.024772
0.019846
0.022124
0.007594
0.004868
-0.037253
-0.024081
-0.040119
0.013920
0.037159
-0.083056
-0.075473
-0.001409
-0.000521
-0.067520
0.015365
0.014702
-0.036955
-0.015818
-0.028877
-0.048295
-0.050960
-0.000884
-0.028531
-0.031477
-0.084281
-0.026334
0.009627
-0.026848
-0.055197
-0.000948
0.006282
-0.037276
-0.024478
-0.038815
0.003243
-0.056354
0.004602
-0.065065
-0.015806
-0.031701
0.030200
-0.050321
-0.039426
-0.026732
-0.057821
-0.038014
-0.033581
-0.041002
-0.047777
-0.011948
-0.042061
0.010772
0.014592
0.001939
-0.026475
-0.006826
-0.028911
0.002383
-0.002330
-0.059989
-0.052644
-0.047926
-0.059224
-0.081203
-0.072963
-0.007917
-0.062117
-0.072439
-0.010872
0.013247
-0.067185
-0.008449
0.005308
-0.002605
-0.063177
0.008037
0.006911
0.039601
-0.013477
-0.008247
-0.039876
-0.032827
0.002207
-0.049147
-0.002025
-0.004998
0.022991
0.001695
-0.042907
0.037061
0.019091
0.005857
-0.009346
0.030874
-0.052423
-0.005184
-0.050187
-0.039203
0.025910
-0.056118
-0.038767
-0.024724
0.024916
-0.017139
0.015198
-0.049175
-0.018684
-0.012835
-0.034483
-0.012815
0.027765
0.000835
-0.013902
-0.054165
-0.026937
-0.017142
0.011651
-0.024456
-0.033611
0.032092
-0.003412
-0.020377
0.004384
-0.032748
-0.045023
-0.036990
-0.028359
-0.002336
-0.050975
-0.026833
0.032928
-0.015477
-0.065447
0.003772
0.009007
0.020185
-0.012938
-0.011347
-0.028883
-0.044347
-0.017516
-0.030359
0.052557
0.046980
0.009343
0.156083
-0.104160
-0.194553
-0.174377
0.060827
0.393084
-0.014905
0.178365
-0.302067
0.024956
0.461787
0.007480
0.198850
-0.117893
-0.124746
0.056951
-0.031177
0.139774
-0.094840
0.122043
0.201258
0.219254
0.164627
-0.065860
-0.069031
0.108720
-0.295420
-0.119770
-0.325659
-0.180959
-0.017150
-0.455014
-0.222068
-0.365453
0.099231
0.284713
-0.146375
0.058426
-0.228764
0.082061
-0.127874
-0.628632
-0.087501
0.011494
-0.046116
-0.129661
-0.272747
-0.363578
0.142299
0.032045
0.074332
0.040777
-0.079127
-0.016292
0.096943
-0.188305
-0.305841
-0.039839
0.095706
0.045821
0.317578
-0.032247
-0.271794
-0.128059
0.227117
0.004997
-0.193056
-0.195310
0.135230
0.068573
-0.123251
-0.356801
-0.289750
-0.066185
0.175983
-0.092869
-0.037530
0.042396
-0.110588
0.158474
-0.066929
-0.055684
0.030228
0.185955
-0.119847
-0.047555
-0.009136
0.108396
0.092041
-0.032035
-0.428905
-0.267620
0.082632
-0.023643
-0.149872
-0.441424
-0.080114
0.072577
0.128900
-0.011908
0.206652
0.118318
-0.212850
-0.177723
0.158652
0.223143
-0.129965
-0.517470
-0.015580
-0.172643
0.024924
0.081020
-0.099829
-0.556921
-0.208563
0.136792
0.097852
-0.198417
-0.062517
-0.008488
0.141006
-0.194734
-0.255186
-0.149052
-0.051567
-0.069273
-0.061827
-0.033299
0.014512
0.098944
0.030537
-0.083655
-0.262896
0.014148
0.201002
0.144045
-0.176113
-0.030816
0.282476
0.408321
0.178364
-0.035212
-0.181767
0.201123
0.215668
-0.251799
-0.145006
0.085676
0.039328
-0.120868
0.113408
0.025099
-0.031058
0.217443
0.033952
-0.090890
-0.075688
-0.261381
-0.396466
-0.082260
0.004878
-0.148981
-0.283295
-0.098193
0.003605
0.282148
0.006437
-0.163311
-0.000504
-0.020983
0.211256
-0.021794
-0.254301
0.062090
-0.032378
0.184338
0.129759
0.110539
0.013443
0.131629
0.098887
0.253486
0.128483
-0.102426
-0.102094
0.105205
-0.211126
-0.071244
0.042871
0.143550
-0.339760
-0.374932
-0.230968
0.148330
0.139654
0.101369
-0.208969
-0.259733
-0.368346
-0.031434
-0.239375
-0.019307
-0.071825
0.084845
-0.022823
0.173463
0.059918
-0.161330
-0.031060
0.174931
0.168802
0.120216
-0.127386
0.039143
0.143180
-0.043037
0.041462
-0.381332
0.085871
0.141103
-0.052112
0.029392
0.059052
-0.101222
0.065325
0.086356
0.056757
0.154557
0.069887
0.241852
0.053856
0.098358
-0.089551
0.006909
-0.056321
-0.082079
-0.009446
0.127216
0.116194
-0.122554
-0.104890
-0.030749
0.018875
-0.133410
0.065587
-0.467322
-0.237893
-0.019388
0.042241
-0.105442
-0.019033
-0.255144
-0.008936
-0.110800
-0.000905
-0.026112
-0.115808
-0.340455
-0.224670
0.367466
0.144416
-0.477152
-0.061173
-0.138658
0.197882
0.122881
0.203711
-0.039922
-0.246932
-0.118474
0.029989
-0.321572
0.007438
0.083211
-0.027272
-0.056818
-0.244216
-0.242801
0.056354
0.184130
0.125787
-0.018402
0.236158
0.029806
0.462786
0.078410
0.082137
-0.084446
-0.268022
0.071784
0.116324
-0.128932
-0.060804
0.003272
0.012257
0.147563
0.086412
0.091696
-0.166057
-0.040890
0.232181
0.029375
0.081055
-0.022133
0.127127
0.178127
0.022587
-0.128521
0.134313
0.192752
0.058818
0.209011
0.150078
0.161174
0.301812
0.317185
0.316509
0.114444
-0.072796
-0.333549
0.046934
-0.075911
-0.353787
-0.226626
0.178918
-0.284784
-0.044987
-0.160753
-0.036747
0.121849
0.115425
0.062414
-0.054687
-0.012110
0.033933
0.206322
0.263695
0.082153
0.118755
0.013277
-0.028853
0.111164
-0.258627
0.067018
0.094682
-0.122287
0.062273
-0.056167
-0.064394
-0.042777
0.098100
0.183195
-0.066612
-0.257172
-0.013847
-0.335132
-0.309855
-0.013997
0.126274
0.091999
0.026948
-0.532875
-0.101811
0.200894
0.094481
-0.234631
-0.415304
-0.110320
0.147578
-0.026410
-0.353582
-0.143184
-0.049850
-0.150361
-0.075880
0.127699
0.096390
-0.015491
-0.006383
0.003315
0.055306
-0.078266
-0.029913
-0.020480
-0.004673
-0.254382
-0.348956
-0.023909
0.220038
-0.121471
-0.233491
-0.367557
-0.093526
0.072086
0.063953
-0.012026
-0.276366
-0.041632
-0.251562
0.037149
0.230525
0.136451
0.039226
0.091384
-0.372162
0.308569
0.219057
0.313255
0.127317
-0.169792
-0.209018
0.019522
0.089798
-0.009698
-0.021954
-0.038991
-0.066401
-0.207248
-0.057475
0.198201
0.109797
0.152306
-0.133388
-0.228244
-0.045915
-0.131864
-0.334347
-0.364642
-0.279827
-0.000710
0.045539
-0.284698
-0.136417
-0.154511
-0.034667
0.379937
-0.115360
-0.099474
0.242803
0.030443
0.013263
0.100516
0.161560
0.024412
-0.077875
0.034232
-0.030904
-0.206329
0.003475
0.021921
0.006170
-0.037895
-0.167227
0.214930
0.253997
-0.307573
-0.504685
-0.158776
-0.041930
0.100387
0.582941
0.469200
0.114239
-0.017756
0.070013
-0.150674
-0.007794
0.272459
-0.042905
-0.194364
-0.207554
-0.102851
-0.154177
-0.097544
-0.000656
-0.040242
-0.151732
-0.089395
0.072561
0.074866
-0.161252
-0.089571
0.030006
0.071014
0.192104
0.223943
0.293602
0.044303
-0.005728
-0.089743
0.038591
-0.065639
-0.177356
0.052063
0.061539
-0.163237
-0.063334
0.086578
-0.067319
0.007233
0.171174
-0.036934
-0.028588
-0.382076
-0.029607
-0.114455
-0.071142
-0.310864
-0.187984
0.043270
-0.123936
0.186552
-0.112097
0.101951
-0.267641
0.028988
0.328339
-0.189851
0.320403
-0.041494
-0.034547
-0.015620
0.244932
-0.166877
-0.040890
-0.286489
-0.167297
0.037259
-0.118944
0.243940
0.170222
-0.146094
-0.061254
-0.027328
0.201845
0.208201
0.140647
0.158885
0.164647
-0.082443
-0.117834
-0.104778
0.161610
-0.033590
-0.002446
0.020049
-0.023876
-0.029143
0.003637
-0.043496
-0.080267
0.018820
-0.079358
-0.440488
0.110228
-0.279007
0.013912
0.032670
-0.325170
-0.024049
-0.043981
-0.042883
-0.205804
0.078130
-0.071807
0.234895
0.031130
0.110317
0.106355
-0.093045
0.146623
0.153444
0.214590
0.068288
-0.040449
-0.197689
-0.343112
-0.089856
-0.174151
-0.127085
0.318857
0.233520
-0.013959
-0.222264
-0.027860
0.682241
0.407513
-0.163328
0.067940
0.044579
-0.113975
0.086167
0.060859
-0.101780
0.147890
0.043940
-0.177132
-0.131094
-0.145372
-0.107197
-0.297262
-0.146536
-0.306774
0.011510
0.395982
0.187955
0.017296
-0.195330
-0.139487
0.093185
0.219637
0.434321
0.238852
0.022367
0.280771
-0.101098
-0.190365
0.026182
-0.143850
-0.265512
0.071474
-0.151435
-0.110061
-0.116501
-0.108150
0.000725
-0.028641
0.076955
0.047283
0.040503
0.035685
-0.043626
-0.155488
-0.004657
-0.069718
-0.039975
0.197179
0.159091
-0.032679
0.262698
0.240036
-0.080568
-0.216616
0.006262
-0.102118
-0.093580
-0.021954
0.050152
-0.032256
-0.041473
0.107850
-0.031206
-0.039849
0.064028
-0.090906
0.019311
-0.333839
-0.175874
-0.291446
0.163730
-0.017504
-0.296078
0.104498
-0.251959
-0.210395
0.337272
0.096246
0.168533
0.097189
0.057148
-0.108070
-0.102748
0.113002
0.297520
0.093142
0.022998
-0.082391
-0.179057
-0.406445
-0.193648
0.139797
0.216035
0.090130
-0.235961
-0.161361
0.015374
0.038613
-0.020705
-0.145109
-0.244125
-0.524579
-0.232898
0.048995
0.139507
0.148626
0.047685
0.074574
0.044442
0.214523
-0.076918
0.262435
0.078260
-0.006348
0.193289
0.019264
0.109444
-0.314527
-0.155343
-0.210484
0.016383
-0.149463
-0.075052
-0.084721
-0.001208
-0.146152
0.137614
0.155067
0.124987
0.073020
-0.193118
-0.085300
-0.023437
0.041970
0.093112
0.164832
-0.369750
-0.186140
-0.201563
0.050829
0.223736
0.182591
0.228725
-0.054760
-0.318640
-0.010048
0.601190
0.443460
0.280039
-0.049209
0.290542
-0.024440
-0.039824
-0.078066
-0.049326
-0.234409
0.109194
0.121281
-0.010362
-0.077512
0.110897
-0.346823
-0.387979
0.245637
0.073771
0.164460
-0.262555
-0.218901
0.008377
-0.061725
0.281179
0.307335
0.045725
-0.019202
0.139845
0.093793
0.004046
-0.085441
-0.070212
-0.043279
-0.289711
0.101495
-0.008849
0.106253
-0.134096
0.039596
-0.059710
0.214890
-0.112886
-0.076779
-0.057592
-0.436557
-0.282015
-0.000547
0.005371
-0.027270
-0.248982
-0.130733
0.092605
0.153408
0.211298
0.195280
0.005336
-0.070479
-0.189579
0.148193
0.207049
-0.218037
0.309160
-0.081852
-0.024365
-0.763743
-0.738074
-0.378642
-0.156183
-0.131170
-0.468154
-0.394219
0.055219
-0.000676
0.072972
0.148797
-0.118861
0.051239
-0.095872
-0.246210
0.245009
0.052636
-0.135307
0.219975
0.176793
0.220433
0.234367
0.052872
-0.003363
0.204866
0.383979
0.533656
-0.020425
-0.416143
0.014610
-0.003006
-0.301203
-0.269429
-0.036135
-0.090326
-0.158083
0.147613
-0.072986
0.134453
0.179833
-0.180220
-0.300564
0.088960
-0.084458
-0.021714
-0.002287
0.041555
0.086873
-0.004590
-0.163866
0.325756
0.294319
0.159090
-0.092688
-0.169529
0.218634
0.009417
-0.150476
0.065831
-0.035691
-0.208059
-0.008223
0.044494
0.089317
-0.119670
-0.145564
-0.010488
0.042985
0.101004
0.049072
-0.006255
0.117399
0.114448
0.054693
-0.014335
-0.019282
0.029145
-0.002565
-0.183906
-0.044646
0.056678
-0.095129
0.329765
0.167442
-0.008236
0.012415
0.077401
0.153016
-0.090336
-0.217820
-0.138064
0.051110
-0.169658
0.021094
0.457865
-0.094254
-0.027370
-0.254257
-0.079625
0.263817
-0.278859
-0.035440
0.189133
0.153771
-0.023646
0.038546
0.137297
0.151660
0.059075
-0.073089
0.146426
-0.038005
-0.084284
-0.033991
-0.065145
0.094791
-0.091816
-0.292638
-0.082263
0.345708
0.188935
-0.277148
-0.352809
0.125416
-0.091711
0.043987
0.059972
-0.027648
0.130803
-0.125597
-0.142148
0.029079
-0.044214
0.045993
-0.186172
-0.157471
-0.226844
-0.227233
0.059829
0.124830
0.076415
0.212410
0.144379
-0.053491
-0.267134
0.051187
0.123477
-0.006280
0.015389
0.292557
0.051774
0.011691
-0.013177
0.035063
0.005711
0.123006
-0.058769
-0.254393
0.185262
0.023818
0.267926
-0.119709
-0.216224
0.075380
0.099315
0.357601
-0.193807
-0.123643
0.027435
0.089726
-0.094770
0.191103
-0.147211
-0.043148
-0.122963
-0.115465
-0.204855
0.049906
-0.012658
0.088511
-0.134429
-0.376413
-0.027227
0.281000
0.216094
-0.637758
-0.111615
-0.053790
-0.081531
-0.050237
-0.223567
-0.265504
-0.100666
-0.267646
0.135367
0.075905
0.143362
0.310601
0.113130
-0.055976
0.064044
0.097165
-0.052660
0.230084
-0.055062
-0.191419
0.014566
-0.030774
0.092902
-0.114364
-0.005803
0.118952
0.144117
-0.258829
-0.067829
0.215032
0.114534
0.041956
0.041487
-0.026490
0.104953
0.237275
-0.057276
-0.041509
0.115314
-0.206790
-0.097583
-0.040819
0.071427
0.034308
0.106131
0.128245
0.031209
-0.030674
-0.016118
-0.068618
0.088982
0.025169
0.253288
-0.173850
-0.309873
-0.022239
-0.068413
-0.109813
0.156043
-0.227268
-0.077126
-0.048897
0.111048
0.325657
0.119237
0.284508
0.072411
0.107173
-0.385956
0.104634
0.068564
0.204758
0.007653
0.000098
0.140882
-0.344489
-0.084537
0.017184
0.180245
-0.223607
0.089589
-0.044337
0.070033
-0.294776
0.021247
0.174917
-0.050814
-0.172138
0.035210
-0.001232
-0.033195
0.225965
-0.097156
-0.079186
-0.123248
-0.460662
-0.194694
0.260655
0.121560
-0.027278
-0.124235
-0.109587
-0.185662
0.357810
0.137575
-0.211002
-0.281062
0.027665
0.146175
0.179203
-0.117090
0.016014
0.012567
-0.292876
0.018458
-0.043747
0.229529
0.053241
-0.325359
0.155759
0.128787
0.310068
-0.171138
-0.156065
0.043614
0.144987
-0.022067
0.305204
0.173839
0.105691
0.094625
-0.011533
-0.274519
0.189779
0.005865
-0.055579
-0.349405
-0.129941
-0.016028
0.041754
-0.170622
-0.291400
-0.017573
0.130020
-0.317559
-0.082852
0.074690
0.018880
-0.049514
-0.117527
0.105165
0.066213
-0.176170
-0.153741
-0.008693
0.115916
0.016040
0.134772
0.189927
0.081187
0.047796
-0.097426
0.166969
0.333340
0.277147
0.216605
-0.045092
-0.055622
0.036256
-0.146333
-0.088662
0.028509
0.062293
-0.323146
-0.422385
-0.064304
-0.106041
-0.086136
0.073539
-0.058183
0.103467
0.011735
-0.094713
-0.061332
0.183130
0.286765
-0.169483
-0.108748
0.199950
-0.185345
-0.091956
0.055208
-0.067335
-0.137191
0.207064
0.196475
0.425032
0.015997
-0.067022
-0.002920
-0.004699
0.022489
-0.012976
-0.172361
-0.328592
-0.089316
-0.131235
-0.092519
0.154138
-0.283602
0.189562
0.045349
-0.261337
0.118433
0.107550
0.391257
-0.162209
-0.308893
-0.388218
0.148563
0.160131
-0.034048
-0.002774
0.397664
0.022725
0.143173
0.099635
0.088691
0.151363
-0.109513
0.089199
0.076353
-0.124043
-0.054984
-0.205793
-0.125897
-0.018776
-0.068300
-0.125129
-0.106334
-0.377955
-0.023534
-0.296779
-0.020868
-0.276502
0.111226
-0.028795
0.226574
-0.315220
-0.006551
0.104415
-0.014270
0.127181
-0.270294
0.172268
-0.043815
-0.273627
0.161812
-0.070005
-0.247995
-0.039735
-0.034125
0.000924
-0.015521
-0.334254
-0.254637
-0.257745
0.063213
0.012747
-0.505183
0.021111
0.132536
0.143208
0.161645
-0.264314
0.033985
0.065278
-0.048147
-0.181468
0.033897
0.032554
0.037361
-0.300602
-0.171258
-0.037339
-0.047516
-0.042092
-0.194377
-0.043605
-0.284329
-0.090869
0.033013
-0.006179
0.004040
-0.137259
0.027088
0.189947
-0.235020
0.104041
-0.025033
0.115237
0.051592
-0.215968
-0.247731
-0.058898
-0.059237
-0.045702
-0.037965
0.424387
0.338521
0.359360
0.004914
0.021576
0.073397
-0.005521
0.085298
-0.254793
-0.150203
0.110526
0.052292
0.250229
-0.267918
0.067505
-0.002340
0.149210
-0.165357
-0.213864
0.131538
0.012622
-0.069104
0.401134
-0.150911
0.127334
0.008114
-0.060293
-0.043957
-0.031069
0.074217
-0.130330
-0.209445
-0.014026
0.198126
0.232327
-0.026989
0.025043
-0.034786
-0.031439
-0.192095
-0.153934
-0.049369
-0.100843
-0.144110
-0.610318
-0.110640
0.053253
0.129909
-0.019514
-0.291140
-0.119146
0.051109
0.160667
0.157486
-0.006536
0.149794
0.213303
0.335228
-0.043141
-0.639366
-0.057743
0.271714
0.173631
0.099340
-0.177380
-0.134353
-0.134930
0.012650
0.196412
-0.233460
-0.022825
-0.446777
-0.145746
0.066111
0.035646
0.000646
0.131382
-0.246950
-0.017406
-0.211081
0.070755
-0.371320
-0.252903
-0.047215
-0.088295
0.049438
-0.204775
-0.091553
0.162198
0.130616
0.157603
-0.111445
-0.026120
0.136921
0.100346
0.091848
0.154267
0.067779
0.084118
0.106190
-0.039191
-0.149545
0.320385
-0.105424
0.090835
-0.214317
-0.084860
-0.294191
0.142773
0.194963
0.116610
-0.024737
0.051706
-0.089898
0.233047
0.165981
0.093522
0.001112
0.229218
-0.075959
-0.091015
0.182849
-0.073081
0.109423
-0.090521
-0.249570
0.067574
0.068334
-0.005413
0.062980
-0.089427
0.000600
-0.081213
0.178120
0.035688
-0.046442
0.033170
-0.150413
-0.076767
0.043433
0.191320
-0.154897
-0.071971
-0.153521
-0.273567
0.096366
0.005231
0.110405
0.100354
0.008415
0.337976
0.338234
0.210621
0.057088
0.136473
0.284915
0.220973
0.213729
-0.047574
0.264133
-0.147299
-0.008974
0.157873
0.266805
0.275588
-0.629487
-0.172189
-0.204286
-0.523633
-0.377692
-0.080029
-0.461278
-0.266814
-0.052000
0.046216
-0.007881
0.067295
-0.079577
-0.020718
0.005068
-0.161401
0.073955
0.237625
0.046525
-0.327739
-0.376027
0.238587
0.138543
-0.260058
0.269400
-0.368383
0.280677
0.351962
-0.284083
0.252514
-0.096242
0.075562
0.181798
-0.032605
0.132069
-0.092694
0.094530
0.062950
-0.447741
0.178010
-0.002264
0.245993
0.162502
0.042613
-0.141534
-0.048505
0.077944
0.104351
-0.341378
-0.462655
-0.484282
-0.140590
-0.280727
-0.576441
-0.314778
-0.328525
-0.123703
-0.563809
-0.265782
0.233077
-0.046545
-0.257715
-0.046451
0.030571
0.015783
-0.113092
-0.288106
-0.050880
0.099087
0.224896
0.138152
-0.121856
0.117046
0.066858
0.072261
0.348460
-0.056009
0.028138
-0.030954
-0.075574
-0.124499
0.128716
0.118097
0.085225
-0.009776
-0.120963
-0.074228
0.007993
0.048868
0.109020
0.071795
-0.214723
-0.141326
0.014261
-0.054089
-0.111781
-0.492978
-0.068692
-0.019908
-0.219965
-0.225767
-0.121109
0.183148
0.128299
-0.199176
-0.070462
0.158839
0.091951
-0.159800
-0.192887
0.087560
-0.105988
0.116396
0.072805
0.058304
-0.023967
0.038559
-0.040763
-0.177649
-0.144111
-0.039138
-0.274660
0.264460
-0.098591
-0.141779
-0.017502
-0.186795
0.027508
-0.031843
-0.017739
0.148849
-0.021951
0.141178
-0.023120
-0.157761
0.051071
-0.020233
-0.030561
-0.098792
-0.204212
0.158858
-0.478377
-0.388330
-0.221289
0.225072
0.477168
-0.651286
-0.376021
-0.188694
-0.084743
-0.016160
-0.237897
-0.148878
-0.033520
-0.116165
-0.150614
0.072008
-0.046844
-0.155363
-0.039599
-0.086749
0.063269
-0.113817
-0.407435
0.121645
-0.090328
-0.016313
0.102490
0.064418
-0.448909
0.280279
-0.080397
0.156407
-0.200515
-0.234417
0.036448
-0.024070
0.216779
-0.128635
0.091064
0.068624
0.078676
0.208071
0.017528
-0.104579
-0.056523
0.250080
0.225697
0.055573
-0.069098
-0.097028
0.021770
0.231389
0.154759
-0.158162
-0.472919
0.205083
0.230846
0.088612
-0.201371
-0.296371
-0.138642
0.063642
-0.150677
-0.021286
0.031021
-0.073125
0.139992
0.055842
0.104527
-0.134457
0.154031
0.144013
0.219349
0.105554
0.017032
-0.100462
-0.121735
-0.025442
-0.166188
-0.225158
0.063826
0.008053
-0.062139
-0.086632
-0.276793
-0.066124
0.069404
-0.109665
-0.067841
0.072981
0.117536
0.149462
-0.056767
-0.052683
-0.018967
0.427971
0.087292
-0.147110
0.115636
-0.050658
-0.427015
-0.139766
-0.049151
0.272300
-0.070365
-0.122320
-0.274945
0.162645
-0.153479
-0.029228
-0.192650
-0.010122
-0.121448
-0.388748
0.220601
0.083794
-0.287331
-0.221527
-0.097545
0.125677
0.138571
0.114597
0.056554
0.109644
0.025078
-0.005250
0.115869
-0.068057
0.214694
-0.494912
-0.038120
0.178022
-0.160610
0.080985
0.013348
-0.199744
-0.095897
-0.117657
-0.108128
-0.147049
0.235425
0.295705
0.115946
0.069121
-0.062543
0.100756
0.073664
0.006768
-0.090824
0.094760
-0.115158
-0.337962
-0.438801
0.140402
0.099504
-0.204273
-0.212062
-0.147387
0.317611
-0.023847
-0.021556
-0.075316
-0.303797
0.048522
0.062554
0.042683
-0.047441
-0.352858
0.003569
0.054549
0.140227
0.126860
0.043742
-0.062318
-0.055726
-0.067396
-0.081183
-0.030660
0.015208
0.008082
-0.195402
0.070305
0.078982
0.082261
-0.126455
-0.152319
0.069426
-0.151849
0.002481
-0.043021
0.106131
0.241164
0.062431
-0.128425
-0.011543
0.102889
0.283540
-0.023962
-0.151146
-0.064553
0.189741
0.062078
0.287461
0.509792
-0.477193
-0.113220
-0.154367
-0.100941
0.077872
-0.108557
-0.226146
0.133077
-0.033964
0.139130
-0.226636
-0.280788
0.063391
-0.022208
0.106516
0.097443
0.079935
0.008625
0.062030
-0.090708
0.026855
-0.256020
-0.219818
-0.027570
-0.073045
0.087441
0.025565
0.001854
-0.054482
0.245718
-0.178295
0.216340
-0.003029
-0.036980
0.085718
-0.120427
0.082774
0.255301
-0.160890
0.041036
0.037497
0.142679
0.167478
-0.146411
0.109619
0.058471
0.108993
-0.031119
0.026768
-0.270538
-0.335063
0.097162
0.015334
0.336687
-0.026777
0.264110
0.146820
-0.266756
0.147072
0.015201
0.220608
-0.024717
0.082172
0.202940
0.031676
0.103912
0.052858
0.127740
0.025150
-0.050414
0.068766
-0.010084
-0.069190
0.221252
-0.220820
0.413964
-0.301853
-0.259835
0.093867
-0.202484
0.101683
-0.081521
-0.231294
-0.099597
-0.132675
0.150868
0.005265
-0.402993
0.013660
-0.154853
-0.031154
-0.126293
-0.334145
0.126459
0.133836
-0.219225
-0.240970
-0.205689
0.052820
-0.172483
0.036036
-0.286812
-0.010184
-0.043360
0.103592
0.042243
-0.097926
-0.279418
0.237357
0.176142
0.250039
-0.186477
0.018048
-0.077076
0.011924
0.287056
0.001003
-0.025493
-0.049981
-0.133658
0.005419
-0.116864
0.209506
0.285586
0.296016
-0.287966
0.082686
-0.063972
0.059278
0.043865
-0.055633
-0.325315
-0.051997
0.125695
0.069965
-0.234491
0.078474
0.095771
-0.121790
-0.151654
0.154133
0.069046
-0.038257
-0.065704
0.012207
-0.197901
0.013340
-0.026655
-0.105381
0.064226
-0.163375
0.176464
0.054721
-0.284708
-0.110537
0.009031
-0.022934
0.109568
-0.078348
-0.197311
-0.098297
0.221150
0.490060
0.056818
-0.096546
0.036304
0.168639
0.182299
0.095258
-0.172272
0.010130
-0.312997
-0.408149
-0.006823
-0.001132
0.002049
-0.026761
0.192091
0.088859
0.131447
-0.254266
0.277403
-0.041984
0.094369
-0.015595
-0.099923
-0.061073
0.096360
-0.113170
-0.037487
-0.056010
0.166971
0.523146
0.123817
0.034989
0.024146
0.294742
-0.058897
-0.113493
0.222696
0.227351
-0.049661
-0.196158
-0.038366
-0.221718
-0.365755
-0.226187
-0.134885
0.182239
0.043748
-0.112382
-0.326816
-0.138426
0.019700
0.065314
-0.167101
-0.136808
-0.006017
-0.144920
-0.235959
-0.124900
-0.124904
-0.030815
0.299145
0.391594
0.142362
0.031989
0.040996
-0.095410
0.001647
0.044219
0.115521
-0.139675
-0.158650
-0.355844
-0.109942
0.083609
-0.007285
-0.034733
-0.130303
-0.012057
0.092803
-0.059538
-0.021755
0.089941
0.098052
0.071054
0.203383
0.132912
0.055129
-0.013844
0.192019
0.252743
0.052722
0.115699
0.158901
0.247796
-0.201403
-0.293552
-0.300524
0.295455
0.295562
0.145559
0.042477
-0.191600
-0.740246
0.165328
-0.037391
0.072492
0.090908
0.113113
0.023525
0.099215
0.022509
0.012618
-0.131267
0.073943
0.041448
-0.212601
0.202738
0.282640
0.178290
0.120851
-0.240844
-0.230425
-0.044277
0.246027
0.004228
-0.011237
-0.015220
-0.302994
0.126357
0.158261
0.042717
-0.245610
-0.105094
-0.064816
-0.200949
0.184270
0.160335
-0.041151
-0.264529
-0.423814
0.216679
-0.066525
0.366412
-0.059583
-0.057775
-0.054258
-0.229782
0.010001
-0.252127
-0.127010
0.015362
-0.364028
-0.202761
0.002448
0.082401
-0.421661
-0.083760
-0.193648
0.033852
0.060210
-0.005765
0.093792
0.061738
0.162279
-0.022099
-0.096531
-0.348115
0.242136
-0.067312
-0.008345
0.062707
-0.277508
-0.441581
0.074210
-0.122498
-0.027375
0.066248
0.084760
-0.051205
0.006423
0.045303
0.073075
0.018926
-0.212405
-0.254137
0.105401
0.187989
0.316933
-0.119517
-0.127387
0.308407
-0.008021
0.085569
-0.343065
0.175951
-0.219925
0.052643
0.032065
-0.131159
0.044159
-0.181604
-0.051956
-0.001960
0.069289
-0.278999
-0.233733
0.049279
0.039060
0.040266
0.169244
-0.073537
-0.140781
-0.136951
0.131164
0.063249
-0.037158
-0.012758
-0.238230
0.239165
0.084256
-0.024553
0.341156
0.210700
0.250261
0.210893
-0.005199
-0.147633
0.185720
0.154294
-0.033846
-0.239488
-0.386437
-0.730222
0.076903
-0.024608
0.255721
0.003886
0.124264
0.135881
0.075265
-0.074532
-0.199858
0.308800
-0.163755
0.143331
-0.155862
0.087212
0.008728
0.011149
0.049194
0.090161
0.170611
-0.396046
-0.083697
0.081253
0.113482
0.000982
-0.042158
0.039279
-0.041952
-0.102069
-0.046012
-0.238889
0.122935
0.213830
-0.023324
-0.104502
0.035092
0.185229
0.050739
0.168968
0.016526
0.015378
0.177313
0.043803
-0.103678
0.142858
-0.104647
-0.005449
0.034867
-0.053718
-0.290805
-0.290437
-0.113779
-0.116571
-0.039041
0.094214
0.005803
0.133630
-0.036624
-0.213404
-0.026090
0.033886
0.087596
0.300202
0.196459
0.121285
-0.400765
-0.018178
0.068088
0.127665
0.007632
-0.139863
-0.252017
-0.184760
0.043226
0.104005
0.015768
-0.057980
0.082386
-0.165518
0.296226
0.347338
-0.391395
0.082095
0.026868
-0.156739
-0.037564
-0.254898
-0.115984
0.126845
-0.113585
-0.335083
-0.135063
-0.128246
0.298354
-0.020270
0.091174
-0.000977
0.101446
-0.048712
0.077184
0.055266
-0.204194
-0.257375
0.181729
0.125005
-0.219889
-0.162062
-0.208653
-0.047650
0.402813
0.414557
-0.222972
-0.137085
0.095372
-0.105404
0.110148
-0.259528
-0.081230
0.005138
-0.109063
-0.238896
-0.197492
-0.000392
0.052863
0.029806
0.236919
0.131186
0.134008
0.150471
0.284184
-0.244778
0.185867
-0.138581
-0.182176
-0.105216
-0.010015
-0.094500
-0.161908
-0.037355
0.048283
0.076299
0.183711
0.056091
0.196994
0.234507
-0.283986
-0.039669
-0.025328
0.018510
-0.105736
-0.302950
0.115752
0.074452
0.007571
0.087672
0.143075
0.222301
-0.163805
-0.146405
-0.046557
0.050381
0.332051
-0.296982
-0.291039
-0.084197
-0.142207
0.128817
0.054924
-0.075675
-0.152253
-0.012708
-0.101085
0.003761
0.118807
0.024246
-0.140847
0.139109
0.019517
0.082112
-0.089509
0.023150
0.059222
-0.270305
-0.119116
0.189258
-0.164415
0.168062
-0.026799
-0.096491
0.121735
0.095697
-0.021558
-0.029723
0.026946
-0.104813
-0.168411
0.181345
0.105888
0.012238
0.063183
-0.051727
-0.141496
-0.051013
-0.124209
-0.388989
0.070246
-0.032821
-0.025657
0.037117
-0.153343
-0.087456
0.125619
-0.074048
-0.046080
-0.066598
-0.274921
-0.049201
-0.075533
-0.168660
-0.254684
-0.358788
0.297484
0.112572
0.059953
-0.275649
-0.234346
0.119886
0.074944
0.173434
-0.059783
-0.144215
0.056071
0.086470
-0.176489
-0.012687
0.091988
0.107439
0.091837
0.032095
0.169084
0.054576
-0.030760
-0.185388
0.032753
-0.335385
0.041019
0.058256
-0.026338
0.030819
0.149302
0.123159
0.133205
0.037965
-0.022123
0.113985
0.033496
0.140490
0.098953
-0.031251
-0.101399
0.036689
-0.144827
-0.075825
-0.179321
0.227959
0.089410
-0.124740
-0.184475
-0.064124
-0.211758
-0.001746
-0.405945
-0.175354
0.085070
0.213437
0.294590
0.021417
-0.110209
0.004283
-0.078511
0.069418
-0.008822
-0.038728
-0.043601
-0.037509
-0.137602
-0.074192
-0.111374
-0.089924
0.140594
-0.009743
-0.167553
0.007724
0.310929
0.063074
0.028596
-0.096487
0.211862
0.277328
0.196243
0.230332
0.034670
0.262731
-0.022171
-0.000489
0.137463
0.061925
0.098375
-0.070467
-0.046884
-0.068769
0.041510
-0.144561
0.159543
0.053445
0.117933
-0.018542
0.208208
-0.263164
-0.082778
0.056101
0.244214
0.077002
-0.182740
-0.110604
0.237521
0.178337
0.101304
-0.034177
0.080071
-0.023230
0.020316
-0.009907
0.035983
0.166557
-0.044618
0.018181
-0.215043
-0.313406
-0.108716
0.107875
-0.299181
-0.430669
-0.120263
0.101406
0.114085
-0.060804
0.141225
0.112062
0.194409
0.190022
0.002744
0.092385
-0.012453
-0.003464
-0.065570
0.004857
-0.120861
-0.148905
-0.095816
-0.114498
0.132865
-0.106530
0.146904
-0.008412
-0.088359
0.408123
0.033549
0.017979
-0.142419
-0.059084
-0.165061
-0.219693
-0.658181
-0.101998
-0.016814
0.221821
0.048283
0.224776
0.096054
-0.053499
-0.076659
0.076064
-0.001720
0.124917
0.133895
-0.263677
-0.485616
-0.007021
0.063337
0.032530
-0.606261
-0.517172
-0.217718
0.010742
0.162304
0.037338
0.079250
0.227947
-0.105835
0.094386
-0.036841
0.183695
-0.129658
0.106065
-0.121128
0.088987
0.112323
-0.006080
0.002213
0.177839
-0.068044
-0.180852
-0.293691
0.055179
0.086770
0.150503
-0.601712
-0.100008
-0.116723
0.094231
-0.018192
0.068526
0.069950
0.154246
0.069772
0.054454
0.060558
0.225929
0.141374
0.289723
0.020018
-0.100071
0.038832
0.045332
-0.219559
-0.105370
-0.044691
-0.275650
-0.004902
-0.090941
-0.505776
-0.200066
-0.008405
0.033819
-0.147773
-0.111817
-0.017755
0.188666
0.099625
0.362940
0.123614
0.166412
0.087492
-0.108428
-0.044290
0.231441
0.001315
0.233419
0.079204
0.173510
0.142141
0.039019
0.038597
0.101817
0.090211
-0.038160
0.020432
-0.148868
-0.028253
0.162401
-0.254648
-0.222871
-0.159883
-0.002646
-0.167917
0.118156
-0.060706
-0.048175
0.159627
-0.242809
0.058987
-0.049173
0.004367
0.262426
0.431054
0.023381
0.256239
0.136988
-0.033798
0.161869
-0.046694
0.070394
-0.256974
-0.184074
-0.010576
-0.039080
-0.001993
-0.234721
0.181942
-0.055997
0.375778
0.025238
0.187145
-0.028898
0.038920
0.077369
0.130648
0.053907
-0.084410
-0.197053
0.028798
0.165661
-0.102116
-0.109775
0.146600
-0.008762
0.226205
0.125225
0.061769
-0.115420
0.128835
-0.003105
-0.354603
0.087537
0.012939
-0.198608
0.116840
-0.095156
-0.079826
0.444949
0.021553
0.001830
0.072481
-0.039745
0.100444
-0.112444
-0.168390
-0.405364
-0.032296
0.275996
-0.399735
-0.345555
-0.397231
-0.211236
-0.027400
0.010620
0.116880
0.001628
-0.065094
0.087055
-0.010724
-0.075588
-0.250857
-0.012633
0.004189
-0.016748
0.013959
-0.111810
0.317939
-0.107155
-0.111935
0.182072
-0.027936
-0.405202
-0.143303
-0.290567
-0.282809
-0.223264
0.121747
0.110682
0.018554
0.232341
0.072631
0.018349
0.151707
0.082621
-0.098253
-0.028163
-0.110928
-0.213950
0.099252
-0.051363
0.097189
-0.224911
-0.073383
-0.019978
-0.221862
-0.018118
0.045268
-0.031843
0.029251
-0.016244
0.082301
0.040089
0.052868
-0.597329
0.194997
0.194165
0.319995
0.265808
0.535115
0.182281
-0.044190
-0.055732
0.249507
0.151696
0.040077
-0.090771
-0.521225
-0.185808
0.265824
-0.096662
0.006698
-0.197185
-0.080091
0.004218
0.033644
0.142800
-0.218590
0.120512
-0.179400
0.204530
0.132053
-0.202307
0.047319
-0.026894
-0.106437
0.459982
0.683312
0.045778
-0.153318
0.197006
0.266178
0.300392
-0.024185
-0.099336
-0.205767
-0.311534
-0.077407
-0.160673
0.075146
-0.128607
0.106877
0.154948
0.026312
0.046244
-0.050108
0.049432
0.045335
-0.025196
-0.112029
-0.077905
-0.371711
-0.227480
0.244917
-0.190028
-0.313124
-0.041838
0.182049
0.328501
-0.275430
0.120492
0.188300
-0.019070
-0.137563
-0.004698
-0.011568
0.049521
0.065808
-0.180464
0.017472
-0.178929
-0.046350
-0.038132
0.144067
-0.263352
-0.364351
-0.522882
-0.206249
-0.181280
-0.139055
0.159016
0.284323
0.260649
0.005989
0.048660
0.229817
0.114336
0.204778
0.112663
-0.154663
-0.091688
0.047873
-0.008256
-0.361365
-0.181670
0.070892
-0.072751
0.065801
-0.450780
0.072195
-0.183351
0.040769
-0.026881
-0.199941
0.065619
0.108239
0.068895
0.242169
0.341225
0.138922
0.000669
0.220788
0.161201
0.199131
-0.207661
-0.057149
-0.035738
-0.091604
-0.143547
0.071615
-0.072311
-0.278003
-0.057289
0.105428
-0.301499
-0.463850
-0.121778
-0.130787
0.181171
-0.320011
-0.264724
-0.060595
-0.174285
-0.044486
-0.087163
0.065496
0.194422
0.195738
0.053563
0.125182
0.019827
-0.201619
-0.043335
0.086282
-0.212465
-0.017297
0.088378
-0.028826
-0.143874
0.076970
0.325188
0.427498
0.196791
-0.049006
0.130092
0.326985
0.221763
0.150628
-0.105322
-0.153471
0.247268
-0.166875
0.102999
-0.107469
-0.123541
0.091874
-0.174853
0.142699
-0.005297
0.076074
-0.330724
-0.045039
0.235891
0.016207
-0.239849
0.001606
0.009332
-0.439118
-0.187136
-0.606940
-0.415073
-0.196712
0.175186
0.218050
-0.164065
-0.299163
-0.209297
0.083119
0.140043
-0.053175
-0.169699
-0.017151
0.059812
-0.184968
0.024175
-0.050929
0.280029
-0.231573
-0.319291
0.163722
-0.172881
-0.611398
0.087863
0.309286
-0.007666
-0.146067
-0.311001
-0.227413
-0.191927
0.082378
-0.191265
0.056675
-0.022170
0.153766
0.143801
0.079965
0.052869
0.099468
-0.094707
0.076605
0.098190
0.108325
0.094776
-0.214756
-0.117129
-0.343029
-0.436638
-0.164901
-0.127655
-0.255619
-0.052314
-0.025969
-0.016889
-0.369204
-0.201982
0.192051
-0.007552
0.035177
0.030433
-0.086041
-0.036803
0.047574
0.031345
0.009801
-0.187484
0.083623
-0.063862
-0.109375
-0.274986
0.074751
0.283441
0.209803
0.102706
0.343112
0.219015
0.181188
-0.031828
0.095356
0.111476
0.143084
-0.083807
0.007491
-0.074512
-0.392536
0.035057
0.000979
0.181140
0.021529
0.067437
-0.284280
-0.155786
0.098248
-0.093708
0.082094
0.420591
0.024832
0.180019
0.308746
-0.053665
0.156863
-0.037555
0.254198
0.300138
-0.071507
0.094612
0.031392
-0.254285
-0.277992
-0.133273
0.062354
0.017316
-0.321234
-0.223657
0.118547
0.081045
-0.157671
0.013811
-0.250597
-0.076116
0.231627
0.004489
0.142204
0.052393
-0.125919
0.024797
-0.080019
0.029288
0.362445
0.191573
0.101618
0.023451
0.396245
0.176926
0.108510
0.001287
-0.094424
0.240054
0.043890
-0.023707
-0.204216
0.019764
-0.003185
-0.157075
0.283101
-0.062234
-0.569459
-0.436447
0.154278
0.277302
-0.015813
-0.426351
-0.356248
-0.398808
-0.313852
-0.038361
-0.099413
-0.070554
-0.054201
0.020814
-0.049122
-0.145941
0.088822
-0.048542
-0.166625
-0.020722
0.192639
0.147050
0.138757
0.013538
-0.061109
0.008077
-0.004161
0.125423
0.013724
-0.279677
-0.003881
-0.089203
-0.136543
0.146024
-0.045880
-0.062113
0.131431
0.307744
0.162964
0.075538
-0.089964
0.123856
0.001009
0.030910
-0.148963
-0.056276
0.072362
-0.041772
0.057477
0.127042
-0.162150
-0.218235
-0.326678
0.008210
-0.004373
-0.194915
0.265960
0.210092
0.153210
0.014276
-0.157093
0.046100
0.201644
0.194104
0.083178
-0.033942
0.330105
-0.236876
-0.225342
-0.007627
-0.360652
-0.019495
0.068256
-0.321303
0.481481
0.306034
0.372099
0.271569
0.483306
0.124976
0.078445
0.155954
-0.051608
-0.109895
0.032712
-0.054333
0.022506
-0.012752
0.250611
-0.165224
0.005862
0.010717
-0.106355
0.129949
0.120920
0.118201
0.043402
0.019261
0.107895
-0.091829
-0.294008
0.119313
0.528871
0.181747
-0.011558
0.043882
0.218209
0.026885
0.167235
0.103430
0.243238
-0.228835
-0.304180
-0.181968
-0.004244
-0.019530
-0.173751
0.045793
0.181006
0.088014
-0.199984
-0.378818
-0.124091
-0.025431
-0.041599
-0.166951
-0.373476
-0.269164
-0.106170
0.338579
-0.244581
-0.151630
-0.257227
-0.006491
0.375578
0.140461
0.143538
0.073906
-0.215627
0.354412
0.136351
0.004214
0.275090
0.021968
0.079970
-0.037716
-0.159296
-0.191163
0.236033
-0.205523
-0.301832
-0.326399
-0.184690
-0.031113
0.317693
0.123448
0.079221
0.300580
0.197038
0.173218
0.114662
0.102137
0.188885
0.413986
-0.002231
-0.212160
-0.124254
-0.213381
-0.362225
-0.024422
-0.142651
-0.142205
0.074455
-0.100130
0.175500
0.110017
-0.169161
-0.161107
-0.093718
0.118656
0.017156
-0.053153
0.217676
0.348857
0.034098
-0.075037
0.018092
0.322587
0.006030
-0.057855
0.008882
-0.122508
-0.417769
-0.057227
-0.161048
0.040880
-0.127608
-0.196740
-0.094594
0.423982
-0.408100
-0.544526
-0.493731
-0.147678
0.155936
0.127200
0.251240
-0.487726
-0.290489
0.250875
0.077499
0.054388
0.428205
0.113718
0.082233
0.003028
-0.129646
0.017795
0.247401
-0.102758
-0.120196
-0.066042
0.008423
0.132787
-0.036724
0.141196
0.470542
0.485872
0.203264
-0.030749
-0.068712
0.005713
0.181176
0.115563
-0.099139
0.122447
-0.052108
-0.203304
-0.171038
-0.018851
0.204702
-0.124992
-0.060612
-0.124125
-0.113478
-0.035095
0.040461
-0.068366
-0.031406
0.084383
0.327200
-0.082383
-0.093846
-0.209416
-0.059632
0.202367
0.148500
-0.126975
0.011049
0.111149
0.050649
0.197538
-0.007507
0.103152
0.132853
-0.061573
-0.169226
-0.010235
-0.031244
0.160380
-0.014203
-0.030709
-0.297673
-0.307356
0.204109
0.106572
-0.603431
-0.465198
-0.326791
0.189766
-0.228596
-0.181623
-0.290770
-0.079781
0.207212
0.144373
0.145925
0.218143
0.330181
-0.045974
0.118621
0.141101
-0.064734
0.280410
-0.042895
-0.263087
-0.209972
-0.161426
-0.220903
-0.102527
-0.104813
-0.401404
-0.144580
-0.111945
0.109920
0.122100
0.006805
-0.156171
-0.199686
0.361500
-0.005855
0.318300
0.192599
0.261337
0.013418
-0.268095
0.059667
0.240675
-0.067922
0.057534
-0.247212
-0.317741
0.005832
0.071260
-0.124232
-0.160345
-0.020199
-0.018004
0.312436
-0.037810
-0.111589
-0.152415
0.081120
0.451192
0.099368
0.050905
0.001004
-0.478364
0.008694
0.165417
-0.064144
0.119563
0.097355
0.150914
-0.041057
-0.034830
0.108485
0.181246
0.277863
-0.130633
0.010038
0.109663
0.190172
0.224678
0.142247
0.373784
0.241632
0.143634
0.125772
-0.064954
0.080894
0.258371
0.138684
-0.227203
0.009244
-0.217158
-0.309515
0.006904
0.025770
0.085735
0.014811
0.052269
0.153170
0.258174
0.063925
-0.297928
-0.178548
-0.057247
0.179395
-0.000285
-0.025148
-0.204073
-0.014347
0.165888
0.204404
0.166601
-0.042779
0.078870
0.156446
0.079544
-0.023550
-0.033150
0.307923
0.310613
-0.110186
0.017547
-0.006508
0.109562
0.007114
0.232377
-0.035828
-0.438696
-0.317717
-0.418010
0.150780
0.067132
-0.150334
-0.486817
-0.527510
0.171543
0.109299
0.133019
0.257836
0.332637
0.024548
0.033406
0.069489
0.015702
0.209571
-0.183061
-0.304283
-0.166873
0.079000
0.186683
0.066456
-0.323587
-0.141569
0.141104
0.086530
0.176496
0.036699
0.130823
-0.318805
-0.029178
0.282786
-0.123278
-0.204425
0.293242
-0.203037
0.255818
0.062760
-0.180975
0.069174
0.282470
-0.249220
-0.065251
-0.101565
-0.159382
-0.035480
0.187989
0.016373
0.088503
-0.011339
-0.132656
0.274901
0.058104
-0.084152
-0.087406
0.175887
-0.041596
-0.333341
0.019183
0.244967
0.296763
0.214431
-0.128683
-0.224582
-0.266149
-0.002711
0.312776
0.094758
-0.083330
-0.172679
-0.072357
0.160500
0.151683
0.217902
0.414119
-0.012132
-0.177448
0.020369
0.234206
0.157955
0.097068
-0.135085
-0.045300
0.106247
-0.010470
0.131747
0.044636
0.020789
0.024321
0.119273
0.134376
0.248955
0.017297
-0.180843
0.193090
0.137240
-0.173627
-0.142302
-0.248705
-0.055006
0.114148
0.097235
0.021817
-0.500552
-0.032556
0.237762
0.117464
-0.031527
-0.099142
-0.142445
0.081987
0.010183
0.091560
0.479928
-0.015027
0.057546
0.137563
0.134338
-0.239385
-0.006817
-0.061523
0.117338
-0.204498
-0.554270
-0.536580
-0.310926
0.151592
-0.188054
-0.153224
-0.642524
-0.198533
0.171222
-0.094311
-0.066137
0.193340
0.050744
0.123217
0.103639
0.113272
0.337663
-0.066981
0.238033
0.102308
0.066002
0.048892
0.145357
0.033851
-0.303427
-0.240265
-0.096376
-0.262882
-0.314156
0.064122
-0.026287
-0.010004
0.055418
0.315744
-0.089907
-0.040855
0.045056
0.122250
-0.258789
0.019803
-0.101333
-0.170072
-0.108554
0.115515
0.040451
0.059553
0.170902
0.207165
0.241812
0.073846
-0.059826
-0.166416
-0.383636
-0.187907
-0.315971
-0.261380
-0.250304
-0.219246
0.001578
-0.146534
-0.090351
-0.119068
0.093860
0.049149
0.238178
-0.030436
0.085837
-0.023422
0.193577
0.237698
0.042394
0.379660
-0.156481
0.418152
0.201754
-0.258601
-0.493065
-0.192587
-0.027337
-0.349343
-0.432719
0.115332
0.138590
-0.208769
0.216846
0.289085
0.339875
0.101327
-0.208065
0.065152
-0.050247
0.092413
0.013435
-0.127924
-0.102283
0.096814
-0.007613
0.087384
-0.126689
-0.144713
0.191523
0.348592
0.106166
-0.200801
-0.082935
-0.129015
0.153023
0.093501
-0.000958
-0.084529
-0.328023
-0.035099
0.117534
0.040576
0.077975
0.067113
0.053983
-0.093260
0.078020
-0.016102
-0.012419
-0.079793
-0.141217
-0.140608
-0.177023
-0.217247
0.130815
0.214104
-0.143679
-0.104261
-0.100845
-0.176173
-0.085070
0.163125
0.114402
-0.284307
-0.124983
0.038360
-0.116427
-0.023116
0.098153
0.080926
-0.054416
0.089264
0.153309
0.206819
-0.147594
0.102783
0.085790
0.014453
0.249553
-0.319579
-0.410871
0.287776
0.087556
-0.217630
-0.460584
0.014552
-0.017802
0.330762
0.052344
0.301274
0.109884
-0.575853
0.195519
-0.007557
0.025818
-0.060246
0.042288
-0.006225
-0.168944
-0.223674
0.040414
0.098576
0.019141
0.013121
0.061280
-0.206102
-0.448477
-0.109414
0.073855
0.119363
0.275217
-0.095751
0.081146
-0.130540
0.257052
-0.095895
-0.061968
-0.270094
0.018617
-0.111957
-0.010057
-0.111345
0.047449
0.011668
0.048608
-0.013307
0.021546
0.044908
-0.250423
-0.001887
0.338382
0.099678
-0.538230
0.112858
0.053650
0.130382
-0.194275
-0.157232
0.191463
-0.040315
-0.154866
0.320076
0.364422
0.083410
-0.053594
0.189278
0.199110
-0.087242
0.221150
-0.117086
0.334108
0.014235
-0.030097
-0.091275
0.440327
0.079652
0.111876
0.237404
-0.060773
0.174092
0.018292
0.105014
-0.078171
0.007665
-0.183665
-0.067395
-0.101940
0.047860
0.157810
-0.187536
0.156806
0.269866
0.052429
0.064766
0.297492
-0.102652
0.187304
0.140349
0.006236
0.049880
-0.074200
-0.102356
-0.163671
-0.000567
0.233923
-0.112944
0.097371
0.212757
0.098417
0.221016
0.231980
0.437724
-0.002860
0.092702
-0.209808
0.003354
-0.181901
-0.021395
0.076809
-0.194410
0.136432
0.113905
0.039305
0.003638
-0.423871
-0.688018
0.046845
0.030322
-0.208851
-0.496338
-0.270189
-0.019148
0.114420
0.368509
0.146058
0.178569
-0.343734
-0.050719
0.241208
-0.019050
0.109620
0.156026
0.065631
0.077335
0.067477
0.069005
0.121198
-0.131774
-0.526320
-0.101020
0.025883
0.212017
-0.223114
-0.321835
-0.213564
0.066424
0.016875
-0.069386
-0.089178
0.328095
0.032870
-0.247562
-0.094694
0.119634
-0.041855
0.024592
0.003691
0.172218
0.234108
0.081814
-0.042686
0.026317
-0.284442
-0.176636
-0.034264
0.100957
0.125682
0.063266
0.063556
-0.124674
-0.033057
-0.120614
-0.446552
-0.338931
0.140619
-0.163634
-0.166396
-0.010269
-0.144941
-0.097291
-0.100273
0.277955
0.055891
0.222107
-0.121925
0.109943
0.150795
0.146982
-0.117170
-0.147490
0.024569
-0.191357
0.036253
0.257085
-0.151238
-0.052619
-0.004447
-0.102875
0.168740
-0.350072
-0.263002
-0.045917
-0.213896
0.078813
0.109538
0.001389
0.215265
-0.041546
-0.044867
-0.225656
-0.058943
-0.122963
0.255064
0.339676
0.048424
-0.022671
0.183225
-0.017157
-0.025689
-0.015839
-0.182008
0.055376
-0.329070
-0.328611
0.068751
0.072558
0.024096
0.128481
0.329105
0.034154
-0.412652
0.096300
0.092196
-0.166578
0.015162
0.001669
-0.087220
0.014782
0.101295
0.235345
0.297400
0.045312
-0.028009
0.058546
0.076319
-0.101523
0.167832
-0.056680
-0.151808
-0.167256
0.156766
0.125842
0.102875
0.061942
0.026107
-0.163565
0.085501
0.117439
0.255192
-0.065947
-0.077973
-0.139333
0.037484
0.002783
-0.253064
-0.071708
-0.490693
-0.018227
0.109357
0.092680
-0.097551
0.353019
0.116538
-0.124441
-0.224533
0.095955
-0.040699
-0.211374
-0.325075
-0.085433
-0.262095
0.094540
0.372471
0.044860
-0.143373
-0.148342
-0.073969
0.026093
-0.028897
0.110819
0.000851
-0.183073
0.153168
0.094100
-0.102556
0.155311
0.069741
0.276844
0.073299
-0.337028
-0.049373
0.094994
-0.003215
0.035453
-0.272216
-0.093398
-0.132664
0.048429
-0.074866
-0.060494
-0.485868
-0.241274
-0.193434
0.111056
0.144772
-0.108149
-0.012545
-0.106899
-0.108245
-0.157976
-0.020518
-0.101644
0.020655
-0.100376
0.053165
-0.110875
0.051644
0.178429
-0.032271
-0.203327
-0.306250
0.073617
-0.085641
0.103564
0.109073
-0.042633
-0.069471
-0.003491
0.074676
-0.132451
0.022236
-0.077923
0.024553
-0.377917
-0.084324
-0.157597
-0.007280
0.036509
-0.614927
0.124255
-0.175056
-0.094060
0.088141
-0.179191
0.236232
-0.136554
-0.248534
0.171560
-0.047134
0.003301
-0.228976
-0.394597
0.071214
0.047169
-0.054863
-0.156170
0.092073
0.213814
0.121021
0.127238
-0.101035
-0.060978
-0.110643
-0.073401
0.206593
-0.191867
-0.183947
0.099340
-0.249933
0.080969
0.142597
0.027363
0.149233
-0.047033
-0.239432
-0.057051
-0.030576
-0.526848
-0.046636
0.325798
0.374409
0.003505
0.075193
0.010150
0.023544
0.124336
-0.210217
0.214493
-0.401854
-0.029107
0.145610
-0.191445
0.237835
0.130816
0.196902
-0.108212
-0.025377
0.188883
0.218448
0.024767
-0.168626
-0.118253
-0.110633
-0.050228
-0.267850
-0.085016
-0.351449
0.032688
0.052759
0.119911
0.063770
0.260179
0.121466
0.010906
0.142296
-0.095480
-0.106426
-0.113334
-0.483806
0.105774
0.025722
-0.080075
0.156687
-0.099659
-0.092773
-0.223524
0.185809
0.136497
-0.029512
0.283510
0.044514
-0.105541
-0.217502
-0.124260
-0.043386
0.121874
0.098900
-0.455453
0.261336
0.027154
0.114904
0.252585
0.286282
0.042191
-0.499438
-0.117488
0.265517
-0.319068
-0.063116
0.080953
0.113972
-0.120596
-0.210390
-0.389310
-0.196100
-0.111088
-0.103495
-0.021624
0.021852
-0.099556
-0.129842
-0.228362
0.114360
-0.058682
-0.249102
-0.074216
-0.097196
-0.112036
0.399472
-0.261623
-0.196163
-0.088709
0.036878
-0.013751
-0.043194
0.021458
-0.092913
0.108518
0.212040
0.156266
-0.135239
-0.053508
-0.088815
-0.016944
-0.029198
-0.004059
0.097935
0.104704
-0.005353
0.112313
0.074490
0.245363
0.174474
-0.136488
-0.351904
-0.309073
-0.026555
-0.112215
-0.029102
-0.316636
0.057170
-0.333210
-0.017029
-0.195658
-0.030149
0.118655
-0.009609
-0.042172
0.053332
0.000989
0.082776
-0.099348
-0.074422
-0.099757
-0.132969
0.112232
0.196334
0.054050
0.164531
0.264607
0.199008
0.183674
0.103402
-0.041381
-0.012213
-0.288449
-0.348959
-0.075960
0.112636
-0.048667
-0.087393
-0.130720
0.070407
0.136716
-0.094323
-0.073848
-0.094892
0.035636
0.020526
0.175314
-0.033530
0.072442
0.201856
0.222823
-0.292415
-0.140964
0.192353
0.177441
0.119634
-0.049813
-0.232664
-0.140649
0.017894
0.163691
0.092202
-0.177724
-0.129070
-0.129284
0.157971
0.081433
-0.264863
-0.092456
-0.053525
-0.030638
-0.162387
-0.071871
-0.090203
-0.265348
-0.145937
-0.099897
-0.019886
0.088469
0.187258
0.219141
-0.068911
0.147519
0.022335
0.017091
0.002417
-0.039776
0.048085
-0.030795
-0.047306
0.010727
-0.050353
0.028273
0.028597
0.037754
-0.066017
-0.055949
-0.037249
0.002610
0.000232
-0.050064
0.029287
0.029819
0.031190
0.002124
0.004791
-0.010923
0.009424
-0.047199
-0.003651
-0.009073
-0.046656
-0.002675
-0.014057
-0.058012
-0.045058
-0.018588
-0.065991
-0.006546
-0.032759
0.037906
-0.023303
-0.063423
-0.021866
0.025187
0.033750
-0.070837
-0.017962
0.009238
-0.013150
0.021976
-0.067145
-0.023820
-0.006197
-0.000532
-0.017239
-0.004214
-0.012299
-0.021240
0.004501
-0.046388
-0.049714
0.034759
0.030182
-0.050301
0.020095
0.018170
-0.058589
-0.015248
-0.044110
-0.000549
-0.052967
-0.044675
0.014582
-0.035667
0.043852
-0.060137
0.009120
0.018059
-0.034737
-0.005127
-0.060419
-0.009057
0.014417
-0.035569
-0.028162
-0.014984
-0.023987
-0.040841
0.011082
-0.022530
-0.010628
0.011535
0.022395
-0.029489
0.023504
-0.013958
-0.009498
-0.036312
-0.051805
0.004852
0.025532
-0.025764
-0.054141
-0.016988
0.013986
-0.068404
-0.046140
-0.002107
0.020884
-0.052426
-0.049430
-0.004730
-0.029613
-0.025251
-0.049721
-0.004811
0.015197
0.011296
-0.017746
-0.015791
-0.010733
-0.000878
0.005750
-0.028932
-0.018961
-0.053059
-0.072537
-0.016848
0.018025
0.005074
0.044872
-0.057095
0.029441
0.032824
0.047710
-0.040689
-0.026802
0.041060
-0.049451
0.046907
-0.051840
0.010284
-0.013905
-0.027090
-0.047100
-0.059423
-0.006670
-0.052727
-0.031054
-0.040824
0.042068
-0.030013
0.001484
-0.056871
-0.042348
0.034456
-0.036014
-0.066394
-0.059486
-0.022435
0.041825
-0.052888
-0.003589
-0.081033
-0.025554
0.038830
-0.056244
-0.066120
-0.075940
0.024010
0.027755
0.001993
-0.002825
0.033658
0.033650
-0.038832
-0.005354
-0.006770
0.004162
-0.022267
-0.048418
-0.033889
-0.068275
-0.006677
0.008855
-0.011969
-0.017554
-0.069485
-0.061940
-0.056067
-0.007733
-0.019886
-0.006468
-0.072647
-0.011825
0.015777
0.013734
0.051106
0.046491
-0.012746
0.017348
0.047776
0.039007
-0.040585
0.026896
-0.044402
0.017417
-0.010782
-0.018673
0.009989
-0.022550
-0.009449
-0.030930
-0.049599
-0.032592
0.026706
-0.042003
-0.033448
-0.001909
-0.019440
-0.005288
0.023896
-0.054849
0.003424
0.036235
0.011033
-0.056391
-0.035198
0.032282
-0.056783
-0.065352
-0.060239
0.023517
0.025540
-0.058642
-0.005463
-0.019998
0.001168
0.004580
0.024904
0.019103
0.023064
0.022043
0.029362
-0.029919
-0.048891
-0.002124
-0.035355
-0.012313
-0.054722
-0.004268
-0.036617
-0.010108
0.006022
0.031899
0.017878
-0.010525
-0.010039
-0.071706
0.037120
0.055088
-0.051406
0.010928
-0.009236
0.013704
-0.064267
-0.039102
-0.067321
0.037336
-0.083947
-0.060025
0.003761
0.042345
-0.020113
-0.010148
-0.037103
-0.000079
0.038360
-0.007163
0.021081
0.003714
-0.068246
-0.038547
0.040584
-0.040518
0.042929
0.006811
0.013696
-0.019709
-0.017309
-0.030708
-0.033716
0.001929
0.008752
-0.026419
0.002485
0.016451
-0.030900
-0.035123
-0.044751
-0.024074
0.035910
-0.059166
0.029655
-0.057572
0.024615
-0.053238
0.027485
-0.044808
0.028063
-0.076116
-0.060761
-0.043508
-0.006214
0.037646
-0.043793
-0.075971
-0.015607
0.055085
-0.042623
-0.022132
-0.029052
-0.018299
-0.025693
-0.020051
-0.057931
-0.037187
-0.072052
0.005462
-0.023702
0.026614
-0.041548
0.036085
0.023009
-0.041457
-0.013433
-0.065753
-0.010198
-0.005870
0.036154
-0.025235
-0.035112
-0.035200
-0.051723
-0.045443
-0.048465
-0.021251
0.013224
-0.038814
0.018012
0.016292
-0.025232
-0.039065
-0.019008
-0.043754
0.018111
0.031951
-0.008208
-0.038558
0.030801
-0.050924
-0.077122
0.018452
-0.027549
-0.004468
0.033673
0.036204
0.032080
-0.010597
-0.041981
0.002974
-0.007504
-0.019876
-0.050063
0.006875
-0.047496
-0.042345
0.047796
-0.011515
-0.047386
0.014308
-0.063198
-0.034246
-0.036544
0.037762
-0.004868
-0.000115
-0.013718
-0.056212
-0.053459
-0.041357
-0.021262
0.014436
-0.018965
0.014555
0.036441
-0.001653
-0.004570
-0.049783
-0.054805
-0.048770
-0.007263
-0.069347
-0.177271
0.209104
0.191396
-0.007130
0.121103
-0.324090
0.067724
-0.096856
-0.193684
-0.032037
0.027864
0.151679
0.236032
0.101914
0.003190
0.036581
0.034452
0.074375
-0.016919
-0.120154
0.076635
-0.176593
-0.215099
-0.458493
-0.121929
-0.033053
0.524626
0.358495
0.051996
-0.097281
0.188696
-0.150550
-0.115062
-0.262056
0.109332
0.041330
-0.214376
-0.288479
-0.141873
-0.037993
-0.182140
-0.199535
0.190456
0.253690
0.152513
0.184301
0.099488
0.056615
0.066729
0.162657
-0.014822
-0.085667
-0.054220
0.108973
-0.046914
0.115405
-0.029220
0.115027
0.304129
0.105178
0.012653
0.067820
0.070870
-0.121146
0.036795
-0.134233
-0.212156
-0.406372
-0.181794
0.049917
0.016983
0.123441
0.193759
0.089121
-0.031889
-0.206974
-0.021197
0.136523
-0.078281
0.034873
0.052517
0.046603
0.121977
-0.007543
0.001392
0.237603
0.151609
-0.123467
-0.093714
0.181276
0.207480
0.010816
-0.127199
-0.211292
-0.229330
-0.101297
-0.150261
-0.158288
-0.282171
-0.193800
-0.154560
0.103239
0.003279
-0.117646
-0.680759
-0.165730
-0.219942
-0.209008
-0.145379
0.111484
-0.019468
-0.141400
-0.401264
-0.342521
-0.109873
0.056975
-0.123369
0.007338
-0.206909
0.118266
-0.349666
-0.180481
-0.370452
0.173761
-0.153476
-0.009065
-0.127567
0.009647
0.162064
-0.018253
-0.139257
-0.001373
-0.155029
0.223870
0.030873
-0.030960
-0.030610
-0.146249
-0.045964
0.135673
-0.095933
0.105650
0.366180
0.022035
0.052734
0.118237
0.109416
0.010238
-0.099382
-0.416679
-0.068588
0.066507
0.134716
0.064448
-0.151200
-0.009996
0.209527
-0.013378
-0.035748
-0.173766
0.116882
-0.268427
-0.251485
0.147858
0.082245
-0.292656
-0.156659
0.115973
0.174630
-0.102037
-0.618264
-0.083256
0.069165
0.145387
-0.271951
-0.216071
-0.268266
-0.454000
-0.142407
-0.144218
0.036043
0.178270
0.330318
0.132691
0.149410
0.480234
0.067049
-0.004693
-0.007405
0.343263
0.258166
-0.060177
-0.051464
-0.270890
0.010875
-0.261272
-0.490519
-0.329665
-0.098050
-0.003171
-0.000656
-0.091851
-0.030102
0.258306
-0.055594
0.159376
-0.180876
-0.128202
-0.005243
0.046243
0.165518
0.031246
0.197512
-1.054693
0.231606
-0.167542
0.115815
-0.365929
-0.075670
-0.053644
0.083950
-0.009911
0.078891
-0.084692
-0.213983
-0.376745
-0.062684
0.022462
-0.038060
0.146496
-0.138923
-0.067864
-0.149385
0.019791
0.161945
0.184761
0.281922
0.046392
0.137495
0.330281
0.267314
0.192436
-0.157721
-0.180556
-0.048792
0.075999
-0.058068
-0.104760
-0.430593
0.120072
0.235997
0.175756
0.163208
0.093616
0.185053
-0.392908
-0.225906
-0.114218
-0.040850
0.003886
-0.442134
-0.067109
-0.081645
-0.516361
-0.776517
-0.136974
0.149671
0.196294
0.107463
-0.203075
0.212931
0.025818
0.016846
-0.049603
0.262244
-0.168807
0.151580
0.069984
-0.019131
-0.108069
0.041481
-0.097955
-0.102423
-0.784340
-0.009989
0.054505
0.031080
0.090977
0.018144
-0.215005
0.240467
0.089896
-0.017406
0.188122
-0.009166
-0.308426
-0.524817
0.067287
-0.070156
-0.078920
-0.469102
0.110573
0.116908
-0.075658
-0.209956
-0.534391
-0.036467
0.270764
0.300520
-0.646904
-0.204247
0.004866
0.028231
-0.698020
-0.189700
-0.035888
0.106033
0.034640
-0.362228
0.057316
0.194840
-0.173644
-0.069434
0.264078
-0.175243
-0.067247
0.045532
0.088572
-0.241774
-0.071240
-0.175409
-0.107099
0.056027
-0.041830
0.151590
-0.039738
0.082020
-0.048289
-0.420593
0.116174
-0.046201
-0.144340
-0.385058
-0.222461
0.159199
0.174362
0.147513
0.042382
-0.092651
-0.259097
0.064294
-0.064884
0.067821
0.183044
0.282436
0.161685
-0.542183
-0.161225
0.221175
0.033081
-0.263261
0.173648
0.065245
-0.050545
-0.048685
-0.207962
-0.174244
0.347149
0.255620
0.051183
0.061151
0.087777
0.041141
-0.026286
0.138633
-0.086986
-0.068906
0.011620
0.057890
0.145729
-0.138499
-0.072795
0.271154
0.101029
0.243149
0.198906
0.024744
0.250114
0.042843
0.105587
-0.032101
0.128637
0.013413
-0.047664
-0.355734
-0.467380
-0.460720
0.058828
-0.097452
0.164966
0.415855
0.265033
-0.016819
0.019975
0.029588
0.096523
-0.029542
-0.199966
0.200203
-0.051728
0.076568
-0.089232
-0.153757
0.076849
-0.034240
0.127654
0.204122
-0.074977
-0.106773
-0.358082
0.022965
0.173919
0.175668
-0.150675
-0.192402
-0.010946
0.604969
0.558926
0.095125
-0.113705
0.264507
-0.167450
0.145662
-0.106461
-0.168321
-0.012670
-0.285227
0.072573
-0.067228
-0.216310
-0.306475
0.116088
0.028747
-0.105310
0.062746
0.088424
0.235666
0.020206
0.009173
-0.088339
-0.341631
-0.246304
0.121844
0.496098
-0.038847
-0.206363
-0.347764
0.167790
0.225152
-0.081031
0.021202
-0.049881
-0.014522
-0.095325
-0.287760
-0.425223
-0.177474
0.022737
-0.009799
0.033572
0.045192
0.028853
-0.031763
0.116440
-0.431697
-0.514625
-0.339014
0.001276
-0.177529
-0.116457
0.145414
0.178735
0.217330
-0.089883
-0.134515
0.091860
-0.122328
-0.033088
-0.361464
0.030095
-0.106272
0.081575
0.095619
-0.292245
-0.111279
-0.297380
-0.247478
0.178056
-0.178751
0.019193
0.029956
-0.074084
0.081558
-0.063396
0.016941
-0.066263
0.455298
0.378651
0.577452
-0.053632
0.102508
0.000042
-0.066405
-0.030696
-0.049889
0.016196
0.003002
0.033199
0.034139
-0.102488
-0.213023
0.043396
0.012480
0.125953
-0.256222
-0.357371
-0.551904
-0.001734
0.039158
-0.185797
-0.203812
-0.064913
0.054404
0.019175
-0.020118
-0.106456
0.132866
-0.200405
0.032841
-0.111632
0.240000
-0.074425
-0.098185
-0.034848
0.037567
0.040758
0.021218
-0.060079
0.028658
0.205569
0.125832
0.478661
0.252609
-0.104791
0.020784
0.310089
0.040134
0.243672
-0.189106
-0.025369
0.119558
-0.159213
0.234384
0.051359
-0.019122
0.062441
0.022855
0.028863
0.159602
-0.193971
-0.188530
0.156194
0.026585
0.120164
0.278668
-0.153098
-0.227103
0.042390
0.093600
-0.441634
-0.086136
-0.228629
0.088522
0.236496
-0.174404
-0.221831
0.003391
-0.110536
0.006963
-0.133825
-0.369111
-0.124787
0.135414
0.020875
0.049827
0.134197
0.008184
-0.104668
-0.086144
0.100154
0.254057
-0.440189
-0.195720
0.349086
0.194692
-0.076944
-0.244969
0.100088
-0.032432
0.175806
-0.071978
-0.153978
0.279054
0.106642
-0.030351
-0.083272
-0.164175
-0.262447
-0.298108
-0.136073
0.249101
0.068256
0.061100
-0.218983
-0.341278
-0.451285
-0.346967
-0.086118
-0.326825
-0.090214
-0.301700
-0.039371
0.025190
-0.004319
-0.155658
0.145772
-0.026885
-0.102374
-0.129903
0.103183
-0.010780
0.153520
0.049259
-0.183690
-0.221890
-0.067525
-0.101062
0.076646
-0.073465
0.041536
0.385063
0.102104
0.189587
-0.056827
0.094439
0.028245
0.001373
-0.049932
-0.043120
0.052637
-0.281936
0.132935
0.112688
-0.339952
-0.285595
0.186988
0.061946
0.091168
0.306835
-0.057908
0.133749
0.078372
-0.084013
-0.089403
0.333032
0.043285
0.247198
0.149512
0.098512
0.098113
-0.077575
0.365593
-0.049370
-0.124531
0.018221
-0.001203
-0.258222
-0.192678
-0.002289
0.017478
0.078281
0.007963
-0.009070
0.137149
-0.082977
-0.044833
-0.068604
-0.234470
0.134793
0.017971
0.013741
-0.108167
-0.058419
-0.035014
-0.088045
-0.244581
0.090488
0.399516
0.261863
-0.168160
-0.115576
0.402276
0.019659
0.028256
-0.070957
0.225006
0.040692
0.202013
0.108492
-0.119893
0.039329
0.000642
-0.041376
-0.035196
-0.133156
-0.169256
-0.222699
-0.334814
-0.151282
0.250385
-0.255530
0.005300
-0.169683
-0.089390
-0.149994
-0.251998
-0.198625
0.003508
0.043470
-0.146302
-0.091509
-0.039015
-0.306529
-0.406805
0.050435
0.148737
0.150695
0.120994
-0.219101
-0.027730
-0.060282
-0.052946
-0.017994
-0.186362
-0.029607
0.174861
-0.040537
-0.211654
0.342476
-0.155315
-0.153055
0.169327
-0.058562
0.068020
-0.099820
0.010731
-0.035177
-0.202714
0.103046
0.138471
-0.039516
-0.077801
-0.134985
-0.002756
0.138326
-0.094100
-0.306192
-0.073979
0.270264
-0.073505
-0.217249
0.244384
0.049225
0.103481
-0.075269
-0.039834
0.103496
0.004728
0.047069
0.226132
-0.082603
0.176178
-0.080104
0.134398
-0.207386
-0.060912
-0.381721
-0.104190
-0.213847
0.035526
0.026876
-0.000607
-0.170585
-0.008149
0.051657
0.049132
0.092711
-0.027701
-0.020005
-0.115580
0.014130
-0.003562
0.009884
-0.049911
-0.012519
0.035033
-0.020670
0.017939
-0.045488
-0.048567
-0.007674
-0.011175
-0.068702
-0.008425
-0.049028
0.006772
0.028865
-0.065933
0.009386
-0.027616
-0.050324
-0.050528
-0.035654
0.017054
0.005294
-0.012170
-0.060374
-0.069604
-0.165239
-0.073681
-0.072144
-0.028284
-0.032048
0.026797
0.020473
-0.036414
-0.085367
0.061637
0.032235
-0.093493
-0.060764
-0.032711
-0.032607
-0.095001
0.003029
-0.039801
-0.028728
-0.011284
0.046249
-0.071910
-0.040739
-0.025426
-0.019444
-0.010118
0.009132
-0.058746
-0.033293
-0.082504
-0.083214
-0.070110
-0.064329
-0.043878
0.027765
-0.028084
0.006843
-0.101542
-0.033259
0.009474
-0.010118
-0.029270
0.021720
0.024746
-0.028495
0.028439
0.035635
-0.052212
-0.009792
0.008619
-0.004149
-0.035980
-0.054199
0.077193
0.094056
-0.035248
-0.016068
0.010243
-0.060119
0.005577
-0.117363
0.075430
-0.004574
-0.046142
0.030523
-0.089408
-0.026427
0.004927
-0.096032
-0.146826
0.006904
-0.027991
-0.163654
-0.035459
0.000067
0.011796
-0.060656
-0.069609
-0.003468
-0.050524
-0.037562
-0.035757
-0.049335
-0.030665
-0.037030
-0.124898
0.019806
-0.058657
-0.057103
-0.020159
0.087058
0.058447
0.007812
-0.028450
-0.000950
-0.075400
-0.066052
-0.048217
-0.060274
-0.123065
-0.046201
-0.126820
-0.069876
-0.108234
0.034559
-0.048387
-0.052980
-0.069229
-0.043880
0.004125
0.001285
0.013017
-0.023860
0.011198
-0.006393
-0.062550
-0.023870
-0.028622
-0.072187
0.046346
-0.067605
-0.053836
-0.133534
-0.056958
-0.054237
-0.084117
0.019603
-0.107050
-0.030079
-0.049780
-0.100864
-0.067811
-0.021789
-0.049209
-0.089966
-0.062752
-0.138260
-0.019144
0.008446
-0.076315
-0.130565
0.018990
-0.099816
-0.050389
0.061218
0.024787
0.031849
0.021691
-0.016159
0.105023
0.026793
-0.043906
0.019285
-0.014179
-0.046115
0.080230
0.019200
-0.032805
-0.010642
-0.038975
-0.105234
0.005124
-0.031033
-0.091091
0.010799
0.004860
0.056388
-0.138362
-0.051099
-0.066324
-0.027333
0.047630
0.023682
-0.036344
0.003196
-0.042856
0.023923
-0.031553
-0.047513
-0.017160
-0.169524
0.019327
-0.034572
-0.003754
-0.013632
0.060389
0.045928
-0.047838
-0.027939
0.028294
0.061309
-0.087789
0.003141
0.015081
-0.047936
-0.110696
-0.105794
0.000062
-0.003646
0.048993
0.007939
0.036053
-0.048054
-0.026401
0.089068
0.007691
-0.034183
-0.003544
-0.039602
0.013228
-0.009789
-0.104797
0.011917
-0.064126
0.047429
0.025787
-0.096156
-0.144171
-0.053802
0.008548
-0.029214
-0.035350
-0.044411
-0.047814
-0.081559
-0.113903
-0.123416
-0.107103
-0.037926
-0.102234
-0.003585
-0.062451
-0.089365
-0.044036
-0.063399
-0.073259
0.003289
-0.022637
-0.119387
-0.081667
-0.009505
0.023615
-0.073912
-0.043368
-0.087212
0.041334
-0.135176
-0.025000
-0.011355
-0.072529
-0.197017
-0.005001
-0.068626
0.004668
-0.061478
0.041228
-0.006222
-0.071735
-0.131812
-0.042686
-0.055195
0.058356
0.007064
-0.007521
0.019251
0.051242
-0.047299
-0.035829
-0.035405
-0.002864
0.003609
-0.070006
-0.026815
-0.138866
-0.117569
0.067267
-0.017961
-0.069701
-0.063871
-0.081608
0.057445
-0.089599
0.005275
0.017641
0.029474
0.058713
0.082283
0.064375
0.026019
0.015687
0.001061
0.038867
0.064289
-0.088158
-0.029211
0.050938
-0.039112
0.015141
-0.050912
-0.039931
0.037432
-0.085911
-0.077528
-0.045058
-0.006401
-0.148178
-0.003604
-0.023090
-0.029449
0.047188
0.004806
-0.017381
0.019969
-0.033302
-0.025857
-0.012518
-0.067816
-0.004513
-0.059109
-0.030442
-0.056405
-0.024686
-0.076980
-0.010269
-0.018045
-0.090197
-0.051088
-0.084396
-0.058578
-0.059297
-0.053032
0.009381
-0.007909
-0.030670
0.049401
-0.042267
-0.066838
0.065124
0.070007
-0.084203
-0.060819
-0.014994
-0.023224
-0.032600
-0.022205
-0.041841
-0.026736
-0.017753
0.028868
0.009221
-0.048809
-0.110151
-0.035748
-0.017417
-0.086066
-0.010512
-0.054092
-0.049083
-0.066586
-0.055536
-0.004052
0.009292
-0.040894
-0.114035
0.094113
0.074427
-0.046921
0.335625
-0.169476
0.123130
0.177069
-0.022316
-0.245417
-0.204818
0.006744
0.357552
0.142986
-0.012705
-0.271481
-0.085820
-0.031465
0.265295
0.024454
-0.197585
-0.148002
0.197313
-0.057998
0.066096
0.100064
0.014865
-0.297532
0.165771
-0.073140
0.029144
-0.206292
-0.056768
0.069160
0.028720
0.277190
0.217309
0.252517
-0.009986
-0.010435
0.172135
0.157384
-0.060202
-0.085095
-0.179407
0.138934
-0.026872
-0.205018
-0.155262
-0.132533
0.109591
0.146028
0.082171
0.090694
0.051148
-0.029923
-0.388655
-0.614575
-0.261299
-0.186757
-0.134893
0.021488
0.188117
-0.088389
0.083626
-0.011845
0.026890
0.104985
-0.238542
-0.088698
0.134005
0.035323
-0.056037
0.018482
-0.125509
-0.057680
0.143534
0.104861
-0.165438
0.121719
-0.025599
-0.065544
-0.334000
0.140942
-0.233524
-0.282557
-0.312560
-0.557471
-0.108688
0.002581
-0.084907
-0.201320
-0.207157
0.187977
-0.108258
-0.110504
-0.437797
0.100451
0.189266
-0.043045
-0.010003
-0.060986
0.018017
0.064376
0.255238
0.008006
0.116345
0.329890
0.161492
0.172742
-0.154165
0.087435
0.048587
0.135196
0.061005
-0.237849
0.281618
0.130003
0.088482
0.137474
0.137879
0.043012
0.214392
-0.134975
-0.357049
-0.072696
-0.268884
-0.183498
0.114494
0.184314
0.010718
-0.111813
0.278250
-0.088203
0.195576
-0.107708
0.176492
-0.063279
0.210118
-0.159165
-0.071357
-0.008127
-0.015952
0.016376
0.133631
0.044261
-0.261987
-0.259965
-0.078543
0.068734
-0.151380
-0.060761
-0.165885
0.136427
0.117721
-0.431711
-0.091641
-0.064348
0.125461
0.165328
0.217437
0.184745
0.141673
0.077567
0.262262
0.145779
0.010017
0.139089
0.243578
0.329158
0.362180
0.116100
0.044960
0.157109
0.363217
0.140491
0.125095
0.249561
0.187458
0.148682
0.135336
-0.063173
0.010095
-0.133758
-0.150881
-0.503723
-0.606117
-0.643737
-0.139863
-0.222160
-0.548268
-0.713673
-0.396880
-0.120573
-0.379457
-0.140540
-0.374382
-0.446357
0.095659
-0.023109
0.069979
0.036162
0.085282
0.218663
-0.140170
0.026545
0.033681
0.076846
-0.053709
-0.225078
-0.030786
0.141680
-0.284568
-0.055329
-0.333715
-0.304892
-0.341957
-0.500252
-0.024984
-0.114840
0.050328
-0.237885
-0.549680
-0.107508
-0.093889
-0.032337
0.047308
0.272246
0.021083
0.103408
0.103589
0.346988
0.313803
0.248098
-0.073553
-0.071537
-0.209543
-0.611087
-0.244359
-0.083515
-0.239275
-0.131885
-0.476201
0.130791
-0.138648
-0.250450
-0.547379
0.085129
0.158684
-0.151133
-0.564540
-0.254460
-0.162894
-0.228167
-0.210891
-0.143644
0.152152
-0.118086
0.020911
0.361797
0.256931
0.179988
0.353017
0.127820
0.310348
0.273854
0.237723
0.441814
0.134704
0.171806
0.070132
0.021215
0.143957
-0.165148
-0.254154
-0.111350
-0.267338
-0.350902
-0.086824
0.104280
-0.411820
-0.036160
-0.063994
-0.007349
0.012488
0.107346
0.227128
0.268162
0.403126
-0.120680
-0.056070
0.075723
-0.009856
-0.004413
0.133143
-0.167184
0.276270
0.087857
-0.321251
-0.202531
-0.102884
0.060321
0.148567
-0.345377
-0.155730
0.191013
-0.018482
-0.048438
0.099209
0.301046
0.096607
0.068580
0.245107
0.127487
0.138473
0.171820
0.217496
0.418298
0.182554
0.149369
-0.113628
0.046262
-0.002833
-0.003693
-0.102081
-0.010028
0.030647
0.348660
0.217479
0.184332
-0.023865
0.026558
0.221814
-0.280857
-0.085893
-0.150638
-0.317431
-0.499012
0.151615
-0.252328
-0.686917
-0.422746
-0.614190
0.032115
-0.084576
-0.314911
-0.246036
-0.468773
-0.229977
-0.237191
-0.093648
-0.260972
-0.037235
0.128450
0.023306
-0.249321
0.243584
0.167113
-0.108656
0.251113
0.283644
0.088683
0.050325
0.250797
0.004612
0.343533
-0.102486
0.276458
0.158420
0.001255
0.119977
-0.148210
-0.214703
0.031092
0.123262
0.317287
0.286313
0.294337
-0.079890
0.230516
-0.155589
-0.083778
0.006018
-0.004924
0.172582
-0.342267
-0.323557
0.149076
-0.148111
0.274126
0.020982
-0.194804
0.151116
0.224756
-0.060148
0.146108
0.291895
-0.143827
-0.082075
0.012312
0.309749
-0.014959
-0.073569
0.025935
-0.126420
0.162704
0.201289
0.214352
0.423965
0.043614
0.173101
0.110611
-0.072260
0.261870
0.169248
0.035919
0.137586
-0.022576
0.131003
0.024367
0.065725
0.083209
-0.013699
0.006952
0.109049
0.405298
0.020287
-0.049158
-0.048615
0.135837
-0.546361
0.057026
0.013151
-0.133220
-0.414293
-0.145784
0.323934
0.167462
0.080742
0.010930
0.513202
0.169689
-0.071536
-0.074477
-0.027552
0.120478
-0.117989
0.071900
0.014287
-0.118439
-0.171334
0.166296
0.106010
-0.137653
-0.512209
-0.080306
0.099115
-0.086050
0.022985
-0.057326
0.198957
0.022074
-0.016501
-0.102979
-0.175952
0.099155
0.327788
0.054703
0.170715
0.053991
-0.022205
0.061464
-0.266793
-0.193506
-0.207911
0.032722
0.074231
0.217873
-0.343828
0.046167
0.152018
-0.202451
-0.218337
0.390130
-0.122113
-0.263901
-0.208061
-0.056490
-0.221219
-0.436175
-0.033115
0.056525
0.198928
0.108831
-0.017711
-0.200559
0.174039
0.204339
-0.120660
-0.031475
-0.106651
0.013628
0.254355
-0.097953
-0.042621
0.211285
0.129491
-0.062118
0.097411
-0.004974
0.269273
-0.455748
-0.353937
-0.131332
-0.100975
0.058959
-0.028157
0.233768
0.118634
0.009547
0.222059
0.258872
-0.115960
-0.234459
-0.478317
-0.325292
0.034351
0.063823
-0.298983
-0.178399
-0.111054
0.269321
0.141799
-0.161469
0.001744
0.171043
-0.087026
-0.629582
0.287398
0.162380
-0.112998
-0.315879
-0.406060
0.108890
-0.023533
0.060213
-0.036257
-0.078204
-0.034085
0.143238
0.060693
-0.107345
-0.158340
0.054497
0.254826
0.034096
0.126242
-0.027011
-0.094099
0.066269
-0.276167
0.344620
0.119340
-0.081451
0.134697
0.333911
0.214268
0.122960
-0.131373
0.260323
0.184713
0.011126
-0.054055
-0.205877
-0.746315
-0.145838
0.186314
0.016779
-0.381503
-0.312841
-0.460607
0.149283
0.031227
-0.012474
0.290734
-0.357249
-0.388579
-0.192752
0.004462
0.141536
0.128259
-0.111885
-0.044972
-0.083590
0.285456
0.254300
0.161415
0.164963
-0.102472
-0.592170
-0.432119
0.102773
0.198332
-0.253478
0.040625
-0.493929
0.039401
0.163658
-0.209481
0.216606
0.144738
0.094498
-0.161593
0.175281
0.268139
-0.068824
-0.168236
-0.218201
-0.106165
-0.136019
0.043559
-0.045481
-0.249934
-0.382733
-0.157123
0.034298
0.004163
0.342519
-0.198964
0.008997
0.039243
0.121203
0.263276
0.014716
0.048810
0.087348
-0.073742
-0.044870
0.201795
-0.081555
-0.107890
-0.103110
-0.083990
0.063648
0.157242
0.023176
0.170880
0.049057
0.181296
0.186896
0.293759
0.019986
0.075347
0.085569
-0.579065
0.092992
-0.096560
0.019926
-0.124666
-0.145358
0.088008
0.208207
0.040593
-0.136993
0.101198
0.280051
-0.047146
0.054432
0.065562
0.099167
0.073493
-0.078386
-0.012819
0.071489
-0.168257
-0.343053
0.175397
-0.078371
-0.322682
-0.003095
0.078630
-0.133936
0.113032
-0.043007
-0.140400
0.145847
0.035402
0.174566
-0.031241
-0.008639
0.294849
-0.068369
-0.250329
0.000826
0.066342
0.064534
-0.086843
-0.445437
-0.087392
-0.052090
0.096157
0.040925
0.244856
0.032774
-0.187910
-0.020470
0.272529
-0.124689
-0.225672
0.062972
0.166627
-0.038754
-0.216293
-0.034969
-0.088098
-0.033253
-0.300804
0.205502
-0.263671
0.045970
0.189296
-0.064522
0.046854
-0.340294
-0.374305
-0.493326
-0.345083
0.179649
-0.410128
-0.114534
-0.187167
-0.113015
0.474821
-0.122407
-0.033240
0.155931
0.084609
-0.280151
0.401345
0.060759
0.027346
-0.570249
-0.209696
0.155790
0.001300
0.142238
0.168303
-0.069839
-0.404506
-0.424785
0.071519
0.038550
-0.106890
-0.326176
-0.149188
-0.285949
0.067540
0.188515
-0.223230
0.021085
0.440783
0.085264
-0.252531
0.119295
0.210636
0.295157
-0.283584
-0.254451
-0.315586
-0.188693
0.122076
0.099839
-0.028947
-0.038378
-0.016975
0.057356
0.189591
0.157399
-0.232080
-0.231083
0.195892
0.123195
-0.024976
-0.239116
0.268245
-0.059524
-0.112031
-0.150462
-0.124877
0.097412
0.057191
0.074233
0.045205
0.008166
0.054184
-0.008219
-0.434765
0.188673
-0.119728
-0.323438
0.011671
-0.038524
0.247006
-0.133554
-0.189836
0.194827
-0.154975
0.110624
-0.201498
-0.180586
0.132909
-0.007979
0.144331
0.054380
-0.165365
0.085456
0.096747
0.128805
0.325329
0.240194
-0.025028
-0.051098
0.010428
-0.349107
-0.111519
-0.121814
0.021236
-0.092331
0.144026
-0.139966
-0.162624
-0.118480
0.072916
0.025843
-0.235094
0.084013
-0.153321
-0.008155
0.011218
-0.148432
0.268234
-0.167557
-0.146648
-0.243325
-0.299175
-0.273216
0.029338
-0.107130
0.165588
-0.064897
-0.080809
-0.418079
-0.257194
0.180226
-0.009212
0.161470
-0.155530
-0.174623
0.212506
-0.190620
-0.255760
0.107393
0.078154
0.142043
0.007805
0.072483
0.269883
-0.175101
-0.262078
-0.232400
-0.138671
-0.158746
-0.084353
0.057758
0.053418
-0.018337
-0.046633
-0.170043
-0.200037
0.183238
0.065737
0.004531
-0.004331
0.152217
0.077291
0.046980
-0.004387
-0.019511
0.077636
-0.045464
-0.163639
-0.259247
-0.483235
0.245212
0.119151
0.061005
-0.025611
-0.177512
0.166917
0.151822
0.157453
-0.003878
-0.212770
-0.428612
-0.296201
0.058366
-0.321931
-0.023101
-0.111989
-0.091381
-0.089191
-0.296519
-0.042003
-0.005257
0.056853
-0.245467
0.025534
-0.437977
0.131415
-0.116412
-0.133953
0.028309
-0.179058
0.215242
0.134118
-0.002830
-0.123549
-0.217198
-0.140047
-0.081682
-0.279976
0.106191
0.139563
-0.156099
-0.060446
0.196039
0.322125
0.302754
-0.355683
-0.066643
-0.019022
-0.032223
-0.069930
0.153065
0.019728
0.103424
0.010398
0.165667
-0.131779
-0.085643
-0.210986
0.103558
0.031176
-0.488018
-0.059756
-0.278529
0.180901
0.045120
-0.195770
-0.044172
-0.346229
-0.069065
0.114979
0.012170
-0.197908
-0.215152
-0.065005
-0.086483
0.244149
-0.533412
-0.139393
-0.084419
-0.055393
-0.422841
0.030899
-0.162966
-0.096995
0.183392
0.220357
0.219983
0.039524
-0.066442
-0.243476
-0.141472
-0.169959
-0.007367
-0.054024
-0.000690
0.169298
0.281195
0.167220
0.040204
0.014270
-0.229207
0.289289
0.001798
-0.410196
-0.400900
-0.162204
-0.223888
0.146296
-0.023925
-0.403217
0.231663
0.227044
0.056314
-0.016189
0.016671
-0.120269
-0.007152
-0.195076
0.226936
0.236456
-0.230787
0.240763
0.158212
0.090458
-0.146014
-0.000964
-0.155234
-0.024958
-0.090347
-0.258732
0.108786
0.190217
0.127177
-0.026539
-0.074904
-0.283543
-0.204315
0.098585
0.083854
-0.029687
0.009072
0.121225
0.059230
0.208514
-0.037477
-0.045929
-0.145935
-0.250264
-0.031501
-0.007000
0.179276
0.089675
0.020393
-0.019674
-0.231606
-0.192611
-0.134074
-0.282261
-0.006010
0.080745
0.119228
-0.195696
-0.356731
-0.211791
-0.093529
0.127593
-0.121665
0.169045
-0.059425
0.192291
0.043528
0.303740
-0.341824
-0.398874
-0.031221
-0.167971
-0.324583
-0.009164
-0.073528
0.309585
-0.055685
-0.042412
-0.222374
0.233529
0.147739
-0.314716
0.115385
-0.127970
-0.181504
-0.052966
-0.053057
-0.174573
-0.006748
-0.189204
-0.069437
-0.175301
0.010359
0.097572
-0.410930
-0.118896
0.390737
0.172318
-0.038117
-0.167988
-0.113765
0.002868
0.243628
0.072084
0.067948
-0.213358
0.130095
-0.303498
-0.084908
0.266282
0.073275
-0.318349
-0.011841
0.167944
0.238416
0.142492
0.038604
0.127205
-0.098061
-0.467825
-0.051293
0.101821
-0.085926
-0.196498
0.031326
0.107443
0.061295
-0.166840
0.011391
-0.095200
-0.527950
-0.073236
0.048845
0.085592
-0.164548
-0.199408
-0.017225
-0.124451
0.007358
0.046314
0.323995
-0.151715
-0.010288
0.331577
0.160311
-0.034574
0.212030
-0.018656
0.023984
-0.050892
-0.271569
-0.144473
0.000353
-0.234270
0.010819
-0.106868
0.181372
-0.256651
-0.046788
-0.129946
-0.021864
-0.059587
-0.270405
-0.017384
0.205784
0.105276
-0.074916
-0.359179
0.007849
0.091452
-0.250061
-0.095719
0.000867
0.219669
0.081938
-0.059211
-0.006712
-0.232485
-0.003686
-0.094638
0.039006
-0.012796
-0.093408
0.298375
0.089768
-0.193558
0.033891
-0.120305
0.063167
0.179607
0.032854
0.060378
0.282407
0.104118
-0.095949
-0.064427
-0.096124
-0.135187
-0.266967
-0.166527
-0.176198
0.209356
0.084000
-0.002972
-0.174593
-0.483915
0.180799
0.036575
-0.065953
-0.139589
-0.564260
0.156560
0.186220
-0.027095
0.038017
0.055531
0.008289
0.007858
-0.169257
-0.115669
-0.145274
0.010820
0.020956
-0.238268
-0.551099
-0.366862
-0.086877
-0.093739
-0.162439
0.043311
-0.048044
-0.077313
-0.186382
-0.004924
0.108202
-0.088235
-0.152112
-0.273098
0.069271
-0.116253
-0.174761
0.100549
0.056787
0.194318
-0.059778
0.003847
-0.025528
-0.008893
0.254492
0.145837
0.195709
0.006366
0.122724
0.132231
0.267998
0.203647
-0.237154
-0.034562
0.049644
0.223590
0.404480
-0.060744
-0.043723
0.030124
0.159843
-0.050304
-0.091550
-0.003441
0.117655
-0.090702
-0.368602
-0.005167
-0.104839
-0.002178
0.179445
0.166284
0.085264
0.080178
0.117395
0.135028
0.136213
-0.234658
-0.138033
0.057073
0.060873
0.217554
0.019028
0.083467
-0.134703
-0.078817
-0.019124
-0.032442
0.013209
0.032220
-0.028131
-0.295495
0.083121
0.172502
0.142542
-0.149633
0.048437
0.087843
-0.113194
0.183316
0.044308
0.117949
-0.038887
0.068832
-0.084514
-0.377839
0.173316
0.158525
0.079573
-0.311806
-0.098975
-0.018769
-0.205622
-0.173180
-0.044887
0.031567
-0.268961
0.020365
0.085309
-0.151939
-0.219475
0.199328
-0.376488
0.015730
0.412745
0.240132
0.359388
0.113219
-0.176253
-0.094001
0.012256
0.097121
-0.001326
0.100458
0.087710
-0.053490
-0.431832
0.137416
-0.240604
0.063543
0.047037
0.130620
0.070052
0.039800
0.001416
0.201525
-0.019520
0.128780
0.011003
-0.148513
-0.028552
-0.063457
0.117003
0.074722
-0.185502
-0.096605
-0.023662
-0.094721
0.137864
-0.167023
-0.086086
0.002688
-0.067768
-0.200091
0.077974
-0.186689
0.057020
0.067292
-0.058214
-0.089522
0.045203
0.079017
0.059820
-0.064499
-0.128726
-0.093838
-0.157818
0.138517
-0.099373
-0.111145
-0.028334
0.081624
0.023164
0.112294
0.082864
0.327062
0.301461
0.180220
-0.151614
-0.124422
0.086285
0.060194
-0.111666
-0.151921
-0.020878
-0.254134
-0.658281
-0.499533
-0.050670
-0.140730
-0.280584
0.321859
-0.059136
0.146411
0.053137
0.025354
0.329283
-0.070553
0.156529
-0.045194
0.115338
0.084422
0.304191
-0.019454
-0.176032
-0.009671
-0.326276
0.000757
-0.035025
0.041409
0.064622
-0.210436
0.078800
0.158996
0.056248
0.018254
0.020082
-0.003129
-0.168414
0.020891
-0.128002
-0.021376
-0.089499
0.173789
0.098823
-0.100859
0.235565
-0.112122
-0.138869
-0.008831
0.052177
-0.088883
0.028183
-0.006817
0.197826
0.091058
-0.253448
0.188105
-0.003140
0.225244
0.184628
0.146482
0.053642
-0.131562
-0.116430
0.001067
-0.282341
-0.208763
-0.162961
-0.014755
-0.211882
-0.545187
0.302164
0.248766
0.094282
0.020808
0.150532
0.008600
0.137393
-0.000854
0.345098
0.136638
-0.037882
0.142636
-0.045381
-0.030504
0.000744
-0.040944
0.010330
0.175825
-0.234730
-0.114553
0.291091
0.033710
-0.029721
-0.161232
-0.085941
-0.059516
0.104602
0.026390
0.123557
0.212014
0.029888
0.025886
-0.436699
-0.079372
0.182267
-0.047485
0.112626
0.057102
0.281583
0.053010
-0.028263
-0.119530
0.179399
0.128756
-0.123196
0.103476
0.089350
-0.088429
-0.432390
-0.446261
0.110915
0.060028
-0.079072
-0.007376
-0.333920
0.181706
0.033588
0.012900
0.193223
0.538879
-0.126809
0.012188
-0.030307
0.006082
0.135029
0.044746
-0.061952
0.008258
-0.256232
0.083133
0.273200
0.219973
0.103722
0.088288
0.232801
0.264067
0.017150
-0.125651
0.039009
-0.108909
0.013703
0.076687
0.017944
-0.074883
-0.341852
0.037631
0.023827
0.046739
0.035377
0.132702
0.102879
-0.068357
0.025151
0.166725
0.190234
-0.032112
-0.012855
0.043324
-0.169054
-0.146938
0.146853
0.128344
0.069799
-0.102350
0.013357
0.026051
0.003103
0.021730
0.254747
0.127505
0.069115
-0.048678
-0.153682
-0.013736
-0.153185
-0.141460
-0.003446
0.110558
0.087181
0.020656
0.016448
-0.045107
-0.094196
-0.147361
0.211091
0.198228
0.034645
-0.113492
-0.117389
0.017453
0.070856
-0.034807
0.197262
0.197595
0.115710
-0.041036
-0.236070
-0.231811
-0.067582
0.173540
0.176497
0.029085
-0.054333
-0.055246
0.285580
0.363377
0.102944
0.101175
-0.192451
0.222791
0.056694
-0.024822
0.041662
-0.133447
0.019519
0.016678
-0.117645
-0.061730
-0.046364
0.162380
-0.066553
-0.089421
-0.417091
-0.739657
-0.198160
-0.042556
-0.241536
0.018258
-0.262613
0.017394
-0.119885
0.060644
0.126666
-0.070308
0.165932
0.043432
-0.035786
-0.090183
0.144113
0.026320
-0.172724
-0.203624
0.144567
0.106223
0.067613
0.138105
0.013483
-0.008886
-0.119109
-0.265489
-0.056113
-0.070459
-0.014319
-0.167169
-0.285298
-0.427076
-0.325944
-0.104840
0.014098
0.219434
0.088720
0.002859
0.042248
0.221323
0.089387
-0.007523
-0.117000
0.018648
0.028553
0.020357
0.145004
0.100444
-0.013717
-0.078272
0.091341
-0.341869
-0.112509
0.049843
0.046748
-0.126963
-0.235873
-0.016108
0.170437
-0.054309
-0.393906
-0.174410
-0.009247
0.020551
-0.131167
-0.016173
0.227596
-0.038046
-0.046143
-0.211387
-0.086406
0.153951
-0.007884
-0.080064
-0.133702
0.062090
0.052484
0.091199
-0.391362
-0.026592
-0.224694
-0.061816
0.071063
-0.252452
-0.101963
0.066830
-0.082950
0.016903
-0.289726
-0.007926
0.127386
-0.054033
0.193501
0.421841
-0.026175
-0.069338
0.111722
-0.097549
0.010576
-0.212013
-0.224786
-0.061846
0.104077
-0.186963
0.015554
0.064490
-0.242060
-0.202965
-0.046394
0.377506
0.237344
0.007345
0.003503
0.139399
0.050209
0.183655
0.063145
0.135728
-0.122471
-0.281814
-0.377294
0.051362
-0.092615
-0.120424
-0.219650
-0.032656
-0.023950
-0.177572
-0.098067
-0.119360
-0.076234
-0.042506
-0.044555
-0.030320
-0.112920
-0.124072
-0.039305
0.050529
0.083674
0.087669
-0.002698
0.377387
0.154525
0.343604
0.175073
0.052353
-0.034633
0.007746
0.193130
0.087534
0.158488
0.086535
0.145971
0.167402
-0.035329
0.049576
-0.034092
0.113078
0.066745
-0.108739
-0.234610
-0.015004
0.034414
-0.140896
0.002810
-0.146671
-0.136828
-0.224378
0.023838
-0.022699
-0.133551
-0.167805
-0.076772
0.080252
0.081352
-0.393202
0.135922
-0.064057
-0.057265
0.073073
-0.177808
-0.030675
0.066932
0.122915
0.174819
0.031902
-0.101380
-0.237583
-0.184378
0.021716
-0.147950
-0.104679
-0.158229
0.002596
-0.056377
-0.085841
0.017078
0.158389
-0.041615
-0.017241
0.096877
0.052201
-0.228007
-0.017967
0.202928
0.234197
-0.139767
-0.010939
0.030100
0.167254
-0.252051
-0.224871
0.064338
0.058127
-0.005885
-0.166938
0.195529
-0.145987
-0.185478
-0.165719
-0.116233
-0.024903
-0.315595
-0.452913
-0.063902
-0.035121
-0.310388
-0.156093
-0.246152
0.160188
-0.132791
-0.228201
-0.216811
-0.102125
0.071865
0.404958
-0.122841
0.150575
0.097345
0.074801
0.124978
0.032459
0.219818
0.201973
0.144659
0.186441
-0.172797
-0.093849
-0.030602
-0.100234
0.028206
-0.048910
-0.017965
-0.153967
-0.101611
0.076244
0.041887
0.180862
-0.077034
-0.033858
0.094020
0.050403
0.149627
-0.044101
0.010350
0.017978
-0.042605
0.220090
-0.024306
-0.003929
0.076614
-0.149248
0.153546
-0.207077
-0.026515
-0.143453
0.219432
-0.111180
0.026689
-0.098684
0.028739
-0.150956
-0.142619
-0.126053
0.017800
0.251096
-0.219499
0.007945
-0.151284
0.022355
0.137900
0.088710
0.206930
-0.100289
-0.008461
-0.125596
0.026224
-0.077566
0.076959
0.076977
0.075468
-0.128141
-0.026043
0.050889
0.045391
0.007780
-0.010255
0.298142
0.318503
0.111331
0.018717
0.122219
-0.015239
-0.219895
0.085838
-0.116678
-0.132207
-0.241292
-0.176227
-0.212647
-0.134067
-0.105387
-0.066009
-0.232073
-0.338334
-0.255597
-0.205871
-0.131887
-0.096623
-0.064591
-0.129105
-0.344134
0.180954
-0.016158
0.097347
0.122222
-0.187428
-0.321998
0.189029
0.077476
-0.013471
0.014115
-0.055138
0.011706
-0.097089
-0.169774
0.108532
0.122127
0.046109
0.089952
0.120697
0.006358
0.092644
0.075021
-0.050238
0.080755
-0.229803
-0.082449
-0.024287
-0.092380
-0.081362
-0.404525
0.025630
-0.060797
-0.045617
0.190345
-0.007698
-0.216452
0.225059
0.082764
0.075310
-0.014609
0.036768
0.047947
-0.026027
-0.008462
-0.089574
0.012460
-0.023864
-0.051721
-0.073100
-0.048593
-0.063809
-0.042523
-0.035803
-0.098058
-0.073010
0.012299
-0.011854
-0.049577
-0.043062
-0.038955
-0.019195
-0.030631
-0.026151
-0.027746
-0.092495
-0.079352
-0.042974
-0.044273
-0.060001
0.028317
-0.003462
0.005890
-0.003940
-0.004955
0.001972
-0.028174
-0.093511
-0.068310
-0.043847
-0.052307
0.019296
-0.011349
-0.056284
-0.039809
-0.000639
-0.064853
-0.020807
0.015002
-0.015902
0.007988
-0.036488
0.016257
0.000562
0.021617
0.037764
0.051795
-0.062317
-0.070891
-0.050282
0.024573
-0.065874
-0.034683
0.017022
0.005800
-0.053130
-0.018462
-0.021796
0.034946
0.006185
-0.068288
-0.105898
-0.085082
-0.083402
-0.017071
-0.034270
0.032512
-0.013912
-0.017065
-0.021837
-0.067250
0.086877
0.006099
-0.017521
-0.028409
-0.020277
-0.070411
-0.066161
0.001783
-0.047701
-0.073301
-0.001008
0.011324
0.016315
-0.056192
0.006072
-0.020297
-0.025015
-0.028606
-0.026853
0.032032
-0.016535
-0.034545
-0.097142
0.003293
-0.014269
-0.002858
-0.032889
-0.014808
-0.042604
-0.059960
-0.076371
-0.056973
-0.054215
-0.042905
-0.092219
-0.073990
-0.039594
-0.007440
-0.006864
0.007944
-0.041300
-0.030851
-0.087411
-0.057475
-0.020985
0.003772
-0.059332
-0.036793
-0.027400
0.007879
-0.047348
-0.079071
0.023345
-0.048105
-0.077888
-0.018296
-0.021724
-0.006701
-0.058541
-0.111106
-0.160772
-0.034983
-0.064741
-0.021742
0.005132
-0.081471
-0.038217
-0.042150
0.007051
-0.038413
-0.090396
-0.018366
-0.082524
-0.012218
-0.030560
-0.045557
0.011215
-0.068451
-0.037553
-0.009228
-0.046242
-0.058542
-0.016025
-0.058827
-0.075583
-0.063794
-0.010338
-0.004142
-0.026679
-0.072038
-0.014571
-0.049581
0.019562
0.007708
0.012724
-0.045784
0.009839
0.013245
-0.070076
0.041533
-0.034345
-0.056224
0.006407
0.010177
0.005339
-0.002379
-0.108359
0.005007
0.003085
-0.091880
-0.042199
0.041524
0.010067
-0.015067
-0.096784
-0.093156
-0.039731
0.027391
-0.028943
0.058138
-0.027001
-0.071404
-0.019387
-0.015452
-0.015751
0.004727
-0.031776
-0.111194
-0.002267
-0.025265
-0.026933
0.100772
-0.034157
-0.045597
-0.049469
-0.092743
-0.106328
0.003141
-0.007669
-0.050751
-0.035012
-0.016219
0.065016
0.028704
0.002652
-0.013963
-0.033726
0.002317
0.022752
-0.083663
-0.008987
0.031349
0.000974
-0.094670
-0.076214
-0.011355
-0.049474
-0.032148
-0.086865
0.003094
-0.088427
-0.079965
0.006592
0.002502
-0.032976
0.055212
0.000895
0.057958
0.012727
-0.081809
-0.032329
-0.042535
-0.026992
-0.048636
0.006501
0.024199
-0.076506
0.010024
0.004214
-0.011024
-0.050403
0.025297
-0.074402
-0.055270
-0.061946
-0.005233
-0.028982
-0.050412
-0.087563
-0.047520
-0.062377
0.041413
-0.041103
-0.061315
-0.040167
0.014875
-0.010694
0.019949
-0.040780
-0.088723
0.045259
-0.019469
-0.031576
0.003080
-0.085861
0.030817
-0.007290
-0.028473
-0.027649
-0.062477
-0.044885
0.015266
-0.066983
0.030274
-0.012094
-0.089324
0.012569
-0.094150
-0.057967
0.022172
-0.011268
-0.037126
0.035392
-0.063786
-0.001123
-0.005134
0.029987
0.031344
-0.071102
-0.027157
-0.002352
-0.035873
-0.016506
-0.047668
-0.026681
-0.072666
-0.076403
-0.024475
-0.050777
-0.084819
-0.069175
-0.025229
-0.112889
-0.059930
0.003256
-0.040111
0.032563
-0.070788
-0.002464
0.009903
-0.015276
-0.010353
-0.088602
-0.057519
-0.022769
0.024518
0.016033
0.028443
-0.015736
-0.077285
-0.161409
-0.105066
0.013369
0.062410
0.004558
-0.025703
0.028925
-0.043521
-0.052113
-0.004527
-0.018985
-0.023622
-0.076979
0.012931
0.072481
0.007698
-0.084962
-0.004202
-0.000036
-0.074514
0.032041
-0.040647
0.037187
-0.036618
-0.023161
-0.095812
-0.064062
-0.032118
-0.008632
-0.023389
-0.065632
-0.010436
-0.036953
-0.003379
0.034327
0.010082
0.022599
-0.025856
-0.024017
0.022891
-0.074410
-0.073929
-0.080224
-0.022519
-0.014290
-0.011362
-0.058646
-0.082804
0.001691
-0.089413
0.056777
0.063265
-0.037110
-0.055124
-0.051586
-0.133767
-0.041887
-0.019383
-0.059747
0.106829
0.164013
0.207537
0.154932
0.050177
-0.060056
-0.006193
-0.154082
0.103215
-0.185224
-0.105814
-0.028477
0.102713
0.121315
0.282082
-0.055417
0.067596
0.257912
0.106920
-0.071551
-0.367070
-0.207827
-0.038187
-0.162267
-0.105286
0.009561
0.069891
0.058669
0.221115
-0.039803
0.067992
0.249060
0.111225
0.131692
-0.142347
-0.187419
-0.016905
0.141406
0.183111
0.002789
0.011306
0.058086
-0.290573
0.075867
0.089148
0.211512
-0.093943
0.030882
-0.093645
0.094326
-0.062836
0.159694
0.390801
0.260777
0.108618
0.017660
0.126765
0.071995
-0.151845
0.052300
-0.110689
-0.123177
-0.066142
-0.072592
0.031861
-0.039288
-0.047245
-0.164283
-0.086159
0.192025
0.160679
0.105910
-0.010248
-0.102224
-0.209451
-0.025991
0.125353
0.037048
0.116954
0.063358
0.220924
-0.123088
-0.143899
0.327546
0.296055
-0.163839
-0.088555
-0.290525
-0.267468
0.141838
0.196512
0.119995
0.123616
-0.136726
-0.374815
0.285127
0.132829
-0.159821
-0.227056
-0.223809
0.033841
-0.134908
0.194137
0.116886
0.016578
-0.035891
0.114562
0.154632
-0.076088
0.197448
-0.222473
0.084171
-0.135193
0.023183
0.118608
-0.288713
-0.120682
-0.145507
-0.225620
-0.174478
-0.202586
0.185374
-0.213297
-0.061191
0.292987
-0.024828
-0.101658
0.106056
0.108801
-0.017425
0.162197
0.143733
0.123121
-0.379584
0.166968
-0.024809
0.060314
-0.018497
0.005983
-0.044395
-0.014824
-0.094735
-0.150009
-0.022893
-0.038814
0.053511
0.171294
0.002090
-0.005770
-0.079946
-0.113847
0.071096
-0.119315
0.136856
0.028210
-0.025740
0.182812
0.067191
0.071521
0.063518
-0.219869
0.231292
0.012612
-0.163600
0.113564
-0.408930
-0.001842
0.000566
-0.051686
0.100805
-0.162854
-0.004484
-0.042102
0.146419
0.004653
-0.001991
0.341216
0.089986
0.013121
-0.059362
-0.161910
-0.270634
-0.324203
0.064410
0.199713
0.040477
0.067056
-0.049243
-0.058065
0.096934
0.312824
0.360443
0.027366
0.269297
0.103087
0.023586
0.190116
-0.072881
-0.043707
-0.342466
-0.046331
-0.120440
0.005919
-0.003595
0.099209
-0.026453
-0.005629
0.136128
-0.075199
0.278637
-0.028480
-0.256906
-0.132558
0.284438
0.236868
-0.134081
-0.213647
-0.105527
0.280416
0.153121
0.237331
0.064969
-0.061019
-0.029032
-0.141020
-0.004982
0.030648
-0.085213
0.014636
-0.045335
0.029180
-0.016808
0.075285
0.092564
0.207268
0.073948
-0.103842
-0.029393
-0.172902
0.344428
0.091895
-0.122591
0.013450
-0.064589
-0.258369
0.222396
0.141178
0.032086
-0.030573
-0.226310
-0.075718
-0.216380
-0.221077
-0.267246
-0.039497
0.072125
0.035149
0.044088
0.041937
-0.224594
0.160222
0.306469
0.149937
-0.025342
-0.467016
-0.068327
-0.166179
-0.109037
0.031578
-0.095470
-0.259778
0.068379
-0.007427
-0.101625
0.235922
0.022141
0.046592
0.128285
-0.276383
0.006215
0.112983
0.009113
0.116743
-0.012401
-0.214111
-0.212287
0.061983
-0.061450
0.090218
-0.099893
-0.217190
0.161441
-0.048383
-0.032818
-0.098114
-0.036028
-0.124823
-0.032627
-0.214313
0.311327
-0.108969
-0.328197
-0.033405
0.118430
-0.040720
-0.211675
-0.106447
0.179322
0.049724
0.101715
-0.141169
-0.152700
0.200149
-0.139160
-0.482379
-0.424345
-0.277318
-0.178398
0.010530
0.320616
-0.129314
0.011062
0.096027
0.239330
0.224368
0.053631
0.023844
0.111763
0.156419
0.147024
0.161020
0.049262
0.004703
-0.038783
0.140297
-0.208682
-0.399744
-0.179542
0.314565
0.394669
-0.160456
-0.100687
-0.110414
-0.006939
0.034407
0.025012
0.000664
0.014649
-0.230548
-0.503468
-0.203195
-0.198109
-0.225450
0.159959
0.152016
0.295045
0.070104
-0.179677
-0.069012
0.116977
0.075502
0.085071
-0.083013
0.095252
0.145264
0.093310
0.222078
-0.008296
-0.043436
0.047521
0.143905
-0.045317
0.102090
0.093930
-0.047999
-0.137723
0.132358
0.160764
0.133058
-0.003596
-0.350707
-0.308531
-0.311736
-0.045585
0.130998
0.169769
0.091842
-0.123413
-0.158516
0.102566
0.150349
0.072925
0.092949
0.270904
-0.078502
0.118129
0.376463
0.011719
0.055161
-0.125090
-0.374479
-0.495721
-0.277599
0.072901
0.133457
0.112904
-0.009210
-0.196702
0.321147
0.169264
-0.104770
-0.058295
-0.247260
0.000256
0.085474
-0.212647
-0.010477
-0.260380
-0.180317
-0.149487
0.086897
0.100642
0.042088
0.062557
-0.045930
0.018371
0.008104
-0.419499
-0.762237
0.084359
-0.121407
0.108901
-0.086751
0.116847
0.016674
0.207944
0.281118
-0.147285
0.133785
0.146792
0.000833
0.131955
-0.226800
0.240108
-0.215365
-0.022320
-0.009262
-0.034617
0.018025
-0.155107
0.127733
0.060389
-0.136816
-0.398649
-0.565142
-0.525942
0.007206
0.162794
0.006688
-0.259508
0.197403
0.386288
-0.148631
-0.289244
-0.176062
-0.127241
0.067122
-0.065068
-0.056417
0.284612
0.059267
0.113666
-0.097174
-0.062897
0.009551
0.221058
0.120836
0.110778
-0.032244
-0.078662
-0.402560
-0.311834
-0.244922
-0.110740
0.120226
-0.042890
0.027070
-0.212868
-0.064756
0.052507
0.033559
-0.044668
-0.077343
0.121825
0.106047
0.133251
0.051796
-0.015877
0.368909
0.273580
0.057077
-0.116050
0.143470
0.102546
-0.274665
-0.150539
-0.032561
0.191682
-0.231860
-0.278542
-0.138380
0.024507
0.148501
0.008547
0.222158
0.396488
-0.021615
-0.152623
0.075398
0.405682
0.129881
0.225906
0.061050
0.256119
0.368795
0.039994
0.328759
0.163903
0.241910
-0.048201
-0.178550
0.024201
-0.163424
-0.020593
-0.091936
-0.315300
0.072455
-0.169048
-0.067860
-0.003977
0.229205
0.257768
-0.147838
-0.367523
-0.041977
0.083635
0.133822
0.038654
-0.007402
0.109687
-0.004607
-0.090828
-0.496535
-0.092436
-0.074830
-0.072707
0.144975
0.054156
0.291035
0.073437
0.289759
-0.251733
0.098298
0.234398
-0.023733
0.309916
0.120969
-0.089794
0.214637
-0.042212
0.051078
0.127483
-0.151678
-0.128259
-0.184811
-0.240036
-0.922418
-0.159268
0.097164
0.034583
-0.213783
-0.127594
-0.110202
-0.296306
-0.126609
0.107319
0.221057
0.061403
-0.650119
-0.558964
-0.042732
-0.113543
0.051726
-0.276889
0.129934
-0.010985
-0.075868
-0.003559
0.417768
0.387486
-0.337575
0.069743
0.211504
0.533016
-0.151278
-0.273025
-0.233435
0.093241
-0.003158
-0.441295
-0.081134
0.008735
0.041541
-0.315851
-0.211774
0.035852
0.017075
-0.205728
-0.343948
-0.007226
0.218917
-0.001670
0.096342
0.175305
0.180893
0.109234
0.112352
0.118335
0.037346
-0.026630
-0.227273
-0.300896
-0.100062
0.113996
0.074163
-0.324427
0.178075
-0.231286
0.097085
-0.074645
0.209953
0.005638
-0.319527
-0.181218
-0.245021
0.104040
-0.008942
0.136387
0.297367
0.473267
-0.121185
0.075979
-0.012002
-0.315255
-0.209086
0.141969
0.213551
0.399291
0.075984
-0.072404
0.016189
-0.130069
0.061754
0.230904
0.187192
-0.107891
-0.368293
0.032146
0.052139
0.178740
0.161362
-0.094559
0.020350
0.030149
-0.115143
0.035177
-0.164234
0.265994
-0.003462
-0.025903
-0.001329
-0.290433
-0.044900
0.076846
-0.059246
0.177046
-0.110397
0.092348
0.038175
0.344946
-0.092890
-0.038000
-0.115374
-0.001689
-0.091366
0.053565
0.253641
-0.035488
0.097146
-0.262089
0.249283
0.385972
0.054944
-0.038210
-0.031350
0.211941
0.055415
0.169779
0.028695
-0.174426
-0.366107
-0.142712
0.054854
0.103740
0.471433
-0.011079
-0.094809
-0.022568
0.196988
0.334642
0.102263
0.134983
0.122010
-0.009782
0.057168
-0.339506
-0.136824
0.025455
0.190854
0.118957
-0.138663
0.001373
0.027285
-0.222581
-0.425382
-0.093394
0.009922
0.043598
-0.085731
-0.328827
-0.103940
-0.146058
-0.213139
-0.390599
-0.157017
0.087036
0.049037
0.038672
0.081210
0.116738
0.089294
0.021352
0.055798
0.228964
-0.035591
0.082061
0.108778
-0.308291
0.003393
-0.053183
-0.381769
0.187299
-0.024142
-0.084181
0.178925
0.182976
0.285822
-0.008522
-0.253365
-0.082069
0.132096
0.099916
-0.099919
-0.127844
0.167854
0.083565
-0.266569
-0.162113
0.036590
0.046637
0.153560
-0.087806
-0.045321
-0.180856
-0.215531
-0.108688
0.203764
0.013227
-0.396240
-0.314883
-0.392543
0.076026
-0.101857
0.035697
0.262247
0.247652
0.053402
-0.040512
-0.216393
0.137843
0.654907
0.166891
-0.159577
0.031617
0.100919
0.052897
0.056369
-0.257158
0.016230
-0.323742
0.079019
-0.199502
-0.182812
-0.101514
-0.178414
-0.041539
-0.054113
-0.075839
-0.073992
0.190108
-0.155634
-0.062822
0.107829
0.033041
0.251175
-0.178170
-0.144893
0.185121
0.551847
-0.074540
0.078818
0.290039
0.246432
-0.074011
-0.001018
0.121510
-0.025491
-0.220673
-0.015001
-0.019521
0.117928
0.054319
0.012898
0.058922
0.103647
0.008679
0.015202
-0.086812
-0.272722
-0.176895
-0.214634
-0.158596
-0.281745
-0.066288
0.007553
-0.195773
-0.312591
0.007720
-0.139054
0.131321
0.043779
0.268716
0.213072
-0.210990
-0.073662
0.195938
0.246261
0.078211
0.038030
-0.052669
0.048723
0.051425
0.029404
-0.266308
