-0.122385
0.068427
0.050666
0.060882
-0.118084
-0.038299
-0.084709
0.036654
0.045126
-0.101797
0.166407
0.021167
0.068322
0.201230
0.080340
-0.013377
0.196650
0.047747
0.009494
0.153640
-0.028165
-0.072951
-0.105252
-0.023877
0.022452
0.065144
0.307890
-0.295529
-0.078418
-0.152898
0.020020
0.061412
-0.087135
0.173668
0.290811
-0.199505
-0.061298
-0.010358
-0.134498
-0.025877
-0.218630
0.046435
0.024101
0.178081
-0.044717
-0.118656
0.113211
-0.086197
-0.058290
0.164978
0.037418
-0.023199
-0.331060
-0.257674
0.039003
-0.034633
0.093215
0.028013
0.239638
0.045352
0.084160
-0.031661
0.058335
-0.220945
-0.137807
-0.054599
-0.166978
0.004477
-0.046935
-0.337656
0.045635
-0.304805
-0.209445
-0.224887
-0.009919
-0.011735
0.074548
-0.049588
0.041226
-0.225841
-0.045360
-0.392950
0.108690
0.011249
-0.247986
0.053154
-0.014744
-0.124346
-0.018557
-0.036023
-0.107255
0.051744
-0.062268
0.087977
-0.239303
-0.184793
0.020944
0.011171
-0.192705
0.280399
-0.045790
-0.072532
0.218641
-0.285922
-0.180154
-0.188591
0.016906
0.118789
0.037764
-0.221966
-0.348767
0.060748
-0.168116
0.146934
0.073794
-0.017547
-0.215336
-0.031366
0.008181
0.031356
-0.024690
0.060930
-0.023796
0.147668
-0.019871
0.011175
0.194580
-0.388139
0.107602
0.035682
0.197903
-0.177309
-0.293546
-0.101610
0.002431
0.181755
0.233624
0.034460
-0.457449
0.033653
-0.073321
0.219312
-0.301890
-0.005420
0.101402
-0.588747
0.056634
0.066664
-0.055824
0.133838
-0.132103
-0.153257
-0.139478
-0.097345
-0.015290
0.184761
-0.192106
0.153890
-0.224660
-0.343173
-0.499277
-0.156013
-0.079292
0.030577
0.007442
0.057034
0.015877
-0.447290
0.023069
-0.111493
-0.041517
-0.087262
0.049126
0.056316
-0.055001
-0.154202
0.137021
0.015990
0.041479
-0.079359
-0.089262
-0.164125
0.054130
0.044197
-0.127462
0.034237
0.093549
0.239090
-0.048865
0.044034
0.218267
0.043712
0.369063
0.003998
0.181948
0.195140
0.036671
-0.346813
-0.030991
0.070834
-0.074371
0.152512
0.106476
-0.032930
0.068053
-0.032269
0.089241
-0.151417
-0.042659
-0.067019
-0.110605
0.022808
-0.153385
-0.009877
0.046613
0.099170
0.046003
0.027995
0.296079
-0.274668
0.002141
0.053179
0.033469
-0.007983
-0.430530
0.051622
0.056478
0.303923
0.081264
0.000494
0.026153
-0.134023
-0.069755
-0.337611
0.012583
-0.437683
-0.188899
0.113864
0.057282
0.049193
0.051709
-0.020998
-0.095902
0.098865
0.127460
0.031115
-0.364315
-0.101411
0.018138
0.085299
0.092721
0.436363
0.155869
0.061218
0.050419
0.112157
-0.082463
-0.044107
-0.130717
-0.205727
-0.040282
0.090672
-0.007548
0.005558
-0.108177
-0.163305
0.065329
-0.273191
0.016677
-0.048617
-0.099922
-0.105109
0.193233
-0.118433
-0.088853
-0.150923
0.251426
0.186182
0.031623
0.114184
-0.145004
-0.057723
0.002374
0.201036
0.005750
0.022437
-0.312699
0.231280
0.066725
-0.185839
0.054318
-0.063194
-0.060962
0.195143
0.132662
-0.248420
0.038551
-0.011350
0.084466
0.033355
0.169935
0.009095
-0.051595
-0.244126
-0.095021
0.045855
0.023371
-0.015610
-0.105275
0.065127
-0.350350
-0.051493
-0.264394
0.009543
-0.219636
0.072961
0.025603
-0.317181
-0.101815
0.080101
-0.092370
-0.219645
-0.100065
0.013709
-0.034919
-0.261033
-0.013756
-0.100124
0.089082
-0.193830
0.201321
-0.082346
0.063191
-0.028320
0.209816
0.042182
0.094063
-0.098296
-0.166746
-0.502128
0.039984
-0.063364
-0.136292
0.014841
0.178852
0.125176
-0.018761
-0.087158
-0.083580
0.178064
0.145495
0.109313
0.064003
-0.234123
0.155032
0.072743
0.171367
-0.328793
-0.074638
-0.058640
0.002588
0.082884
0.050034
-0.018018
-0.023419
-0.088417
-0.071801
0.003964
-0.016813
-0.015805
-0.028216
0.028211
-0.080954
0.009373
-0.072898
0.065179
-0.041488
-0.010257
0.032277
-0.096385
-0.008833
0.036103
-0.019115
0.076965
-0.039115
-0.033738
-0.069962
-0.010558
-0.058495
-0.052895
-0.041350
-0.061598
-0.115257
0.014950
-0.055044
-0.057878
0.038033
-0.107001
0.021292
-0.092066
0.047140
-0.026735
0.004076
0.040009
0.018765
-0.116920
-0.075763
-0.125220
-0.120220
-0.017482
-0.103680
0.026910
-0.008605
0.012659
-0.026292
-0.009457
-0.089889
0.016412
-0.125185
-0.087379
-0.060471
-0.010011
-0.100833
-0.032946
-0.059188
-0.044901
-0.071545
0.041821
-0.005807
-0.087741
0.007966
-0.095377
0.004688
-0.116838
0.019035
-0.111909
-0.062438
-0.054708
-0.089650
0.022954
-0.014672
-0.033786
0.034455
0.057013
-0.105882
-0.042879
-0.010058
0.043046
-0.081841
-0.060884
0.038791
0.077166
-0.037172
-0.041060
-0.090707
0.018131
0.020297
0.025862
0.046601
0.020540
0.007993
-0.085038
-0.064804
0.025435
-0.095092
-0.011372
0.048064
-0.114439
-0.030514
0.017590
0.063586
0.013036
0.009934
0.048846
-0.088320
-0.057348
-0.104233
0.032315
-0.031606
-0.002144
-0.271849
0.032130
-0.056425
-0.185683
0.029263
0.145673
0.042374
0.237755
-0.004308
0.084330
-0.121394
-0.038691
-0.136749
0.249333
0.007601
-0.141279
0.289995
-0.018521
-0.600413
-0.226273
-0.274047
-0.351627
-0.125541
0.072066
0.126678
0.150179
0.083212
-0.540936
-0.033382
0.175352
0.100913
0.265712
0.108928
-0.084650
0.080770
-0.239576
0.129038
-0.011264
0.261139
-0.148399
-0.161842
0.145104
0.018089
0.378203
-0.025553
0.222433
0.337949
0.044460
0.071217
0.224373
0.172490
-0.283546
-0.442294
-0.110882
0.082664
-0.187533
-0.208978
0.009166
-0.009719
0.132654
-0.547997
0.022730
-0.221928
-0.294935
-0.221127
-0.088610
0.103798
0.014599
0.332765
0.168739
0.032937
0.208281
0.115531
-0.069022
0.389135
-0.403104
0.008734
0.138356
-0.041287
0.022556
0.017070
-0.262258
-0.119287
-0.013769
0.232554
0.091732
0.124658
-0.335940
0.069934
0.175505
-0.357379
0.050831
-0.053678
-0.064751
-0.040766
0.115521
-0.060910
-0.253503
0.150351
-0.173201
-0.066027
-0.338921
0.225590
0.088397
-0.355833
-0.576385
0.045001
-0.011205
0.064645
-0.038018
0.019038
-0.281826
-0.043905
0.193263
0.189569
-0.282031
0.159203
0.097972
-0.050186
0.012065
0.019479
0.011850
-0.058027
0.080473
-0.361607
0.281232
0.303916
0.170319
-0.179239
0.285068
0.016265
-0.198684
-0.099883
-0.174743
-0.064168
-0.135547
0.179427
-0.032212
-0.129215
-0.018057
0.029419
-0.086291
-0.067486
0.018518
0.219449
0.201338
0.181658
0.162815
0.226110
0.020930
0.504748
-0.001800
0.028628
0.166437
-0.087750
-0.076014
-0.034837
0.138952
0.427913
0.212404
-0.323537
0.101799
-0.074847
0.201838
-0.029110
0.208138
-0.175801
-0.026298
0.136849
-0.075817
0.212364
-0.125158
-0.111577
0.203595
-0.034856
-0.227430
-0.054577
0.058796
-0.142456
0.154471
-0.154420
-0.012850
-0.611331
0.237483
0.132868
0.024113
0.232891
-0.113092
0.357549
-0.130709
0.158400
0.025670
0.380538
0.000947
0.140785
-0.191981
-0.067606
-0.012020
-0.012213
-0.008054
-0.027406
0.105259
-0.345586
0.040961
0.240200
-0.218810
-0.178460
-0.074859
0.054670
0.425610
0.076487
0.065259
-0.196113
0.128028
0.119512
0.065617
0.250604
-0.163575
0.179690
0.152868
-0.090154
-0.072660
0.257113
0.160141
-0.363284
-0.229459
-0.054684
0.051244
0.058789
-0.380963
0.049010
0.038803
0.109525
0.120150
0.153058
0.087382
-0.163252
-0.027896
-0.082324
-0.103149
-0.224956
-0.062146
0.046992
0.069299
-0.019463
-0.097462
-0.090623
-0.100133
-0.122996
-0.320201
-0.063760
0.172825
-0.036138
-0.109610
0.049361
-0.279316
0.063431
0.050806
0.287011
0.350276
0.179573
-0.126418
0.226858
-0.003667
0.060457
0.052072
-0.018432
0.111404
0.123711
-0.605429
0.294824
-0.115658
0.016486
0.059192
0.170155
0.039188
-0.075081
0.058356
0.127381
0.278096
0.093078
-0.034813
-0.079352
0.245709
-0.013628
-0.055422
0.014240
0.185269
-0.192015
-0.196664
-0.164123
0.171046
0.306184
-0.359760
-0.102222
0.353032
-0.008710
0.053611
-0.088457
-0.035850
-0.016277
-0.029331
-0.058169
0.149353
-0.140479
-0.050133
-0.156137
-0.323349
0.008659
0.117213
0.257705
0.050285
-0.079699
-0.176620
-0.200339
0.146788
-0.038748
0.038106
0.062172
-0.035924
0.021938
-0.071306
0.128170
0.020498
-0.287306
0.364844
-0.009564
0.254274
0.050295
-0.227681
0.056129
0.072142
-0.178651
0.015507
-0.217328
0.063270
0.043475
0.132348
0.167063
0.377415
-0.020388
0.145960
0.142547
-0.042319
0.007802
0.237554
-0.032419
0.217063
-0.024271
-0.003116
0.028140
0.160358
0.057278
0.202461
0.063454
0.024740
0.067188
0.194107
0.029702
0.008973
-0.071919
0.010707
0.038601
-0.094668
-0.004895
-0.161414
0.194685
-0.097573
-0.038288
-0.063270
0.126931
0.056335
-0.126863
-0.063664
0.050282
0.083052
-0.093260
0.121773
-0.094220
0.166470
-0.166291
0.030723
0.162597
-0.072554
0.041167
-0.145382
-0.061654
-0.181820
-0.246573
0.021271
0.009143
-0.194546
-0.164512
-0.034482
0.080113
-0.113127
0.040504
-0.042802
-0.030462
-0.047126
-0.022175
-0.033511
-0.058288
0.052220
0.069273
-0.043866
0.198654
-0.100779
-0.052340
0.075071
-0.162138
0.048441
0.026150
-0.064526
0.028556
-0.233294
0.017106
0.063975
0.140624
0.036345
0.098058
-0.270032
0.113858
0.034546
-0.015165
-0.039668
-0.128531
0.065445
-0.052166
0.137825
-0.033086
-0.104187
0.002281
-0.038588
0.037316
0.011466
-0.032816
-0.131726
-0.008841
0.010075
-0.015753
0.012842
0.058546
0.044766
-0.003083
-0.011734
0.019909
-0.116400
-0.002395
0.026452
-0.048988
-0.050332
0.065710
-0.095896
0.143940
-0.198486
-0.097648
-0.135502
-0.134815
-0.041350
-0.009197
0.036139
0.040708
-0.024715
-0.115695
0.114781
-0.031096
-0.030771
0.009054
0.035281
0.103256
-0.134472
-0.134486
0.033452
-0.104259
-0.160116
0.014646
0.009678
0.019983
-0.003253
-0.147060
0.042094
0.060640
0.154058
0.225364
-0.187135
0.076108
-0.399547
-0.134070
0.090324
0.255778
0.296555
-0.064663
-0.086308
-0.026615
-0.266900
-0.171480
0.015969
0.067077
0.099684
-0.271714
-0.076508
0.040523
-0.093024
0.148178
-0.347628
0.031929
-0.222481
0.033778
0.023328
0.103479
-0.181016
-0.015006
-0.391577
-0.007897
0.078112
0.172331
-0.036264
0.142084
0.021533
-0.126337
0.285145
-0.020857
0.218026
0.022092
-0.268586
0.311771
0.068387
-0.053597
-0.311528
0.129914
0.102393
0.311921
0.286988
0.106573
0.132214
-0.034714
0.092668
-0.198892
-0.096253
-0.021576
-0.131138
0.461174
0.128947
0.122654
0.038413
-0.116818
-0.284591
-0.345661
0.201476
-0.187074
0.062994
0.030108
0.091352
-0.600588
0.081084
0.077448
-0.415694
0.075106
-0.025689
-0.038512
0.237773
0.094928
0.046178
-0.385801
0.086077
0.143399
0.013137
0.060045
-0.114593
0.067214
0.053876
-0.090006
-0.341896
-0.173675
0.079404
-0.081713
0.133544
0.041624
-0.347870
-0.070374
0.097866
0.000409
0.143241
0.054459
-0.066335
0.021867
0.144142
-0.033932
0.281012
0.136661
0.001652
0.059464
-0.017259
0.159486
-0.365150
0.067130
0.190711
0.014311
-0.122025
-0.061448
0.095764
-0.051574
-0.006071
-0.141368
-0.072021
0.187398
-0.141752
-0.287669
-0.071902
0.007398
-0.285836
-0.298263
-0.265346
-0.061571
-0.046594
0.185566
-0.018992
0.125594
-0.166936
-0.237725
0.003100
-0.176512
0.002623
0.288950
0.037200
-0.061054
0.092229
0.037349
0.037509
0.168339
-0.007040
0.075846
0.044342
0.017664
0.086734
-0.028670
0.013228
0.257888
-0.021680
-0.445698
0.117658
0.062113
0.131506
0.041584
0.092741
-0.128420
-0.523109
0.163269
-0.058542
-0.182645
-0.091527
0.129978
0.250192
0.036784
-0.111743
-0.218333
-0.080569
-0.200091
0.103826
-0.031958
-0.233816
0.001614
0.184785
-0.054830
-0.028336
0.104323
-0.026824
0.259755
0.185150
0.024346
0.071336
0.532039
0.058994
0.043312
-0.176749
0.000116
0.132641
-0.048902
0.090999
0.034104
0.354965
-0.131058
-0.038120
0.124681
-0.470771
-0.025315
0.083806
-0.001982
0.120122
-0.103790
0.022126
-0.175642
0.101449
0.088459
0.048158
0.220970
-0.132760
0.379429
-0.021224
0.014181
-0.167645
0.324736
-0.392744
-0.341338
-0.167594
0.090875
0.091186
0.050006
-0.076901
0.244162
-0.110630
0.163159
0.037044
0.213815
-0.136851
-0.160536
0.079009
-0.033974
0.037455
-0.051247
-0.041785
0.060462
0.148708
0.026718
0.019919
-0.368429
0.064533
0.045916
-0.063529
0.266820
0.316595
0.372844
0.240550
-0.068154
0.209508
0.127057
0.131592
-0.186564
0.035832
0.393655
-0.034975
0.081224
0.033987
-0.031633
-0.252894
0.077516
-0.452083
-0.264060
-0.214813
-0.109431
0.010372
0.141964
0.018883
0.150753
0.031409
0.067908
0.130788
-0.335242
0.059960
-0.082394
-0.040043
0.068005
-0.080826
-0.052747
0.014660
-0.235073
0.247723
0.119745
-0.130464
0.204222
-0.045337
0.135415
-0.077377
0.001878
-0.119860
0.082893
0.009392
-0.002366
-0.073215
0.104275
0.085677
-0.047141
-0.361785
-0.354764
-0.021169
-0.017722
-0.010967
-0.041000
-0.208346
-0.299878
-0.260443
-0.386779
0.012730
0.026054
-0.048767
0.053172
-0.073325
-0.004817
0.150559
-0.032530
-0.388923
0.190663
0.091503
-0.097656
-0.263605
-0.074198
-0.168999
-0.068526
-0.185240
0.045737
-0.095267
0.126669
0.201650
0.142416
0.034756
-0.005556
0.027537
-0.052039
-0.014420
-0.076899
0.172958
-0.078457
-0.289808
0.200549
0.191590
-0.028713
-0.117337
0.081283
0.140436
0.025056
-0.278652
0.038110
-0.119795
0.097251
-0.030591
-0.009455
-0.232162
-0.099709
0.035126
0.065105
0.073277
-0.056684
0.237474
0.038174
-0.007152
0.053694
-0.081586
0.044026
0.104576
0.499327
0.204615
0.070570
0.195440
0.078450
0.087850
0.577413
0.022574
-0.124118
0.382740
0.004888
0.028878
0.029965
-0.049805
-0.228240
-0.265538
0.117340
-0.271716
-0.301428
-0.131397
0.026472
-0.131330
-0.103896
0.133683
-0.092734
-0.148650
-0.021188
0.219717
-0.063596
-0.135280
-0.129671
-0.363691
-0.061362
0.250916
0.086902
0.117421
-0.338286
0.049761
-0.017453
0.068224
-0.214332
-0.216356
0.157497
-0.270092
0.078267
0.040557
0.154486
-0.070091
0.399246
-0.083566
0.169191
0.046458
-0.146295
-0.175413
0.103814
0.039106
-0.027927
0.181909
-0.161814
-0.038662
-0.021296
-0.078894
-0.354950
-0.092319
0.063733
0.081573
-0.006557
-0.161738
-0.056494
0.164353
-0.064972
-0.021037
0.187652
-0.021819
0.017948
0.002890
0.109672
-0.288263
0.106706
0.112103
0.202954
-0.063053
-0.058631
0.249742
0.312464
0.119603
0.315133
-0.158629
-0.422023
0.098099
0.051807
-0.001053
0.237611
0.001204
-0.014630
0.193334
0.055097
0.220488
0.024101
0.229860
-0.072189
-0.091625
0.057906
0.099169
0.153281
-0.063718
-0.043429
-0.276980
-0.059004
-0.181364
-0.023865
0.029579
-0.025932
0.280833
0.183001
-0.077174
-0.133236
-0.421499
0.291054
0.170136
0.282161
-0.023053
-0.072133
0.011024
-0.024062
0.167967
0.111427
0.084854
-0.328044
-0.051625
0.011113
0.207557
-0.010900
-0.057035
-0.072977
-0.512785
0.214226
0.104462
0.132612
-0.125939
-0.133500
-0.265605
0.107618
-0.024251
-0.223107
-0.136339
0.231007
0.226932
-0.340551
-0.123950
-0.090954
-0.268868
0.013521
0.048990
-0.039133
0.104149
-0.217501
-0.124476
0.106044
0.040180
0.015529
-0.106258
0.325930
-0.205277
0.114229
-0.190805
0.223776
0.050744
0.273677
-0.056899
-0.039884
-0.052198
0.071057
-0.020429
0.021260
0.022378
-0.016136
0.165471
-0.242691
0.135278
0.084502
0.040410
-0.014817
0.094143
0.214252
0.176503
-0.000824
0.069071
-0.080276
-0.021141
-0.060057
0.023800
0.258710
0.060820
0.021036
-0.461773
-0.013990
-0.301260
-0.041145
-0.266828
0.137055
-0.027146
-0.164303
0.085625
0.234884
0.188779
0.158349
0.257585
-0.031351
-0.131411
-0.104971
0.182682
-0.017535
0.083118
-0.066701
0.119169
-0.006438
0.306554
-0.038738
0.297120
-0.029433
-0.091270
-0.017418
-0.132343
-0.265715
-0.225835
0.162532
-0.318199
-0.033231
0.075958
0.247425
-0.015443
-0.004436
-0.343564
-0.033145
-0.431068
-0.413523
0.122566
0.128641
-0.228662
-0.083101
0.251596
0.240995
0.104459
-0.035183
0.077294
-0.446343
0.050816
0.222434
0.052122
0.268664
-0.017278
0.100897
0.025230
0.147943
0.022535
-0.246872
-0.100450
-0.112850
0.035606
0.089557
0.128923
0.021713
-0.142157
0.012996
0.054505
-0.073126
-0.048740
-0.213073
-0.582189
0.297898
0.295134
0.005870
-0.442443
-0.069033
-0.180199
0.098942
0.112967
0.188697
0.179208
0.151639
0.213325
-0.368683
-0.224425
-0.024103
0.399763
0.314492
0.021376
-0.193591
0.015228
0.017307
0.061695
0.196656
-0.105001
-0.192740
0.072834
-0.136111
-0.021796
-0.188027
-0.354166
-0.010035
0.171231
-0.346498
-0.135579
-0.169091
-0.025865
-0.013880
0.080896
-0.047046
0.005945
-0.007558
-0.270654
0.202930
0.089391
0.082658
-0.049593
0.000838
0.051160
0.051995
-0.004417
-0.317621
-0.041331
-0.066055
-0.140654
-0.293802
-0.222905
-0.347236
0.181167
-0.058204
0.332105
0.034781
-0.065016
-0.385797
-0.333079
0.468758
0.116706
-0.000029
-0.412499
0.031316
-0.090636
-0.158728
-0.311038
0.089409
0.205961
0.052441
0.368807
-0.405149
0.052979
-0.027266
0.246025
0.051770
-0.000829
0.004168
0.030794
0.028771
-0.075930
-0.073035
-0.047792
-0.068129
-0.064682
-0.075665
-0.047798
0.034638
-0.008637
-0.006334
-0.043290
-0.051450
-0.066144
-0.042363
0.041379
-0.009624
-0.047939
-0.062894
0.037965
-0.066367
-0.083709
-0.100555
0.023676
-0.058345
-0.069665
-0.037820
-0.051727
-0.125344
-0.057269
0.023453
-0.059320
-0.021181
-0.071266
-0.007968
-0.081238
0.013124
-0.015087
0.061003
0.023072
0.012055
0.062448
-0.114583
0.021214
-0.121970
-0.044892
-0.035734
-0.055954
-0.050401
-0.008268
-0.042382
0.020487
-0.034413
-0.027066
-0.012416
0.083952
0.008269
0.036496
0.040646
0.000469
-0.080529
-0.002539
-0.012870
-0.078068
-0.086088
-0.099328
-0.015185
-0.109596
-0.032770
0.025385
0.027281
-0.131395
-0.067424
-0.006219
-0.002642
-0.083028
0.015519
0.011041
-0.048700
0.085541
-0.132816
-0.022840
-0.102620
0.009674
-0.005947
0.022259
-0.080612
-0.008221
-0.020341
-0.067808
0.058311
-0.109002
-0.042490
-0.059906
-0.080337
-0.015020
0.064659
-0.063832
0.039779
-0.087726
-0.022680
-0.073264
-0.075590
-0.034828
0.005652
-0.018906
-0.068842
-0.085788
-0.063770
0.026127
0.017147
0.011800
-0.127874
0.005789
-0.052005
0.018798
0.017868
-0.063758
0.000179
0.037482
0.144563
0.000508
-0.149775
0.127467
0.166269
-0.098982
0.095509
0.132141
0.089008
0.237807
0.005442
0.003105
-0.009247
0.032911
-0.446285
-0.193281
0.389987
-0.058484
-0.212910
0.016233
0.144145
-0.052152
-0.025771
-0.318870
-0.052503
-0.022398
-0.024030
0.086242
-0.006197
0.063062
0.016981
0.089541
0.154650
0.341965
0.021435
-0.341412
-0.112391
0.188715
0.051928
0.061265
-0.000056
0.190806
0.105173
0.118211
0.277530
0.134600
0.269173
-0.064517
-0.117698
-0.072910
0.023603
-0.026234
0.033644
0.012471
0.072536
-0.095731
0.032871
0.175103
0.000099
-0.208281
-0.540265
0.029482
-0.128479
0.222802
0.245452
-0.218581
-0.028123
0.103290
0.108557
0.066802
0.213409
0.070743
-0.064188
0.252442
0.063124
0.031630
-0.022791
-0.200450
0.035499
0.024608
0.176767
-0.097156
-0.031863
0.219070
-0.042928
-0.100584
-0.308380
0.100983
0.058331
0.151562
0.070200
0.053156
-0.034536
-0.112982
0.402367
0.214622
0.035202
-0.005274
-0.121987
-0.279533
0.115332
-0.214098
0.050524
-0.174636
0.055014
-0.168135
0.053179
-0.395722
0.117164
0.017158
0.043671
0.038890
0.019522
-0.157087
-0.072726
0.213807
0.071856
-0.055417
0.074038
0.042853
0.202709
0.070365
-0.164777
-0.181421
-0.019746
0.117061
0.392867
0.266165
0.181048
0.128597
-0.084317
-0.318781
0.249743
-0.051332
-0.502059
-0.322896
0.119174
-0.035838
-0.089504
0.068656
-0.230518
-0.201377
0.199417
-0.207284
0.081558
-0.201441
0.061192
0.061952
0.276580
-0.194636
-0.041391
0.014602
0.227021
0.277368
0.281771
-0.129189
-0.244628
-0.025807
0.073030
0.475520
-0.013245
0.169899
-0.166225
0.084263
0.089142
-0.110539
0.189988
-0.264648
0.040918
-0.075388
0.114025
-0.150844
0.076581
0.058943
-0.005329
-0.019643
-0.152652
0.016422
-0.398531
-0.138481
-0.233589
-0.012287
0.148043
-0.093719
-0.000319
-0.018036
-0.040844
-0.088361
0.158892
-0.068427
0.324444
0.139330
-0.031866
-0.074459
0.015949
0.138176
0.017555
-0.061575
0.030400
-0.069966
0.119468
0.018302
-0.281210
-0.095339
-0.072650
-0.083750
0.078047
-0.029499
0.059800
0.162423
0.179000
0.208592
0.131423
-0.094385
0.311649
-0.466405
-0.040798
-0.109719
0.205572
0.112455
-0.104875
-0.141377
0.065800
0.099273
-0.066176
0.200975
0.145568
0.009383
0.186047
-0.109326
0.455191
-0.099955
0.056871
-0.131362
0.055095
-0.017747
0.241347
0.086739
0.011131
0.148276
-0.395250
0.131113
0.099913
-0.051499
-0.120908
-0.053212
0.121642
-0.151258
-0.104765
-0.165814
-0.015077
0.174928
-0.022234
0.107852
-0.109858
0.014675
0.208372
-0.076270
-0.165383
-0.069449
0.094602
-0.219012
0.142383
0.028274
-0.065629
-0.009398
0.127804
-0.209387
-0.202326
-0.017774
0.254261
-0.001362
-0.130014
-0.002084
-0.038682
-0.125500
-0.062377
-0.061965
-0.057007
-0.057044
0.025428
0.007529
-0.097520
-0.349147
-0.000156
-0.099559
-0.111993
-0.092849
0.006982
-0.085403
0.135807
-0.003078
-0.037172
-0.050495
-0.012067
-0.027676
-0.036131
0.026442
0.029458
-0.023729
-0.139224
0.078616
-0.145438
0.063812
-0.010619
-0.184083
-0.045140
-0.028940
0.149573
-0.143201
0.116082
0.045961
0.077505
-0.050852
0.057812
-0.103513
-0.054799
-0.067352
0.042726
-0.054342
0.169698
0.003087
-0.232469
0.005971
-0.094069
-0.130754
-0.222391
-0.041610
-0.201375
0.090549
0.060063
-0.110757
-0.155837
-0.245499
0.003595
0.124827
-0.086972
0.103777
-0.128880
0.066783
0.020295
-0.121911
-0.069747
0.083502
-0.015240
-0.216657
-0.001018
-0.148790
0.074324
-0.013793
-0.003852
-0.092339
-0.107014
-0.035622
0.002028
-0.019992
0.161062
-0.025590
-0.019675
0.298122
0.023364
0.046072
0.102156
-0.180632
0.002302
0.110411
0.240032
-0.224337
-0.376171
0.059522
-0.028990
0.150680
0.331876
-0.067426
0.068836
0.349648
-0.100871
0.274283
0.027348
-0.042731
0.090902
-0.401616
0.063835
-0.128186
-0.231872
-0.099655
0.001480
-0.261486
-0.139038
0.263217
0.056102
0.100309
0.003064
0.004739
-0.258082
-0.092456
-0.141443
-0.352129
0.042087
0.272502
0.013149
0.179205
-0.061577
-0.159584
0.015113
0.142319
-0.251378
-0.120757
0.310321
-0.180849
0.089935
-0.372131
0.204530
-0.016993
0.309019
-0.073037
0.092861
-0.043524
-0.156114
0.225888
0.197492
0.015825
0.154984
0.219786
0.095862
0.258904
0.382301
-0.163769
0.200051
0.213277
0.095360
0.198497
0.069024
-0.037531
-0.026031
0.010998
0.066773
0.247714
0.289780
0.029125
0.045532
0.064258
0.140817
0.070027
-0.061682
-0.193438
-0.119769
0.091879
-0.075692
0.520727
0.117772
-0.047589
0.321023
-0.026458
0.058039
-0.000708
0.099463
0.117138
-0.047092
-0.117470
-0.005829
0.195756
-0.044091
0.129566
0.035196
0.184386
0.051366
-0.171480
0.130726
-0.242026
-0.131784
0.052021
-0.062188
0.025135
-0.050637
-0.093763
0.088502
-0.028010
0.090209
0.141033
-0.083675
0.146900
0.159019
0.127800
-0.071057
0.038147
0.141885
-0.269382
0.196327
0.026733
-0.038224
-0.122588
0.204004
-0.017231
0.151282
0.237749
-0.013636
0.149586
-0.032879
0.031382
-0.320814
-0.124656
0.118815
0.137991
-0.068341
0.092001
-0.314670
-0.102475
0.073376
0.324671
0.104435
0.138938
0.012203
-0.059916
0.171846
-0.080800
-0.176367
-0.096020
0.102936
0.217008
-0.063445
0.152780
-0.229458
-0.094582
-0.030444
0.137298
-0.116703
-0.131588
0.284999
0.244073
-0.145879
0.083729
0.049761
0.058058
0.236419
0.108511
0.133560
-0.046192
-0.187713
-0.025036
0.073106
0.052142
0.184090
0.207665
0.152040
-0.177436
0.180109
0.007989
0.011097
0.004314
0.244272
0.098942
0.082971
-0.025560
0.038401
0.249504
0.072795
0.193919
-0.020935
-0.059489
0.210784
-0.050445
-0.096590
-0.117161
-0.036115
0.113815
0.210000
0.059940
0.035867
0.122978
0.149344
0.116995
-0.088288
0.135084
-0.162209
0.236658
-0.003005
0.035060
0.167729
0.118831
0.054923
0.110512
0.006463
0.303132
0.048702
-0.038060
0.046993
0.043635
0.135140
-0.048897
-0.188381
-0.026636
-0.139544
-0.264793
0.096472
-0.118151
0.458049
-0.008144
0.054526
0.004893
0.040404
0.144460
-0.215383
0.112078
0.042486
-0.067313
0.016221
-0.091515
0.029891
-0.008523
-0.003366
0.135840
-0.058297
0.005127
0.019796
0.181415
-0.039095
0.162918
0.100834
-0.093784
-0.022669
0.231609
0.058649
-0.051461
-0.302736
0.035978
-0.163376
-0.275744
-0.010128
0.321456
0.070698
-0.264494
0.005141
-0.053006
-0.191328
0.209303
-0.235267
-0.361441
0.015259
-0.026408
-0.064456
0.039683
-0.157770
-0.103107
-0.022969
0.038147
-0.147979
-0.163404
-0.024220
0.032008
0.107517
-0.294352
-0.076760
-0.050313
0.218990
0.104162
0.234318
0.097579
-0.269549
-0.319811
0.166064
0.014869
-0.024610
0.131693
-0.099585
-0.112745
-0.033501
-0.050920
-0.120142
0.166323
-0.025964
0.040246
0.021133
0.046334
0.051173
0.077248
-0.100651
-0.000548
-0.024002
0.029393
0.050723
-0.132840
0.049295
-0.204991
-0.117681
0.111218
0.149871
0.027279
-0.035369
0.078820
-0.015243
0.157721
-0.063210
0.235930
-0.126268
-0.092206
0.049282
0.084523
-0.193886
0.089702
0.116967
0.065538
0.035447
0.058869
0.071609
-0.044994
0.093737
-0.062377
0.092131
0.025869
-0.041340
0.172790
0.064763
-0.033804
0.046204
-0.132946
-0.056169
-0.050597
0.059489
0.228882
-0.171616
0.048964
-0.112806
-0.087342
-0.116366
-0.032962
-0.514120
-0.350282
-0.217048
-0.089160
0.065062
-0.196559
-0.799790
0.042884
0.064201
0.069027
0.267083
-0.142463
0.158489
-0.141194
-0.155933
0.318324
-0.103342
0.291429
0.216020
-0.523546
-0.371896
-0.136639
-0.032365
0.270842
0.023980
0.178473
-0.015301
0.019901
-0.207616
0.191055
0.171882
0.068124
0.069220
0.001944
0.030085
0.013380
0.076251
0.204836
-0.343160
-0.046973
-0.244661
-0.043153
0.081837
-0.191099
0.143030
0.335379
0.139399
-0.080232
-0.142564
0.093673
-0.042622
0.140096
-0.333077
0.072513
0.096798
0.110598
-0.003065
0.129659
0.137262
0.232637
0.151434
0.052236
-0.130455
0.226099
0.378578
0.108739
-0.078809
0.290605
0.032382
-0.051959
0.026228
0.042231
-0.048600
0.038219
-0.130428
0.128985
-0.006196
-0.039776
-0.090605
-0.245266
-0.037385
-0.016061
0.100383
-0.075474
-0.242562
0.174420
-0.160100
0.024907
0.050843
-0.023752
-0.041760
0.116683
-0.216195
0.174000
0.073171
-0.351162
0.056069
0.043158
0.041900
0.071208
-0.035101
0.096117
-0.208831
0.189440
-0.376458
0.202693
0.055544
0.145324
-0.011712
0.069987
0.002827
-0.004648
0.062423
-0.100226
-0.062271
0.011920
-0.012956
-0.029603
-0.137004
-0.025315
0.015926
-0.018191
0.019770
0.016382
0.036049
-0.048695
0.000352
-0.049458
-0.062516
-0.031748
-0.131743
-0.005271
-0.087039
-0.058592
-0.064013
0.006918
-0.017676
-0.074015
-0.017668
-0.101136
-0.006247
-0.096744
-0.063975
-0.055127
-0.067130
-0.019434
-0.114966
0.009356
-0.003294
0.028107
-0.086585
-0.067435
0.003693
0.016616
0.085278
-0.041163
-0.025702
-0.006950
-0.041131
-0.114967
-0.093148
-0.085029
-0.042924
0.087114
-0.043721
-0.108410
-0.080565
0.051925
-0.079224
-0.060775
-0.050421
0.004688
-0.071665
-0.057896
-0.028597
0.014334
-0.081468
-0.088188
-0.006866
-0.050449
0.057551
-0.098672
0.025296
-0.122015
-0.045981
-0.061382
-0.071153
-0.213590
0.019888
-0.051184
-0.031023
-0.111130
0.005136
0.071989
-0.039896
0.011379
-0.086490
0.022456
-0.080549
0.014719
-0.107564
-0.051861
-0.049270
0.000088
-0.008731
0.002800
0.001661
0.011029
-0.009954
-0.060624
0.048073
0.012012
-0.006881
0.001901
0.038693
-0.129223
-0.026807
-0.008988
0.057129
-0.053521
-0.104936
-0.144885
-0.085814
-0.077923
0.070310
-0.005098
-0.096825
-0.079712
-0.003254
-0.094143
0.102014
0.028615
-0.012071
-0.164790
-0.001826
-0.026500
-0.088655
0.089836
-0.225514
0.098470
-0.015166
-0.218710
-0.107343
-0.072504
0.028556
0.126105
-0.090921
0.065525
0.143878
0.108213
-0.178393
0.044196
0.003220
0.087801
0.014174
0.031980
-0.049243
0.041458
-0.168594
0.098216
-0.071282
-0.197823
0.025607
-0.017785
0.069517
0.001798
-0.110181
-0.005358
0.002589
-0.076099
-0.166126
-0.012808
0.018171
-0.086755
-0.008898
0.077804
0.133373
-0.034078
-0.147152
-0.160873
-0.057728
0.032451
-0.035862
0.052517
-0.068707
-0.022867
-0.095663
0.084430
0.047163
-0.040979
0.042266
-0.010795
0.003208
0.089631
0.139607
-0.002550
-0.014511
-0.178898
-0.060143
-0.008920
-0.025461
-0.069088
-0.127475
-0.050270
-0.051292
-0.124644
0.025705
-0.047923
-0.003794
0.038470
0.045165
0.086820
-0.164936
-0.020166
0.124201
-0.065840
-0.063104
0.039974
-0.087677
0.099707
0.045744
0.080300
0.030003
-0.016550
-0.072921
-0.200237
-0.147413
-0.046725
-0.133658
-0.012119
0.035894
0.125377
0.177241
0.076078
-0.007514
-0.114279
-0.068700
-0.044411
0.044362
-0.083537
0.010354
0.000438
-0.051954
0.160449
-0.080826
-0.104992
0.079435
0.021688
0.050473
-0.010321
-0.003487
0.068882
0.068777
-0.104584
0.162263
-0.274282
-0.212005
-0.396061
-0.099880
-0.250802
-0.227782
0.197907
-0.247924
-0.250247
0.079269
0.142618
-0.117656
-0.073297
-0.010290
-0.121640
0.043336
0.044102
0.094659
-0.012101
0.087799
-0.243151
0.013920
0.207166
0.249352
-0.035303
0.235683
-0.109278
-0.044696
-0.260816
-0.229390
0.185005
-0.119025
-0.138562
-0.135264
0.202124
-0.062248
-0.132822
-0.055705
0.044060
-0.020627
-0.189856
-0.131349
0.028097
-0.128948
-0.198196
0.175423
-0.026672
0.272796
-0.121306
0.006334
0.204636
0.035927
0.053921
-0.297285
-0.069341
-0.082723
-0.054261
0.021226
0.308719
0.064425
0.015853
-0.054894
-0.148109
-0.225625
0.220559
0.335712
0.077337
0.206120
0.089286
-0.390925
-0.083141
0.013579
0.077180
-0.041436
-0.074190
-0.007653
0.227880
0.065046
0.079833
-0.009323
0.253108
0.095889
0.424607
-0.033440
-0.080303
-0.030811
-0.062568
-0.318715
-0.250235
-0.022297
-0.042703
-0.101753
0.237634
0.421137
-0.091588
-0.056190
0.133378
0.117464
-0.233833
-0.091551
-0.039194
0.047552
-0.253523
-0.037822
0.089460
0.124824
0.233372
0.223430
-0.086552
0.093711
-0.076631
0.043476
0.207381
-0.105453
0.007994
-0.016865
0.059057
-0.049708
0.083405
-0.120918
0.215234
0.269466
0.331336
-0.164737
-0.006007
-0.197735
-0.396993
-0.151202
0.046637
-0.034902
-0.141982
0.042502
0.010234
0.078843
0.270432
-0.070365
-0.196404
-0.073870
0.098496
-0.096777
0.404318
0.194620
0.048102
-0.075743
0.164613
-0.153685
0.094840
0.056231
0.422171
0.083271
-0.162793
0.078816
0.148237
0.106823
-0.022482
-0.084716
-0.103165
-0.122437
-0.065197
0.065576
0.029824
0.055078
-0.085787
-0.199757
0.023048
0.114514
-0.200317
-0.108266
0.106994
0.004829
0.041191
-0.181214
0.055244
-0.229012
0.093409
0.088267
0.017093
-0.112755
-0.154425
0.112613
-0.022849
0.097365
0.113332
0.273508
-0.123838
0.057200
-0.049646
0.065540
-0.050267
0.127837
-0.012365
-0.082958
-0.062146
-0.021438
0.093587
0.000333
0.037313
-0.122391
0.034851
-0.042925
0.066910
-0.170909
-0.055784
-0.043084
0.268906
0.073306
0.012478
-0.139510
0.227215
-0.173163
0.090312
0.063846
-0.095295
0.228756
0.435966
-0.021136
0.026386
0.174951
0.129879
-0.120515
-0.164625
-0.003404
-0.103622
-0.038515
-0.134064
-0.105977
-0.034697
-0.021784
0.196370
-0.058681
-0.003124
-0.075442
0.170674
0.086052
-0.060966
0.237522
-0.064485
-0.025385
-0.123066
-0.818645
0.178773
0.249543
0.242966
-0.285562
0.244711
0.340371
-0.070527
-0.183749
-0.169674
-0.047645
-0.078909
0.115619
-0.146701
0.341158
-0.000697
-0.242949
0.073889
-0.099494
-0.016133
0.089791
0.078631
0.031451
0.482345
0.176865
0.023917
0.106240
0.080802
-0.388387
0.151012
0.112115
0.119325
-0.070158
-0.015435
0.260381
0.212272
-0.093695
0.177247
-0.070324
-0.095998
0.036232
-0.049188
-0.625883
-0.222935
-0.056249
-0.055699
0.117016
0.084303
0.033091
0.252094
-0.084581
-0.306863
0.158296
0.077791
-0.247348
-0.061341
0.319928
0.023235
-0.053913
0.135797
0.145545
-0.084089
0.212321
-0.001568
0.319543
-0.102413
0.056623
-0.303400
0.051880
0.151257
0.135614
-0.009896
0.078377
-0.189429
-0.047058
0.037696
0.006820
0.150762
0.001358
0.040045
0.022826
-0.265565
-0.296285
0.269832
-0.058792
0.191851
0.039090
0.029695
-0.248486
0.154344
0.075255
0.049898
-0.068186
-0.184035
-0.343397
0.159754
-0.058302
-0.102187
-0.185781
-0.354333
-0.071188
-0.077819
0.056667
0.076795
-0.002635
-0.244360
0.021527
-0.123058
-0.036445
-0.299053
0.068281
0.056157
-0.701125
-0.083892
-0.079154
-0.482997
-0.059033
-0.067032
0.004365
-0.110418
0.236093
-0.022940
0.189742
0.044305
-0.012043
-0.199628
-0.340432
-0.539652
-0.123889
0.011449
0.041308
0.130041
-0.237011
0.075675
-0.047805
0.219985
-0.237080
0.052322
-0.015079
-0.084427
0.003638
0.073177
-0.009520
-0.015637
-0.125028
0.116836
-0.223911
-0.222301
0.001029
-0.136645
0.092907
-0.088761
-0.395891
-0.291619
-0.286821
-0.061604
0.108092
-0.148829
0.060884
0.230455
0.081864
-0.172223
0.225688
-0.247102
-0.215684
0.262089
-0.275743
0.199952
-0.032643
0.050904
-0.074202
0.181548
-0.114391
0.028904
0.114997
0.032521
0.083547
0.027331
0.261384
0.126377
0.169619
-0.071669
-0.268701
0.015625
-0.143542
0.027528
0.154678
0.158550
-0.133861
-0.108526
0.031878
0.071611
0.042803
-0.060235
0.030792
-0.175649
0.065948
0.232566
-0.079225
-0.064075
-0.034978
-0.037253
0.204600
-0.307641
0.064945
0.016729
0.088917
-0.035037
0.213175
-0.557046
-0.153843
-0.211334
-0.261865
-0.031874
-0.239242
-0.113482
-0.018944
0.021779
-0.037862
0.294559
0.086787
0.045001
-0.000606
0.029401
-0.052253
0.069446
-0.059446
-0.047113
-0.216734
0.138679
-0.506534
-0.125835
0.119241
0.254158
0.081584
0.073055
-0.194810
-0.010796
-0.022102
0.162168
-0.019520
0.029177
0.299209
-0.184784
-0.505496
-0.036713
0.126495
-0.146449
-0.229603
-0.295047
0.008037
0.058104
-0.003613
0.010814
-0.111004
-0.019453
-0.289661
-0.123571
0.033517
0.035570
0.026006
-0.108945
0.177740
-0.040772
-0.031643
0.061054
-0.204918
0.010937
-0.106854
0.007516
0.193806
-0.198975
0.034705
-0.062777
0.010423
-0.087600
0.061586
-0.026471
-0.141800
0.298614
-0.097675
-0.195920
0.108867
0.090546
-0.117680
0.014418
-0.201454
0.066925
0.210067
0.248935
0.155363
0.253479
-0.224996
-0.013978
0.007387
-0.035849
0.158249
0.044685
0.122938
0.150318
0.020197
0.035662
-0.031582
-0.123874
0.271493
0.456203
0.173878
0.050919
0.434657
0.054751
-0.135904
-0.072266
0.060927
0.049858
0.076253
-0.187240
0.068300
0.414562
-0.195219
0.094033
-0.016450
0.037977
0.068546
-0.052240
0.086295
-0.112433
0.019892
-0.074295
-0.127661
-0.243551
-0.176605
0.114048
-0.168972
-0.023603
0.316242
-0.167094
0.085087
0.044544
0.252656
0.197356
-0.235759
-0.008605
0.063756
0.202779
-0.017366
0.124283
0.198033
0.121418
0.016001
-0.059462
0.400812
-0.165412
0.313735
-0.051281
0.033517
-0.023191
0.117838
0.030254
0.069332
-0.434102
-0.099910
0.068491
0.065013
0.186006
0.072724
0.082749
-0.455884
0.102217
-0.082373
-0.043097
0.071770
0.072618
-0.137899
-0.003139
-0.091545
-0.478182
-0.088535
-0.037492
-0.202565
0.039643
0.160969
0.227227
-0.316273
-0.032272
0.207522
0.093131
0.257560
0.196177
0.012091
0.108842
-0.101675
0.006193
0.150698
-0.109763
0.307032
0.216521
-0.066971
0.282346
0.100112
-0.241718
0.072072
0.090911
0.077461
0.048838
0.126316
-0.047598
0.006086
-0.079149
-0.226578
0.287213
-0.024236
-0.399724
-0.457019
0.100047
-0.493235
0.217032
0.091540
0.112351
-0.319348
-0.007529
0.264439
0.125117
0.188909
-0.139421
0.311846
-0.146165
-0.128407
0.205965
-0.020919
0.023886
-0.223805
-0.551941
0.024541
0.152289
-0.033621
0.048350
0.093693
-0.042632
-0.322055
-0.015317
0.140450
-0.410562
0.250517
0.269209
-0.055727
0.227266
0.113756
-0.037092
0.003295
0.064902
0.043251
-0.227970
0.178201
0.029417
0.284300
-0.130479
0.050082
0.009077
0.056222
-0.271636
0.112811
0.158076
-0.077408
-0.448455
0.072939
-0.207889
0.059803
0.187424
0.154141
0.012297
0.206015
0.182137
-0.011749
0.232877
-0.073014
-0.061976
-0.034315
-0.081591
-0.046960
0.298846
-0.125459
-0.044927
0.101555
0.037605
-0.344776
0.126088
-0.168675
0.111636
-0.118258
-0.194454
-0.121724
-0.461912
-0.400273
-0.036812
0.015594
-0.088638
-0.138186
-0.067051
0.211792
0.084849
-0.049835
0.136538
0.024647
0.215670
0.340604
0.072032
-0.091159
-0.065383
-0.122704
0.116913
0.223949
0.051285
-0.051967
0.142518
0.268156
0.090139
0.089997
0.178142
-0.011304
0.261405
0.000949
-0.067781
0.015066
0.254551
-0.336267
-0.232821
0.019413
0.271211
0.053854
-0.150856
-0.049901
0.208573
-0.108732
0.074122
0.116087
-0.073601
-0.094736
-0.029483
-0.125502
0.239916
0.050212
0.019633
-0.083578
-0.293471
0.182398
0.077936
0.028317
0.097283
-0.168390
0.034046
-0.300409
0.001167
-0.020254
0.004355
0.076963
-0.014898
-0.073140
0.205984
-0.248180
-0.070447
-0.153018
0.063487
-0.163617
0.227964
0.009748
0.076226
0.182040
0.010124
-0.025070
-0.268395
-0.143663
0.308569
-0.202439
0.014272
-0.029549
-0.015264
-0.070377
0.026599
0.119719
0.301219
0.099572
0.075762
-0.016708
-0.062074
0.011686
-0.042700
-0.141491
0.121296
0.036520
-0.073859
0.236518
0.002945
0.110322
0.096688
0.015919
-0.091226
0.115898
0.000073
-0.047835
-0.016651
0.090334
0.107648
-0.197466
-0.105663
0.281647
0.057517
0.154731
0.237834
0.156488
0.096614
0.069208
0.368560
0.037204
-0.045037
-0.152783
-0.208178
0.123569
0.313607
-0.108935
0.056128
0.041311
-0.226726
-0.099424
-0.093698
-0.388704
-0.008083
-0.011206
-0.034959
0.078035
0.077839
0.107188
0.018150
0.122169
0.139610
-0.078165
-0.064001
-0.012164
-0.162403
-0.030198
-0.031196
0.034749
0.094836
-0.041269
0.102800
0.379537
-0.057334
0.186398
0.099983
0.069285
0.126001
0.089921
-0.661141
0.112551
0.041741
0.162203
0.138512
0.138087
0.118234
0.081975
-0.012309
0.176486
0.040789
-0.048335
0.176743
-0.115484
0.054381
-0.296035
0.077025
-0.082326
0.165004
-0.068894
0.130703
-0.006011
-0.064936
0.058358
-0.035715
-0.052984
-0.240196
0.244546
0.020816
0.244680
-0.431537
0.197586
-0.135587
-0.001718
-0.133661
0.133928
-0.075149
-0.023701
0.170042
0.226454
0.077380
0.046878
0.139438
0.002994
-0.252227
-0.002740
0.271801
-0.407915
-0.021692
0.085599
0.281519
-0.036467
-0.066572
0.019621
0.036668
0.211285
-0.160357
0.110298
-0.601259
-0.269996
0.161384
0.093415
-0.013408
-0.047198
0.123537
-0.172719
0.050072
-0.009554
0.047820
-0.066956
-0.064135
-0.192789
0.010334
-0.199262
-0.206570
-0.276259
-0.372157
0.198188
0.203542
0.043430
-0.401615
-0.177949
-0.092247
0.221353
0.331583
0.059396
-0.168013
-0.007714
0.067386
-0.218555
0.141238
0.091694
0.119027
-0.119439
-0.352723
-0.228050
-0.149864
0.054140
0.170097
0.068017
-0.095946
-0.118338
-0.003216
0.090102
0.097145
0.029180
-0.118408
0.030725
0.100638
0.059902
0.115719
0.170327
-0.022781
-0.192410
-0.079764
-0.285159
0.037822
-0.102712
-0.257852
0.048567
0.474857
0.167556
0.077591
0.144637
0.058126
-0.006986
0.135085
-0.057754
-0.039056
-0.063363
-0.000343
-0.164999
0.165728
0.115263
-0.107620
0.342601
0.086376
-0.077043
-0.284609
0.110995
0.141112
-0.043070
0.162269
0.085772
-0.160067
0.000069
-0.018638
0.102368
-0.019430
-0.016664
0.281227
0.070267
-0.145689
-0.093905
0.052569
-0.011644
-0.073195
0.256100
-0.114489
-0.304057
0.192643
-0.311992
0.102823
-0.026080
0.368012
-0.016878
-0.002476
0.175773
0.094343
0.134230
0.046164
0.068554
0.234871
-0.084575
-0.028996
-0.222898
0.024144
-0.094454
0.219320
-0.332621
0.239731
0.033144
0.029422
-0.057452
-0.193248
-0.053339
-0.052017
-0.057764
-0.028001
0.031826
0.023363
-0.273860
0.125232
0.142854
-0.029583
0.096105
-0.026034
0.281163
0.282938
0.102882
-0.036987
0.021660
0.014633
0.192407
0.314764
-0.038211
-0.045863
-0.302929
-0.004891
0.082542
0.157635
0.427020
-0.316145
-0.234778
-0.061308
-0.208783
-0.024825
0.025316
0.212000
0.120304
-0.519364
0.081111
0.092221
-0.098846
0.115050
-0.373663
-0.171235
-0.118015
0.441455
-0.042487
0.216791
0.020148
-0.197718
-0.037511
0.253227
0.119419
-0.173212
-0.186097
-0.119349
0.087166
0.272961
0.318480
-0.024403
0.161292
0.085339
0.075657
-0.061097
0.121090
-0.318033
0.080562
0.071310
-0.262520
0.181089
0.047709
-0.543837
0.112865
-0.111317
-0.347168
-0.322094
0.271707
0.118329
-0.006366
-0.013429
-0.004857
-0.038230
0.078265
-0.339696
0.177248
0.072366
-0.101422
0.116181
0.079622
0.241405
-0.063573
0.187625
0.110227
-0.001441
0.215389
0.109180
0.141931
0.107431
0.158470
0.085799
-0.174973
0.231636
-0.082379
-0.303329
0.012506
0.018908
0.025510
-0.022577
-0.057208
0.177969
0.030170
-0.162086
-0.033402
0.054004
-0.131198
0.364335
-0.435100
-0.006608
-0.073913
-0.261659
0.008377
-0.092846
0.098656
0.057557
-0.008676
-0.157602
-0.141230
0.042932
-0.216556
-0.040699
-0.038111
-0.067020
-0.163471
-0.092935
0.024621
-0.268341
0.054110
-0.007721
0.047033
0.016446
-0.166131
-0.156365
-0.156397
0.037861
-0.055753
0.000761
-0.118878
-0.082408
-0.043730
0.039337
-0.071590
0.037044
0.075400
-0.071480
-0.123907
0.043896
-0.113035
0.047967
0.056334
-0.179881
-0.075238
-0.044571
-0.099002
0.211980
-0.057450
-0.101348
-0.090885
-0.049780
0.062946
-0.070148
-0.065529
-0.015203
0.065911
-0.132302
-0.048934
0.036380
-0.090527
-0.150812
0.127387
-0.045156
-0.112365
0.101512
-0.043400
-0.190193
0.021503
-0.038258
-0.037146
-0.085111
0.157444
-0.086296
-0.075522
0.072779
-0.242752
-0.176043
-0.039144
-0.168062
-0.076740
-0.022935
0.002116
-0.034491
0.051597
0.033784
-0.063282
-0.098123
-0.008475
-0.044785
0.039611
-0.120384
-0.183896
-0.012963
-0.059793
-0.148405
0.055764
0.022255
-0.040969
-0.026108
-0.053631
-0.185702
0.005034
-0.111059
0.062983
0.027430
0.007119
-0.116903
-0.090323
-0.159965
-0.153267
-0.138386
-0.055384
-0.099181
-0.090872
-0.172211
-0.093668
-0.097910
-0.052104
0.031985
-0.081021
-0.242098
0.015691
0.126583
-0.078292
0.050409
0.083726
0.063953
-0.035666
0.192572
0.068168
-0.043442
0.173108
-0.163881
0.164559
0.163217
-0.091727
-0.236376
-0.203097
0.139026
-0.011638
-0.058201
0.122080
-0.052455
0.440696
0.162986
0.019557
0.071181
0.061456
-0.058591
0.112989
-0.330292
0.259254
-0.462194
-0.427866
0.013590
-0.058936
-0.061057
-0.033469
0.054029
-0.006673
-0.019569
0.101562
-0.148370
0.036681
0.212892
-0.053121
-0.389309
0.054437
0.322627
-0.004931
0.118079
0.007487
-0.230787
0.134939
0.061859
-0.139479
-0.095352
0.203816
-0.200963
0.054491
-0.321201
-0.091675
-0.004279
0.251342
0.012827
0.201439
-0.195820
0.154257
0.067187
0.208453
-0.019072
0.163983
0.055204
-0.172074
0.221299
-0.027186
0.011619
-0.062167
0.048218
-0.213597
0.071130
0.018078
-0.067737
-0.020719
0.026014
-0.010823
0.267043
0.194424
-0.073915
0.021734
-0.255662
0.228433
0.151895
0.037409
-0.374394
-0.027045
-0.078140
0.068063
0.248236
0.169006
-0.198960
0.362628
-0.057663
-0.140785
-0.253685
0.103084
0.001544
-0.496963
-0.189477
-0.082369
0.193934
0.004320
-0.064353
-0.042881
0.132817
0.094807
-0.271928
0.183550
-0.155220
-0.103879
-0.067551
0.283702
-0.205854
-0.025340
-0.046039
-0.021793
-0.022180
0.025026
0.116780
0.095332
0.026130
-0.171028
-0.173348
-0.228985
0.025904
-0.165940
0.123545
0.282137
-0.169863
0.020931
-0.206793
-0.041332
-0.021018
-0.144655
0.185658
0.148156
-0.175415
0.170706
0.135418
-0.052903
0.117401
-0.056821
0.033487
-0.003079
-0.071697
0.353924
-0.083875
0.020397
-0.054840
0.083356
0.030393
-0.609631
0.105599
-0.003401
-0.051941
0.115729
-0.014246
-0.000674
-0.109225
-0.010772
-0.120758
0.064660
-0.159399
-0.134188
-0.050058
-0.148982
0.110928
0.067585
0.007209
-0.043777
0.255024
0.115596
0.010147
0.140110
-0.106556
-0.159656
0.163319
0.128449
-0.022277
-0.018848
0.093949
-0.218774
-0.020159
-0.067404
-0.294479
0.087134
0.238865
-0.118294
-0.153508
-0.176435
0.262037
0.015634
0.007267
-0.065187
-0.136787
-0.023250
0.084815
-0.130468
0.027153
-0.097601
0.151480
0.046219
-0.007625
-0.039617
0.338998
-0.090212
0.035589
0.168293
-0.277977
-0.153716
-0.051114
-0.189028
0.025112
-0.429179
0.379874
-0.016914
0.089956
0.142467
0.151519
0.100144
0.115078
0.039890
0.082982
-0.056483
-0.092377
-0.220928
0.132785
0.148138
0.186091
0.167330
0.306581
-0.195275
-0.017793
-0.063320
-0.119661
0.055900
-0.052927
0.040863
-0.086796
-0.091697
-0.065411
-0.048332
-0.013591
-0.102044
-0.066942
-0.086738
-0.023146
0.036298
-0.000045
-0.002199
-0.000037
-0.070568
-0.041240
-0.086291
0.017663
-0.018844
0.033993
-0.072917
-0.012212
0.035201
-0.013703
0.072471
-0.025678
-0.117033
-0.047337
0.013741
-0.067021
-0.104745
-0.109896
0.073573
0.035664
-0.028682
-0.081341
-0.059642
-0.020595
-0.006965
0.027258
-0.045055
0.090266
-0.001027
-0.025006
-0.087519
-0.042349
-0.045729
-0.037921
-0.069615
-0.040392
-0.073562
-0.047925
-0.047284
-0.066354
-0.025346
0.074337
-0.056685
0.079902
0.036841
-0.069202
-0.081649
0.005224
-0.056180
-0.085609
-0.076796
0.030939
-0.004228
-0.063697
-0.114028
-0.024051
-0.070850
-0.015396
-0.012972
-0.069545
0.080036
0.046127
-0.052231
-0.114033
0.076923
-0.040678
-0.076894
0.009008
0.023133
-0.090728
0.022429
-0.020641
0.077972
-0.087113
-0.062200
-0.064940
-0.091599
0.025924
-0.069611
0.057683
-0.024447
-0.080833
-0.065354
-0.003204
0.067995
-0.124370
-0.077906
0.029130
-0.040691
-0.033786
0.023059
0.024464
0.090406
-0.068201
-0.075517
-0.030791
-0.100526
-0.013663
0.004809
-0.012269
0.062377
-0.090760
-0.061853
-0.130205
0.041019
-0.021882
-0.014957
-0.035661
-0.053501
-0.141252
0.066691
0.134691
0.340767
-0.113471
0.357133
0.187417
-0.161126
0.094364
-0.050237
0.375036
0.296226
0.098174
0.101909
0.045725
0.235681
0.196699
-0.128638
-0.015691
0.039879
-0.170733
0.012642
0.032383
-0.176671
0.039298
0.046805
0.176804
-0.225598
-0.284447
0.050664
0.345202
-0.513248
-0.059629
-0.083286
-0.279243
-0.149662
0.157923
0.009562
-0.178766
0.015303
-0.110551
0.215078
-0.341351
0.203853
0.069971
0.304015
-0.066979
-0.093633
0.020479
-0.008146
-0.213004
0.299171
-0.022162
0.145814
-0.035211
0.005498
-0.086436
0.350355
-0.041645
-0.270561
-0.024488
0.088652
0.195501
0.145257
-0.066401
0.060552
-0.161624
0.219015
-0.086952
0.233481
-0.042845
0.060397
-0.046030
0.082384
0.000499
0.029459
0.154254
0.227499
-0.086572
0.005944
0.148024
-0.041399
-0.026438
-0.024353
0.138218
-0.072276
0.009130
-0.049404
0.006561
0.006993
0.040846
-0.052106
-0.002651
0.165486
-0.156703
0.040871
0.193375
-0.091692
-0.379397
-0.357237
-0.014185
-0.006469
0.089601
-0.073363
0.145877
0.127319
-0.202155
-0.096177
-0.134880
0.106243
-0.131949
-0.169193
0.357035
-0.008069
0.284291
0.024197
0.025425
-0.031653
0.372514
-0.076533
-0.144790
-0.440537
0.083245
0.170845
-0.035824
0.103023
0.696654
0.000112
-0.190274
-0.055267
0.075282
-0.274438
0.068922
-0.173865
-0.520887
0.271882
-0.097087
-0.065835
0.021706
0.033388
-0.261159
-0.117718
0.101176
0.218369
0.036523
0.294512
0.076874
0.049215
-0.110760
-0.046087
0.092877
0.090244
0.279285
-0.179425
0.131002
0.135464
0.300218
0.058492
-0.225015
0.021951
-0.081832
0.032031
0.154650
0.148393
-0.018704
0.332343
0.047945
-0.140222
-0.143214
0.060567
0.140012
0.072488
0.106145
-0.329383
-0.081264
0.242963
0.098341
-0.023074
-0.274771
-0.347844
0.043601
0.060345
-0.149680
0.132242
-0.161846
-0.335215
0.072751
-0.031822
0.138117
-0.025223
-0.119439
0.068763
0.006866
-0.007039
0.014819
-0.007072
-0.341242
0.207319
0.093879
-0.022304
0.104671
-0.134326
0.144542
0.022334
-0.132129
0.136872
-0.091718
-0.051012
0.247966
-0.310566
0.007195
0.135718
0.055159
0.151592
-0.026693
-0.049749
0.154015
-0.138016
0.001388
0.366844
-0.095160
0.017688
-0.297811
-0.040482
0.053897
0.004903
-0.177531
0.044015
0.088101
0.347229
0.186689
-0.045275
0.084692
-0.061167
0.199249
-0.089372
-0.033277
0.035915
0.133066
0.089224
0.143921
0.171767
-0.073835
-0.207453
0.209173
0.043423
-0.268609
0.083368
0.043256
0.022686
-0.242237
0.377022
0.040890
-0.505289
-0.006465
-0.034144
-0.165611
-0.085070
0.062887
-0.010408
0.208512
0.152555
-0.121577
-0.103967
0.173318
-0.219344
-0.055722
0.149208
0.011724
0.050820
-0.220707
0.110588
-0.093353
0.160778
-0.333224
0.002794
0.035872
0.071065
0.241183
-0.047507
0.260853
0.064956
0.124657
0.049113
-0.020994
-0.052952
0.025145
-0.004310
0.180534
-0.063531
-0.329482
-0.244008
-0.092433
0.251508
0.150702
-0.069709
0.032394
-0.453496
-0.062525
0.260414
0.042060
0.116858
0.265120
0.081174
0.097671
0.137824
0.157339
0.148052
0.209470
0.376318
-0.114849
-0.027911
0.152079
0.018978
0.039637
0.078046
0.085409
-0.120964
-0.073914
0.205128
-0.203832
0.179258
-0.284837
0.075931
-0.077351
-0.135143
-0.047150
0.023171
0.004697
0.034109
0.197730
0.075890
-0.300613
0.129836
-0.369012
0.030611
-0.096712
-0.053300
0.203484
-0.124119
-0.120936
0.054473
0.034825
-0.060659
0.086137
0.110300
0.104120
0.056235
-0.072805
0.093116
-0.040247
0.270409
-0.075823
0.089583
-0.086500
0.069713
-0.082649
-0.105233
-0.132650
-0.359708
-0.167268
0.066927
0.032042
0.011006
0.216967
-0.206361
-0.138597
-0.060859
-0.175967
-0.081632
-0.279768
-0.001508
-0.027642
0.272663
0.229404
-0.177419
-0.102030
0.197443
-0.070684
0.118661
0.272109
0.240328
-0.167693
0.161776
0.106325
0.268456
0.083828
-0.078242
0.441823
-0.064194
-0.007999
0.127555
0.099087
0.400649
0.030827
0.010943
0.080197
-0.053483
0.209107
0.011434
0.131994
0.010803
-0.090816
0.026373
0.184256
-0.016917
-0.383365
0.135926
-0.050842
0.033946
-0.130118
0.039469
-0.055062
-0.004950
-0.044628
0.089539
0.058161
-0.098517
0.134925
0.215460
0.029465
0.162312
-0.260954
0.338574
0.222480
0.069059
-0.034079
-0.071584
0.156191
-0.108961
-0.337904
0.082921
0.098262
-0.043422
0.200693
0.016975
0.077041
0.165728
0.065315
-0.055692
0.189586
0.106140
0.242387
-0.048838
0.007871
0.029847
0.076965
-0.113297
0.396497
0.055046
-0.226538
0.469388
0.086920
0.086477
0.460851
0.016202
-0.278407
-0.026522
-0.679769
-0.116929
0.066129
0.035367
-0.406218
-0.084654
-0.076853
0.227437
0.086508
0.052307
0.375125
0.119760
0.038508
-0.094175
0.036615
-0.049820
-0.214794
0.193395
0.066802
0.107629
0.087530
-0.716478
0.211828
0.210788
0.153098
-0.242124
0.234727
0.194154
0.050595
-0.145167
-0.353262
0.043637
-0.011318
0.109914
-0.098704
0.060668
0.021301
0.035258
-0.003366
-0.117047
-0.005445
0.075970
-0.007696
0.139079
0.580704
0.184589
-0.002977
-0.011410
-0.099813
-0.460108
0.270966
-0.065982
0.248503
-0.160251
0.206006
0.070646
0.241556
-0.260578
0.073651
-0.019857
-0.195049
0.049987
-0.001429
-0.602103
-0.134386
-0.282491
-0.161367
0.101580
0.218509
0.058947
0.209666
-0.177403
-0.094365
0.006239
-0.061705
-0.176046
-0.045858
0.119972
-0.184108
-0.250511
0.239597
0.314613
0.013740
0.229166
-0.058466
0.105265
-0.297515
-0.011463
-0.274120
0.082272
0.069788
0.179260
0.040983
0.106347
-0.271612
0.014778
-0.036660
0.058058
0.193334
-0.078687
-0.055167
0.137204
0.035497
-0.326221
0.148880
0.074371
0.157128
0.070470
-0.093591
-0.299285
0.081558
0.098729
0.137758
0.003506
0.041383
-0.276496
0.360255
-0.018619
-0.051502
0.071364
-0.117249
-0.021945
-0.103329
-0.093287
0.179175
0.026136
-0.448396
0.025154
0.059200
0.082312
-0.217041
0.134312
0.207493
-0.462711
0.068419
0.078181
-0.282912
0.138717
-0.013140
-0.007732
0.089846
-0.063579
-0.091966
0.066178
-0.197872
-0.074044
-0.026744
0.230844
0.013863
-0.240480
-0.315858
-0.022704
0.021228
0.113954
0.151507
-0.088775
-0.054476
-0.163691
-0.069009
-0.090856
0.039014
0.016605
-0.423656
0.287024
0.184585
0.075689
0.123154
0.216259
-0.097706
-0.442929
-0.251229
-0.263788
0.146270
-0.270947
-0.165308
0.130973
0.161749
-0.265433
-0.150184
-0.055751
-0.069012
0.001681
-0.095997
-0.178718
-0.397753
-0.043415
0.024954
0.143877
-0.005045
0.214746
0.092526
-0.006337
-0.013899
0.091856
-0.036159
0.073940
0.090288
0.020364
-0.340868
0.183131
0.116226
-0.020733
-0.062834
-0.025416
-0.013464
-0.188142
0.144046
0.067318
-0.081889
0.237697
-0.046383
-0.041146
0.107783
-0.070530
-0.311947
0.026783
-0.141254
0.044732
0.299170
-0.129416
-0.047100
0.026672
-0.049992
-0.297442
0.028344
-0.048413
0.182735
0.212461
0.050395
-0.238781
-0.099687
0.002563
-0.207335
0.085847
0.186716
-0.060492
-0.284627
-0.055302
0.016632
0.228272
-0.163803
-0.279672
0.069069
0.061066
0.121756
0.012245
-0.054856
-0.075543
0.169999
-0.061045
-0.109264
0.185530
-0.392713
-0.212820
-0.074854
0.025498
-0.037439
-0.072160
-0.011288
-0.019028
0.036441
-0.008964
0.040560
-0.041978
-0.090416
-0.035271
-0.050554
-0.001698
-0.020936
-0.048365
-0.068364
-0.042840
-0.009982
0.052173
0.015515
-0.022803
-0.076118
-0.056162
0.001375
-0.078030
0.067544
-0.037345
-0.074199
-0.092391
-0.106714
-0.030247
-0.018132
-0.068284
-0.092544
-0.134087
0.040034
0.007705
-0.097096
0.036580
0.032062
-0.061226
-0.121153
-0.051379
-0.058003
0.010290
0.077929
0.033560
-0.103336
-0.020853
-0.090983
-0.004537
0.064514
-0.072752
0.044505
-0.089104
-0.023964
-0.011882
-0.130947
-0.087850
0.003479
-0.000205
-0.032237
0.024969
-0.098742
-0.010634
-0.110423
-0.057703
-0.022071
-0.044581
-0.046734
0.061884
-0.003524
0.007119
-0.094484
-0.074651
-0.096378
0.062574
0.001145
0.049735
-0.077187
-0.011054
0.015048
-0.025748
-0.060013
-0.046494
0.078385
-0.058311
0.050908
0.022594
0.071253
0.018247
0.008428
-0.021192
0.048050
-0.018001
-0.077572
-0.099091
-0.116111
0.019565
0.036683
-0.040909
-0.077706
0.021550
0.018241
0.035188
-0.129753
0.044129
-0.112460
-0.010712
0.027795
-0.078155
-0.121139
0.002703
-0.067577
0.040272
-0.099893
0.005379
0.042657
0.022341
-0.007128
0.070793
-0.102744
-0.073943
-0.054398
-0.076653
0.072706
-0.108318
-0.038276
0.061549
0.068005
-0.128363
-0.048031
-0.103566
0.078809
-0.061295
-0.025811
0.019239
-0.084265
-0.088114
0.058537
-0.090687
0.007216
0.058899
-0.024256
0.015127
-0.092136
-0.006801
-0.005897
0.055145
-0.018180
-0.022377
-0.075631
-0.057145
-0.067314
0.018145
0.073467
0.079195
-0.058536
-0.088218
-0.046768
-0.009688
0.039016
-0.048950
-0.016334
0.000445
-0.012493
-0.079872
0.022672
0.020511
-0.008427
0.002261
0.050353
-0.067598
0.041198
-0.023251
0.089476
0.033347
-0.027967
0.063835
-0.044408
-0.084846
-0.053376
-0.014332
-0.064407
-0.110710
0.036543
-0.061320
-0.029540
0.037276
-0.105390
0.025756
-0.089971
-0.005252
0.031682
0.026654
-0.120930
-0.068196
-0.045726
-0.078177
-0.079698
-0.021818
-0.065745
0.027274
-0.029251
0.067829
-0.052662
-0.031939
-0.027130
0.048183
-0.000932
0.033390
-0.022214
-0.044772
-0.025906
-0.071662
-0.124530
-0.100043
0.004579
0.043396
-0.049745
-0.071285
-0.076759
0.063335
0.036856
0.037618
-0.079282
-0.044366
0.024825
-0.075537
-0.039591
-0.033745
0.016259
-0.094537
-0.064027
-0.076938
-0.111428
0.037348
-0.012941
-0.069263
-0.071569
-0.022669
-0.060902
-0.149385
-0.039273
-0.037048
0.359483
-0.047790
-0.322937
-0.077356
-0.349139
0.229110
0.038618
0.277038
0.273412
-0.114067
-0.170317
0.028939
-0.350428
-0.201910
-0.031059
0.209488
-0.171355
0.177798
-0.396028
0.132334
0.045340
-0.048518
-0.278065
0.072054
0.140569
0.278095
-0.685650
0.015785
-0.024391
-0.079293
-0.028767
-0.247335
0.196384
0.201791
0.051249
-0.206268
0.131403
0.123024
0.129893
0.086453
0.229605
-0.070614
-0.224040
-0.177092
0.035556
-0.115620
-0.124941
0.006944
-0.124258
0.106229
-0.279157
-0.098507
0.186040
-0.070330
0.061163
0.043681
0.010347
-0.231161
0.046235
-0.080379
-0.041770
-0.115407
0.076455
0.148156
-0.117719
0.048785
0.198104
-0.027987
0.079214
0.069628
0.035462
0.055619
-0.213427
-0.001524
0.062541
0.007170
-0.014108
0.044790
0.185109
0.353440
-0.020216
-0.363483
0.197150
-0.208758
0.282887
-0.068460
-0.444498
-0.096534
-0.074431
-0.124188
0.156974
-0.136645
-0.015067
0.238729
0.127601
0.359577
-0.006509
-0.095820
-0.056167
-0.134692
0.030206
0.120399
-0.161809
-0.058490
-0.247023
-0.005774
0.251310
-0.007928
-0.002056
0.009520
0.218411
0.183186
-0.054424
-0.131287
-0.004319
-0.074637
0.247031
-0.031681
-0.053632
-0.058116
-0.185494
-0.032865
-0.034950
0.058294
0.123759
0.203591
-0.024638
-0.295029
-0.123562
-0.037048
0.073354
-0.101315
0.375560
-0.157897
0.082230
0.112331
0.110228
-0.041356
0.341303
0.017999
-0.061755
0.280331
-0.029008
-0.064130
-0.109775
-0.263405
0.054811
0.035751
0.026561
0.094703
0.092838
-0.005855
0.044476
-0.369696
-0.214248
-0.195028
0.212892
0.019756
-0.151392
0.067670
-0.165823
-0.027345
-0.143042
0.045496
-0.269556
0.006045
0.255564
0.031158
0.281778
-0.064500
-0.209873
-0.083391
-0.009895
0.171168
0.010527
0.054681
0.117642
0.526153
0.136526
0.475682
0.039192
0.090371
-0.062916
-0.129519
0.269519
-0.059640
0.027003
0.178044
-0.004798
-0.141184
-0.059241
0.020532
0.131289
0.063381
0.047718
-0.064816
-0.112821
0.017727
-0.051680
0.091186
0.028744
-0.091681
-0.122459
0.284371
-0.234285
0.006039
-0.023909
0.082391
-0.054746
0.124285
-0.062444
-0.134602
-0.039165
-0.053658
0.167118
-0.251400
0.209619
0.005080
0.192267
-0.296842
0.067846
0.182034
0.219726
-0.047896
-0.044484
0.092314
0.001881
0.117108
-0.111525
-0.015675
0.218278
-0.431538
0.042180
-0.132656
0.161182
0.060221
0.095610
-0.038710
0.013816
-0.020706
0.015031
0.249620
-0.128158
0.050823
-0.064519
0.040456
-0.219692
-0.100543
-0.106956
-0.130224
0.049613
-0.057283
0.057202
0.144512
0.033176
-0.298732
0.077607
-0.099221
0.035327
-0.141301
-0.094911
0.099468
-0.198482
0.083672
-0.063457
0.142281
0.031574
0.103958
0.137063
0.019241
-0.633507
0.048430
-0.399260
-0.321297
0.061789
0.189590
0.218937
-0.067229
-0.281920
-0.098739
0.287806
-0.014882
0.108039
0.259114
-0.194273
0.077081
0.095098
0.166070
-0.055548
0.201066
-0.148767
0.018294
-0.080686
-0.021820
0.040363
0.074758
0.078897
-0.268069
-0.172381
0.256313
0.102329
0.008958
-0.041841
0.046550
-0.097701
-0.175332
0.108548
0.105512
-0.048007
0.098208
-0.227301
-0.363195
0.086591
0.019594
-0.396255
-0.054871
-0.208973
-0.117034
0.086339
0.082291
0.053946
-0.185854
0.146262
0.170404
-0.166086
0.024700
0.056663
0.099441
-0.057952
0.042746
-0.140664
0.033839
0.066055
0.170744
-0.031523
-0.041131
-0.270569
-0.089318
0.101814
0.484457
0.145623
-0.322077
-0.004022
0.048990
0.151860
-0.069441
0.186642
0.043440
0.197299
-0.135505
0.210962
0.174223
-0.551264
0.214383
0.134178
0.005513
0.004886
-0.071122
-0.017043
0.011401
-0.194906
-0.184317
-0.065858
0.057742
0.092125
-0.078926
0.065396
-0.049583
-0.157653
0.032333
-0.060494
0.024192
-0.086784
-0.054809
-0.079324
0.047727
-0.121183
-0.034602
-0.033590
-0.163121
-0.062128
0.020762
0.143015
-0.123331
0.128116
-0.096628
0.133638
0.099382
0.074206
-0.083347
0.140111
-0.056653
-0.152488
-0.026605
-0.078392
0.190909
-0.028707
-0.169587
-0.079313
-0.038038
-0.108545
-0.073457
-0.000862
-0.121210
-0.192384
0.005259
-0.153244
0.066547
-0.143374
0.042224
-0.094417
0.020048
-0.225983
-0.263202
0.076895
-0.281520
0.019814
-0.018160
-0.135555
-0.056794
0.074426
-0.028958
0.066560
0.073665
0.016221
0.168790
-0.006683
-0.109629
-0.028019
-0.118439
-0.330973
-0.048350
-0.212788
-0.050493
-0.084347
0.047065
-0.046099
0.042296
-0.232101
-0.143663
-0.047122
-0.054904
-0.020833
-0.055944
0.056555
-0.074938
0.181747
0.028772
-0.027843
-0.147488
0.030439
0.029634
-0.064606
-0.052877
0.003057
-0.266428
0.012975
0.037228
-0.123688
-0.093719
-0.104015
-0.168578
0.018958
0.010765
-0.004477
0.067077
-0.142582
-0.071218
0.037963
0.049046
-0.169158
-0.157695
0.058604
-0.097768
-0.202162
-0.076770
-0.240416
-0.223665
-0.086606
-0.080653
0.143669
0.105693
0.172653
0.152731
0.071937
-0.092794
-0.130709
-0.212340
-0.341049
0.166201
-0.161903
-0.029577
0.012847
-0.245475
-0.051978
-0.145616
0.336202
0.162873
-0.041328
0.238742
-0.098641
-0.211785
0.180398
0.150558
-0.293052
-0.187267
0.157529
-0.536214
-0.188457
-0.205814
-0.103750
0.025330
0.162419
-0.480433
-0.256067
-0.517725
-0.461518
0.148922
-0.171983
0.048214
0.110663
0.080204
-0.698618
0.215114
0.068984
-0.237331
0.048156
-0.398883
0.365261
0.031450
0.017228
-0.083959
0.180422
0.116405
-0.058424
0.290309
0.107400
0.185194
0.209666
0.151334
-0.081176
0.157633
0.068422
-0.379536
-0.113082
-0.378217
-0.068825
0.022514
0.146287
-0.388909
0.040427
-0.145091
0.338835
-0.003561
-0.102749
-0.045851
-0.012931
-0.088347
0.281485
-0.062376
-0.054525
-0.038474
0.117050
-0.046091
-0.144304
-0.059424
0.358148
0.248405
-0.060200
0.252347
-0.495250
-0.248150
-0.191349
-0.408405
0.116030
-0.614801
-0.293909
-0.035388
0.052925
0.344573
0.195308
0.099065
0.122646
-0.020648
0.229932
-0.027269
-0.011260
-0.225929
-0.007269
0.016341
0.075610
-0.144630
-0.014050
0.132650
-0.025870
0.110041
0.035059
0.283242
0.031922
-0.034678
0.134253
-0.124885
0.329268
0.020530
0.126855
-0.025839
0.201774
0.033023
0.208463
0.434014
-0.104800
0.012138
-0.043530
0.054204
-0.037896
-0.116575
-0.015540
0.111361
0.157517
0.018641
-0.059586
0.004587
0.167686
0.035529
0.217511
-0.013698
0.053245
-0.025024
-0.050350
0.138740
0.033969
-0.002693
0.178663
0.223202
0.234773
0.094316
0.023129
-0.006523
0.129614
0.025956
-0.071540
0.013691
-0.048451
-0.475193
0.289401
-0.039744
-0.182369
0.055186
0.044058
0.151671
0.182154
0.111143
0.046833
0.057642
-0.029453
0.049407
0.056974
0.124646
0.053518
-0.360326
-0.014764
0.304268
0.032784
0.118183
0.045675
0.023600
-0.219473
-0.239912
-0.052330
-0.255427
0.049848
-0.026753
0.150807
-0.067030
-0.205883
-0.027825
0.242182
0.082758
0.100923
-0.071012
-0.003047
0.317801
-0.259989
-0.190641
-0.066932
-0.004761
0.189892
0.179046
-0.051816
0.053428
-0.039586
0.038466
-0.058849
-0.028759
0.026531
-0.327970
-0.330784
0.022511
0.053608
-0.086279
0.395831
0.217481
0.256497
0.079719
0.015882
0.048868
-0.177312
-0.106576
-0.008110
0.228770
-0.185324
-0.128221
0.265531
-0.030072
-0.471470
0.109423
-0.144566
-0.043543
0.030509
-0.129386
0.021174
-0.065427
-0.034568
-0.048706
0.211973
0.184644
-0.038618
0.049012
0.340882
-0.073006
0.122670
-0.014170
0.078855
-0.029185
-0.025958
-0.309254
-0.206678
0.239062
-0.182787
-0.121533
0.001215
0.140160
0.174605
0.047053
-0.541972
-0.142555
-0.066571
0.226184
0.249597
-0.037062
0.193372
0.087688
0.198247
0.236124
-0.123321
-0.037438
0.068742
0.044232
0.149796
0.063782
-0.199196
-0.056150
0.144523
0.011305
0.195698
0.199656
-0.002637
0.142277
-0.060810
-0.206026
-0.055804
0.049881
-0.078852
-0.115443
0.055794
-0.123636
0.034448
0.128410
0.195085
0.034296
-0.297380
-0.355125
0.061141
-0.029331
-0.072356
0.221177
-0.242512
0.014866
-0.030250
0.179048
-0.033226
-0.000143
-0.266975
0.061998
0.174127
0.095031
0.037641
0.058994
-0.304383
0.075422
-0.012112
0.060915
0.096955
0.101171
0.089195
-0.028439
-0.118406
0.017689
-0.101056
0.061678
0.229361
-0.026736
0.040205
0.160930
0.019376
0.234311
0.401184
0.009672
0.003900
-0.099421
-0.292658
0.068376
-0.075614
-0.108973
-0.472046
-0.023030
0.118207
0.147881
-0.342692
-0.023825
0.131153
0.259225
0.142294
-0.016000
0.066700
-0.022077
0.062214
-0.072208
0.021581
0.025815
-0.109275
0.267995
-0.298657
0.048412
0.202511
0.173049
0.143801
-0.023556
-0.363624
-0.342640
0.311969
-0.037333
0.356047
-0.067515
-0.074796
-0.329080
-0.054510
-0.287681
0.008529
0.090677
-0.016366
0.144964
0.167420
0.032898
-0.582230
-0.298875
0.315918
-0.236585
0.065353
0.065368
-0.298882
0.105179
0.015944
-0.009414
-0.365154
-0.199369
-0.114604
0.141408
0.093479
-0.079351
-0.145479
-0.014471
0.027949
0.142373
-0.054537
-0.007238
0.316164
0.126273
0.287850
-0.030483
0.236181
0.080943
-0.224920
0.076340
0.070203
0.283490
0.052088
0.268413
0.102624
0.587832
0.142941
0.199854
0.033909
-0.416064
0.115739
-0.084386
0.204540
-0.033031
0.136225
-0.054900
0.140831
0.018093
-0.068149
-0.062416
-0.022854
-0.109598
-0.005348
0.039810
0.202042
0.052365
-0.053594
0.128944
-0.083989
0.231448
-0.399478
-0.044425
0.206358
-0.112780
-0.029462
0.168057
-0.271409
-0.036042
-0.158907
-0.228543
-0.082276
-0.002798
0.028731
-0.050175
-0.151749
-0.101586
0.008742
0.061619
0.059131
0.012355
0.007114
0.048652
0.193680
0.006671
-0.352766
-0.064525
-0.124348
-0.179081
-0.133123
0.004146
0.253948
-0.031357
0.211152
-0.043272
0.013825
0.086580
-0.034759
-0.005266
-0.022607
-0.016736
-0.094894
-0.139302
0.211846
-0.013776
-0.045672
-0.031613
0.111308
0.039413
-0.024929
-0.026161
0.210617
0.080753
0.088218
0.175708
0.023130
0.067703
0.079949
-0.296370
-0.021028
-0.176756
-0.082494
-0.034836
-0.016833
-0.005680
-0.080809
-0.028615
-0.012647
-0.082935
-0.049548
-0.075617
0.082450
-0.081717
0.025095
0.056834
-0.082698
0.007961
-0.044758
0.034549
0.000821
-0.173332
-0.002351
-0.049556
-0.187008
-0.132205
-0.116158
-0.093563
0.017811
0.142590
-0.033265
-0.036153
0.028976
-0.032671
0.005489
0.048606
-0.024342
-0.022323
-0.105089
0.087259
0.079825
0.152887
-0.010089
0.016128
-0.087680
-0.102574
-0.089355
0.112973
-0.081483
-0.015839
-0.116698
0.058463
-0.050051
-0.037797
-0.017469
-0.074950
0.139886
-0.127305
0.079414
-0.062643
-0.093937
-0.025180
0.084451
0.038973
-0.050272
-0.062982
0.064377
-0.025478
-0.022827
0.059567
-0.116200
0.018761
-0.209930
-0.172218
-0.137231
0.008697
-0.146997
-0.145953
0.036768
0.104619
-0.106394
-0.008716
-0.055744
-0.030373
-0.192781
0.040334
-0.157121
-0.017672
-0.080965
0.006820
0.021939
-0.198597
-0.147791
0.070722
-0.177758
0.096930
0.059968
0.101656
-0.270437
-0.034191
-0.316940
0.002354
-0.020066
0.045159
0.008180
-0.046494
0.240303
-0.458321
0.118113
0.020635
-0.322716
-0.021560
0.007653
0.111462
-0.141935
-0.160156
-0.053352
0.010724
0.018617
0.046217
0.075379
-0.037864
-0.038354
0.127448
0.085502
0.244767
0.059374
-0.266703
0.021460
-0.018851
-0.137470
0.209678
0.123917
0.090714
0.028471
0.064453
0.226346
0.037330
-0.212956
-0.054222
0.185009
0.325142
-0.112360
-0.000934
0.153702
0.134156
-0.024054
0.073010
-0.045992
0.034144
-0.168826
0.119816
-0.030546
-0.123612
0.111634
-0.113048
-0.022782
0.340853
-0.071516
0.020939
-0.043567
0.095416
-0.049728
0.077290
0.152846
0.150887
-0.039132
0.180211
-0.016775
-0.119461
-0.224856
0.091435
0.212751
-0.079086
0.098672
0.059749
0.087175
0.291535
-0.014495
0.003048
0.252762
0.175933
0.269733
0.046991
-0.141875
-0.351219
0.005246
-0.053943
0.107885
0.048592
0.142051
0.245420
0.073189
0.281409
0.000650
-0.032609
-0.084948
-0.110583
-0.695012
-0.082412
-0.257942
-0.046445
-0.123542
0.043021
0.013778
0.251922
-0.144755
-0.234946
0.182691
0.265337
-0.269701
0.039705
0.216644
0.023913
0.098688
-0.041914
-0.042290
0.079009
-0.056704
0.217142
0.032298
-0.176742
0.084875
0.124364
0.180463
0.368201
0.214865
0.164931
0.084421
0.100039
-0.249454
0.499031
0.113683
-0.281832
-0.120222
-0.036653
-0.185607
0.025755
-0.031461
-0.116086
-0.171315
0.222122
-0.139249
0.188845
-0.162456
0.090809
0.156074
0.229910
-0.267571
-0.030647
-0.047138
-0.089660
0.055811
0.198481
-0.166022
-0.186176
0.081436
0.020808
0.451117
0.076661
0.090121
0.109012
-0.070150
0.130896
-0.028375
0.297241
-0.139049
0.042854
-0.104355
0.007845
-0.017994
0.142624
-0.090698
-0.061147
0.067801
-0.248950
-0.013819
-0.174798
-0.058286
-0.291138
0.094264
0.122595
-0.365936
0.124457
0.082152
-0.008423
-0.078073
0.279164
-0.120681
0.521923
0.039393
0.013123
-0.069845
0.056860
0.195686
-0.078793
-0.223303
0.098727
0.062815
-0.078310
0.034015
-0.237187
-0.326384
0.072996
0.031882
-0.092290
-0.033321
-0.007756
-0.077449
0.016617
0.276377
0.258034
0.059978
0.219504
-0.023865
0.013697
-0.038377
0.330241
0.041036
-0.027078
-0.275931
0.090918
0.225524
-0.000239
0.095778
0.029949
0.005440
-0.009062
0.252686
0.487168
-0.075738
-0.008180
0.011192
-0.067621
-0.013979
0.126532
-0.061039
-0.088727
0.091596
0.123865
0.201488
0.022071
-0.033902
-0.162574
0.224185
-0.176936
0.008543
0.226441
0.037928
0.009232
-0.064894
-0.153045
-0.032469
-0.238593
-0.197757
0.002963
-0.079982
-0.001929
0.030357
-0.261765
0.079752
-0.088571
-0.114818
0.064066
0.002038
-0.132685
-0.059005
0.273429
-0.016273
-0.006327
-0.260409
0.217277
0.130309
0.187581
-0.014198
0.074555
0.033593
0.044219
0.096990
-0.059034
-0.015948
0.025591
0.233085
-0.023407
-0.115468
0.010701
0.078923
-0.104066
0.216590
0.007533
-0.148999
0.044025
-0.005791
0.138308
0.103736
-0.070094
0.089801
-0.362288
-0.177131
0.144423
0.106281
-0.044199
-0.189627
-0.093843
0.017833
-0.180578
0.067478
-0.191507
0.031622
-0.042675
0.047130
-0.036275
0.014201
-0.015936
0.118725
0.005479
0.084781
-0.241058
0.040396
0.221121
-0.293103
-0.003424
-0.306391
0.078919
0.211591
0.057759
-0.060144
0.019561
-0.119607
-0.005161
0.049904
-0.061883
-0.230127
-0.053929
-0.454485
-0.056517
-0.064961
0.005448
0.551241
0.117047
0.006861
0.016528
0.157838
0.010611
0.063819
-0.079424
0.219021
0.093011
0.077313
-0.232063
0.052135
0.251290
-0.120893
0.016372
-0.209364
0.079698
-0.049708
-0.022842
-0.268794
-0.059608
-0.145051
-0.108581
0.064135
-0.112544
-0.017150
-0.442575
0.078639
-0.088318
-0.065138
-0.076981
0.030418
-0.205666
0.053412
0.245272
0.010807
-0.000362
-0.011309
0.179470
-0.049820
0.219089
0.077831
-0.363143
0.098198
-0.028904
0.090674
0.212746
-0.162257
-0.151497
0.186185
-0.037853
0.078347
0.033179
-0.287117
-0.283445
0.263080
-0.091149
0.077710
0.003215
-0.552227
-0.086569
-0.186482
0.122287
-0.009428
-0.201053
0.123873
-0.262458
0.018571
-0.113316
-0.047810
0.140335
-0.083964
-0.089475
0.062078
-0.126142
0.139682
0.149596
-0.107472
-0.081821
0.228501
0.161908
0.007344
0.086838
-0.287911
0.049492
0.015553
0.181659
0.016443
-0.142008
0.120836
-0.292486
-0.173152
-0.054364
0.147113
-0.041739
-0.065850
0.012340
0.191768
-0.049437
0.080552
0.046868
0.043477
0.085457
0.208168
0.052226
0.217358
-0.016116
-0.048288
0.011125
-0.039498
-0.039824
-0.145821
0.062555
0.153635
0.285868
0.423949
0.106454
-0.073716
-0.004520
-0.131064
0.131859
-0.063737
-0.016221
-0.313401
-0.068812
-0.078998
0.001351
0.022754
-0.030118
0.122157
0.012288
0.172273
-0.003573
0.319534
-0.038114
-0.047690
-0.095021
0.046955
0.042714
-0.240981
-0.200924
0.061058
-0.298451
0.099383
0.010456
0.250608
0.138137
0.110408
0.129585
-0.133382
0.004243
0.254639
0.197951
-0.025667
-0.407745
-0.395529
0.081118
-0.018228
-0.016223
0.084493
-0.033454
-0.236598
0.080082
0.050434
0.041797
0.113075
0.377381
0.140170
0.050488
-0.152807
-0.010429
0.127678
-0.160208
0.109313
0.046731
-0.059145
-0.167738
0.111189
0.069281
-0.079466
-0.083755
-0.003120
0.031760
0.068792
0.205321
-0.091991
0.257438
0.161946
-0.431063
0.034665
0.085307
0.078840
0.040604
-0.061095
-0.045877
-0.040745
0.073877
0.000260
-0.125622
0.059465
-0.212073
-0.116285
0.024165
-0.233115
0.096291
-0.103733
-0.102605
0.048096
0.334647
-0.065191
0.098184
-0.057207
0.064754
-0.201228
0.030586
0.092156
0.117485
-0.106082
-0.433214
-0.057148
0.268866
-0.046840
-0.249047
-0.012011
0.118580
0.156917
0.055898
0.068843
0.035825
-0.327265
0.030039
0.232241
-0.179114
0.096836
-0.002961
-0.256440
0.062838
0.100291
0.231646
0.123076
-0.012628
-0.116611
0.029766
0.010081
0.033509
-0.057618
0.189824
-0.010961
0.083602
-0.167360
0.522952
0.274958
-0.054812
0.123207
-0.009261
0.072297
0.342148
0.013707
-0.083186
0.019091
0.063132
-0.024878
-0.192707
0.048854
0.049446
-0.000709
0.002974
0.103191
-0.036155
-0.083053
-0.097373
0.347322
-0.106535
0.044017
-0.001090
0.011939
-0.124582
0.210924
0.113488
0.039383
0.107501
-0.156504
0.020003
-0.068165
-0.232658
-0.027661
0.126313
-0.475463
0.002730
0.352115
-0.026611
-0.090407
0.048546
-0.140971
-0.075050
0.205924
-0.278911
-0.192702
0.057591
-0.016599
0.037239
-0.038902
-0.211053
-0.013376
0.082254
-0.097778
-0.093156
-0.217515
-0.059960
-0.093786
0.096651
-0.382883
0.022490
0.002112
0.154066
0.014746
0.262317
0.027408
0.061403
-0.216964
0.254369
-0.023782
0.140767
0.151922
0.021359
-0.008365
-0.076292
-0.241866
-0.105080
0.139308
-0.101826
0.087478
0.076000
-0.101681
-0.003895
-0.078054
0.000514
-0.047161
0.120750
0.006018
0.076219
-0.211401
-0.097911
0.073033
-0.094809
-0.046069
0.026543
0.022073
-0.206408
0.118583
0.041788
0.022442
-0.033730
0.067889
-0.050746
-0.164330
0.087258
0.052982
-0.363859
-0.073021
0.001951
0.263987
0.038296
-0.252380
-0.044923
0.050090
0.153572
0.035972
0.141243
-0.157886
-0.148801
0.191150
-0.036654
-0.018958
-0.067353
-0.079113
-0.099755
0.068878
0.035778
0.130642
0.169413
-0.032289
-0.358484
-0.076490
0.184320
0.051132
0.129461
0.352429
0.072778
-0.004757
0.070225
0.072258
-0.152010
-0.094944
-0.510688
-0.253927
0.022979
0.044059
0.121774
0.138800
-0.028594
-0.402691
0.017176
-0.180668
0.055011
-0.256327
0.279983
0.020368
0.240042
-0.062308
-0.145409
-0.352129
-0.058781
0.308090
0.154537
0.209757
-0.210250
-0.201466
0.001209
-0.276971
0.009621
0.025854
-0.054036
0.076232
0.133592
-0.268436
0.166909
0.041320
-0.095614
-0.120409
0.030613
-0.049490
0.030821
-0.057252
0.050944
0.053030
0.001662
-0.018997
0.027653
0.018999
-0.147427
-0.003765
-0.143882
-0.178516
-0.052065
0.009395
-0.186078
-0.045744
-0.018679
-0.150785
-0.144908
0.080878
0.021719
-0.414932
0.028669
0.054792
0.106063
-0.188809
-0.114997
-0.103371
-0.012585
-0.144326
-0.158001
0.104738
0.036916
0.026894
0.155827
0.066412
0.107241
0.105756
0.211451
0.212155
0.240780
0.079694
-0.071263
-0.397816
0.004241
0.001242
0.080361
0.247108
-0.104752
0.085810
0.090766
0.169342
-0.038753
0.084941
0.125237
-0.098439
0.167364
-0.112854
0.396120
-0.050226
0.127711
-0.103485
-0.085229
-0.012924
-0.244920
0.026123
-0.092349
0.019145
0.164771
0.184848
0.299475
0.272565
-0.010072
-0.060809
-0.076999
-0.009667
0.265902
0.067246
-0.031337
-0.052435
0.122051
-0.080233
-0.478468
0.176617
-0.102449
-0.407602
0.035757
0.060855
-0.047016
0.052956
0.146920
0.011987
0.193100
-0.122630
0.224892
0.049453
0.290142
-0.333295
0.087659
-0.661154
-0.403598
0.164672
0.102079
0.230050
-0.003641
-0.110009
-0.024388
0.075781
0.023312
0.011993
0.225937
-0.098345
-0.107268
0.046619
0.211352
0.190749
-0.073229
-0.202349
-0.057505
0.143822
-0.123824
0.082036
0.135261
0.041013
-0.226634
0.120881
0.207493
-0.086578
-0.029497
0.104293
-0.118075
-0.228117
0.052249
-0.057827
0.244240
0.117552
0.210282
-0.378268
-0.067601
0.124047
-0.064844
-0.103258
-0.001036
-0.065239
-0.072650
-0.247563
-0.350106
-0.054377
0.018270
0.108088
0.044847
-0.109253
0.077729
0.122937
0.246130
0.030209
-0.061174
-0.169968
-0.157137
-0.076690
-0.054354
0.073876
-0.185227
0.258567
-0.038935
0.022462
0.425474
0.316408
-0.201402
-0.006515
-0.094270
0.087034
-0.068987
-0.146960
-0.127737
0.254787
-0.023605
0.271371
0.348432
-0.110315
0.210269
0.085278
0.042892
-0.185836
-0.045034
-0.010078
0.055672
0.166511
0.227119
0.230325
-0.100578
-0.196721
0.141151
-0.081489
0.050268
0.006474
0.188232
0.257856
-0.020759
-0.108865
0.022132
0.026107
-0.149158
0.168639
0.077340
0.047197
0.179320
-0.064457
-0.308126
0.045384
-0.085043
-0.051874
-0.072921
-0.132141
-0.397227
-0.494186
0.219681
0.093901
-0.007922
-0.236733
0.011413
0.243263
-0.314729
-0.139519
0.120460
-0.559384
-0.003356
-0.171278
0.019193
0.026581
-0.069908
0.285854
-0.218103
-0.263927
-0.258340
-0.109224
0.173023
-0.242660
0.174231
-0.058278
0.160656
-0.051210
0.129703
0.069010
-0.002317
0.198477
-0.394532
-0.136364
0.058698
0.096525
-0.114363
0.055559
-0.353923
-0.049248
-0.042358
-0.019563
-0.269190
-0.098209
0.013756
0.187969
-0.079198
0.078025
0.043002
0.082898
0.064946
0.082879
0.122088
0.033578
0.004974
-0.106579
-0.031628
-0.275961
0.086772
-0.066615
0.019621
0.007940
-0.107743
-0.140218
0.164713
0.291750
-0.088921
0.126696
-0.343404
-0.278992
0.037484
0.161433
-0.023132
0.386319
-0.002596
0.086838
0.012454
0.086292
-0.000787
0.007879
-0.017559
-0.014095
0.023086
-0.059297
-0.273798
0.054333
0.172591
-0.241718
-0.053547
-0.037134
-0.071880
-0.007216
-0.087652
0.361676
0.088477
-0.050903
-0.065938
0.070270
0.019699
0.219156
-0.193611
0.038898
-0.134146
-0.106922
-0.043296
-0.093887
-0.220980
0.032676
-0.082551
-0.305647
0.055483
-0.266306
0.116312
-0.095859
-0.163453
0.155271
0.113598
-0.048758
0.231997
-0.173951
-0.129019
0.061626
0.005268
0.024836
0.029624
-0.048521
0.048147
0.140711
0.220257
0.247712
0.080587
0.097336
-0.030800
0.385830
-0.008358
-0.062925
-0.095991
0.230096
-0.082032
0.038897
0.029177
-0.267503
0.250239
0.153376
0.047235
0.130783
-0.088976
0.095406
0.045389
0.031586
-0.208074
0.124950
-0.217643
-0.258099
-0.205782
-0.007360
0.121986
-0.095429
0.205568
0.224651
0.081931
0.075670
0.050552
0.123648
0.269476
-0.127116
-0.061382
0.188168
0.077950
-0.016469
0.068039
-0.006072
-0.054488
-0.068685
-0.188258
0.053500
-0.026661
0.151438
0.034137
-0.046537
-0.232152
-0.029026
-0.032775
0.024938
-0.298631
0.073781
0.276991
-0.164728
0.227047
-0.377005
-0.051891
0.052438
-0.231324
0.335434
-0.095322
-0.219898
-0.082125
-0.040143
-0.019762
0.325684
-0.053569
0.007216
0.010883
0.511486
0.061110
-0.061334
0.330728
-0.049995
-0.095722
0.155613
-0.079699
-0.053161
0.079428
0.008146
0.021505
0.137555
0.263523
-0.036705
-0.141337
0.283702
-0.155743
-0.320203
-0.157890
0.147592
-0.079111
-0.030660
0.150957
0.022203
-0.305094
0.037711
-0.236643
0.151966
-0.027816
-0.066186
-0.031123
0.090796
0.027803
0.067977
-0.008884
0.188218
-0.176013
-0.120865
0.006886
0.093770
-0.068349
0.066189
0.083088
-0.094962
0.144596
-0.207845
-0.128976
-0.049820
0.034022
0.199380
0.071719
0.259630
0.032774
-0.063681
-0.007612
0.226639
-0.047080
0.011726
0.052040
0.057606
-0.111112
-0.247541
-0.110782
-0.014179
0.065515
0.111632
0.086463
-0.136661
-0.100872
0.218407
0.223332
-0.035924
0.201467
0.177411
0.211142
-0.101830
0.153133
0.143241
0.266414
-0.019628
0.352468
-0.028676
-0.012163
0.122536
-0.087838
0.148970
0.061564
0.332690
0.022633
0.076694
0.371365
-0.322281
0.173369
-0.306596
-0.074722
0.021183
-0.038086
0.002404
-0.066510
0.039982
0.141090
0.205964
-0.012782
-0.192702
0.160723
-0.197677
-0.011478
-0.125548
0.048301
0.261671
-0.122767
-0.094517
-0.013569
0.100085
0.012664
0.078219
0.031375
-0.038111
0.135574
-0.240625
-0.144697
-0.088470
0.146418
-0.117000
0.047563
-0.084476
-0.013673
-0.045143
-0.038838
0.121121
-0.147969
0.215667
-0.173286
-0.115883
-0.028762
0.110418
-0.047181
0.161756
-0.018782
0.037017
-0.084190
-0.373152
-0.030607
0.040792
-0.218384
-0.044565
-0.011326
0.109279
0.269591
0.046468
-0.279512
-0.126897
-0.172482
-0.124798
-0.177795
-0.001306
-0.043863
-0.201290
-0.148077
-0.145747
-0.124442
-0.309980
-0.089672
0.205314
-0.054893
-0.286908
0.062341
-0.176095
-0.064218
-0.084394
0.005448
0.199871
-0.028777
-0.105103
0.007645
-0.004528
0.022381
0.084159
-0.138608
-0.063398
0.148897
-0.104628
0.164838
-0.038381
0.072576
0.011133
-0.153237
0.040184
-0.161314
-0.116217
-0.168414
0.040630
-0.225846
0.135352
-0.006340
-0.213681
-0.011265
-0.100509
-0.286146
-0.217834
0.130806
0.188411
0.073035
0.002012
0.076635
-0.185679
0.041538
-0.370010
0.059761
0.021136
0.089187
-0.121897
0.026172
-0.075795
-0.069491
0.010401
-0.138729
-0.072521
0.074418
0.142749
-0.061271
0.009025
0.169094
-0.161304
-0.243453
0.059326
-0.072669
-0.035540
-0.131205
0.200963
-0.123201
-0.046616
0.055474
-0.030909
-0.051884
-0.094079
-0.128017
-0.021898
0.200724
-0.224210
-0.118258
0.127738
-0.035287
-0.211263
0.019521
-0.213346
-0.141568
0.027519
-0.037446
0.026074
0.023992
0.019573
-0.101164
-0.061700
-0.053792
-0.127333
-0.192805
-0.080663
-0.033827
-0.287797
0.013821
-0.325675
-0.339741
0.058353
0.306989
-0.002893
-0.096847
-0.161673
0.012589
-0.044423
-0.004064
0.171678
-0.144886
0.475476
0.270778
-0.475970
-0.273170
-0.075227
0.113230
0.164142
0.048217
0.088549
-0.170484
-0.151596
0.013886
0.314596
0.266208
0.171060
0.119115
-0.003208
0.049900
-0.101502
-0.070254
0.076232
-0.390505
-0.273085
-0.334629
-0.005915
0.091781
-0.274513
-0.058072
0.509761
0.166784
0.013222
-0.166922
-0.145837
-0.090971
0.071978
-0.220826
0.140424
0.019697
0.056627
0.008148
-0.224023
-0.143350
0.015653
0.352313
0.111602
0.105953
0.119268
0.170376
0.092326
-0.063837
0.165903
0.011601
-0.136921
0.035096
0.172205
-0.042917
-0.094339
-0.085886
0.432241
-0.112965
0.129524
0.010827
-0.256125
-0.255075
0.030217
-0.229374
-0.206850
-0.327324
0.199214
-0.246797
0.004236
0.204586
0.216101
-0.024828
0.228008
-0.026111
0.190715
0.184885
-0.317144
0.004450
0.015339
0.003306
0.061451
-0.046995
0.029632
-0.057065
-0.068249
-0.039737
0.142463
0.132828
0.279559
-0.051440
-0.023593
0.119182
-0.002794
-0.004749
-0.083714
-0.385008
0.052971
-0.120222
0.115330
0.140729
0.065781
-0.075494
0.031542
0.125435
0.085220
-0.074656
-0.442184
0.050224
-0.033121
0.465776
0.234564
0.117957
0.141089
0.297323
-0.003045
0.104042
-0.036955
0.037175
-0.092925
-0.188232
-0.042454
0.193491
-0.056030
-0.200172
0.196410
-0.131189
-0.090233
0.132294
-0.318440
0.200122
0.082477
0.135920
-0.330507
-0.134354
-0.069861
-0.071544
0.125384
-0.002674
-0.169859
0.227597
0.082341
0.125526
-0.199790
0.004120
-0.094974
0.034504
-0.107013
-0.090286
-0.090811
-0.218913
-0.128209
0.246605
0.007232
-0.142038
0.074568
0.218631
0.072937
0.192592
-0.111960
0.216282
0.005219
-0.314169
-0.238754
-0.370741
-0.055613
-0.183947
-0.158189
-0.053942
-0.141921
0.102445
0.202802
-0.033798
0.174644
0.072375
-0.090445
0.067405
0.129452
-0.074176
0.299627
-0.017652
0.098957
0.321228
-0.036037
0.107915
0.310218
0.303740
-0.115676
0.244932
-0.200732
0.087178
0.011559
0.029814
-0.152678
-0.557470
-0.392330
-0.090514
0.293083
-0.088564
-0.389273
0.043216
-0.220058
0.244655
0.061923
-0.024987
0.149255
0.153200
0.107284
-0.056163
-0.038828
0.078307
-0.359769
-0.127928
0.046930
-0.044595
-0.114211
0.191098
-0.250017
0.044757
-0.040639
0.024056
-0.145691
-0.212865
-0.067444
-0.281454
-0.201030
0.042508
0.072840
-0.360523
0.015878
0.077436
0.019686
-0.050032
0.141189
0.071806
0.005735
0.142305
0.022411
-0.305407
-0.167727
-0.034883
0.005353
-0.036570
-0.100564
0.003862
0.005291
-0.011284
0.192244
-0.046503
-0.216311
-0.367010
0.121969
0.057731
-0.050977
-0.049652
-0.255072
-0.094684
-0.049592
0.468060
-0.029232
-0.021657
0.035882
-0.036499
0.045438
0.020485
-0.218428
0.153944
0.155369
-0.031725
0.026537
0.013577
-0.019927
0.124395
-0.084292
0.212434
-0.046574
-0.025120
-0.082519
-0.232783
0.048740
-0.394130
0.262289
0.181681
0.330894
0.081536
0.171908
-0.307748
-0.050623
-0.024072
0.304217
-0.003209
-0.003909
-0.009740
0.257986
0.033234
0.052703
0.055849
0.136604
0.236178
-0.035292
-0.102836
0.084908
-0.149992
-0.059792
0.161750
-0.179182
-0.043703
-0.022313
0.080641
0.243399
0.128344
0.051035
0.083805
0.291404
-0.412406
-0.077786
0.013957
0.018906
-0.067714
0.021906
0.000306
0.165131
0.170930
-0.242109
-0.074095
0.032105
-0.270288
-0.002594
0.113737
0.523134
-0.053992
0.200486
0.046834
0.059747
0.000339
-0.168226
0.053281
0.129588
-0.164771
0.170519
0.217371
-0.125835
0.272940
0.238664
0.021175
-0.003336
-0.013697
0.132559
0.067192
0.024483
-0.268620
-0.350787
0.231807
-0.123841
-0.055928
0.026022
0.228214
-0.047347
-0.015434
-0.158382
0.041019
0.038895
0.226237
0.206024
0.006542
0.207118
0.005742
0.120803
0.202438
0.200899
0.065980
-0.448901
-0.033083
0.236839
0.025856
0.124642
-0.029695
0.094548
0.056661
0.065541
0.117742
0.054068
0.165356
0.003481
-0.184291
0.010234
0.143028
0.026769
0.119373
0.015278
-0.238267
-0.041227
0.004450
0.207562
-0.097678
-0.228574
-0.303938
-0.059466
-0.028524
-0.081491
0.356653
-0.167007
-0.084499
0.086593
0.267422
-0.122152
0.302329
-0.120504
-0.019088
0.167881
-0.065383
0.069631
0.055778
-0.183859
0.115248
0.058375
0.162034
-0.093435
-0.158399
-0.131201
0.035947
-0.027497
-0.243296
-0.058566
-0.053030
0.077411
-0.023482
0.133186
0.045963
0.100487
0.364619
0.123061
-0.044458
-0.029710
-0.272526
-0.076856
0.257326
-0.176413
0.015204
-0.178235
0.061178
-0.051482
0.076118
-0.207666
-0.026855
-0.096033
0.216206
0.042722
0.037717
0.021821
0.088060
0.203932
0.023315
0.022416
-0.088509
-0.116203
0.228943
-0.134023
-0.029816
-0.059399
0.004926
-0.229968
-0.298174
-0.034979
-0.003612
-0.079765
0.028873
0.241351
-0.312734
-0.090544
0.056867
0.060349
0.099115
0.193693
0.094980
0.067305
0.255895
-0.088377
-0.280278
-0.013754
-0.161731
0.204254
-0.261852
-0.112248
0.105752
-0.229009
0.103392
0.311033
-0.147689
-0.303575
-0.523845
-0.088864
0.266033
-0.124877
-0.008191
-0.291295
0.030421
-0.062381
0.267375
-0.130350
0.241218
-0.091499
0.039526
0.431955
-0.101336
-0.286187
-0.023445
-0.095481
-0.081389
0.020377
-0.121356
0.017247
0.235687
0.133865
0.287561
-0.008486
-0.001666
-0.001948
-0.226273
0.084234
-0.231496
0.077228
-0.009539
0.205610
0.120078
0.196208
-0.476768
0.115740
-0.058923
0.197629
0.000359
0.002420
0.041988
0.119020
0.059490
-0.029422
0.113485
-0.045598
0.177731
-0.017314
0.001582
-0.095038
-0.019559
-0.046597
0.036742
-0.098038
0.085142
-0.001556
0.032278
0.228847
-0.032749
-0.217202
-0.076633
0.208460
-0.609636
-0.166230
0.234722
0.268485
0.012472
0.000675
0.027566
0.186866
0.036561
-0.252754
0.089343
-0.186016
-0.381930
0.032844
-0.066089
0.346004
0.054888
0.170341
0.016573
-0.068593
-0.023562
-0.005371
0.142160
-0.134847
-0.099107
0.004832
0.047271
-0.318540
0.065160
0.038505
0.373513
0.167590
-0.028430
-0.134717
-0.158148
0.022018
0.222929
0.109665
0.129796
0.045773
0.274994
0.027020
0.087309
-0.011266
0.020796
0.105870
0.004690
-0.118025
-0.254679
0.013846
0.101280
-0.097105
0.061605
-0.134760
-0.073966
0.095637
-0.330050
0.032578
0.164240
0.004187
0.085415
0.001732
-0.052728
-0.164523
-0.079003
0.141906
0.181761
-0.076154
-0.100693
0.388231
0.093297
-0.357134
0.073805
0.179523
0.233840
0.011459
0.171891
-0.022845
0.252260
0.168914
0.393171
-0.064691
-0.135012
-0.041901
-0.054016
0.153289
-0.263825
-0.012717
-0.098189
-0.047096
-0.287428
-0.031566
-0.087834
0.188359
0.063897
0.085907
-0.037958
0.005300
-0.050863
-0.072189
0.230898
-0.043410
-0.091046
0.135090
0.074049
0.097539
0.120797
-0.244298
0.226771
0.045964
0.111517
-0.112620
-0.123584
0.076415
-0.195026
0.291234
-0.289416
0.222940
-0.076461
0.072117
-0.028001
0.191022
0.348126
0.227622
0.072082
0.129726
0.017939
0.070400
-0.133962
0.172787
-0.037876
0.204523
-0.182621
0.190806
0.054826
0.062986
-0.035674
0.130873
-0.151646
-0.070592
-0.072883
0.070759
-0.131525
-0.086342
0.036812
-0.095501
0.080881
-0.174654
0.275505
0.129698
0.004906
-0.141800
-0.064047
0.129550
0.262825
0.014264
-0.283199
0.203629
0.053560
-0.259144
-0.001806
0.072361
-0.191355
-0.315492
0.210681
0.238278
0.208264
-0.270337
0.284091
0.204601
-0.184780
-0.259502
0.019194
-0.096229
-0.325542
0.029969
-0.000510
0.160195
-0.041292
0.057030
-0.002853
0.217243
-0.042639
-0.239615
0.033941
-0.154923
-0.208565
-0.013299
0.145654
-0.049291
0.202715
-0.162321
-0.011107
0.130362
0.230363
0.041005
0.264840
-0.024429
-0.174237
-0.211455
0.425497
0.143256
-0.183656
0.087083
-0.028501
-0.223644
-0.049532
-0.099863
0.276497
-0.087768
0.053934
-0.362892
0.257410
0.155806
-0.040244
-0.105133
0.000129
-0.178449
-0.040946
-0.110753
0.021585
0.052602
-0.483021
0.225513
0.129837
-0.232281
-0.058304
0.173207
0.133123
0.048144
-0.099458
0.054005
-0.107876
-0.067068
0.018847
0.033141
-0.245893
0.362777
-0.030724
0.033236
0.417241
-0.011051
-0.189409
-0.197313
0.052725
0.288973
-0.053547
-0.004512
-0.237764
0.137394
-0.030900
0.115898
0.241650
-0.200596
-0.005193
-0.140319
-0.013380
-0.087707
-0.171801
-0.058602
0.098879
0.155963
0.101416
0.106458
-0.139054
0.090146
0.093105
0.125199
-0.324952
-0.212501
-0.010965
0.076710
-0.054491
-0.211867
-0.371109
0.052973
0.265419
0.020602
0.072399
0.066802
0.255750
-0.007898
-0.192015
0.140959
0.045324
0.042300
0.162759
-0.236431
-0.446670
-0.345303
0.171314
0.211511
0.000558
0.203064
0.189072
-0.118665
0.018881
0.094302
-0.076096
-0.050984
0.067157
-0.103280
0.005518
0.100447
0.017741
0.194314
-0.089217
0.015961
-0.228174
-0.052534
0.014028
-0.284037
0.019920
-0.034402
0.032056
-0.065040
0.054425
0.025690
0.048011
0.066112
-0.430669
0.071322
0.147246
0.112829
0.024481
-0.124296
0.033073
0.062649
-0.176403
0.215007
-0.245317
0.204728
0.023019
0.047765
-0.080696
0.218365
0.053532
0.218418
-0.045345
0.250390
0.031346
0.065442
-0.020226
0.032172
0.055890
-0.317761
-0.046815
0.117786
0.040588
-0.073016
0.194333
-0.040558
0.038343
0.142656
-0.113909
0.017934
0.023740
-0.248646
0.004495
0.113095
-0.379433
0.170002
0.022556
0.117128
-0.048585
-0.001069
-0.007151
0.038970
0.102941
0.034932
0.043793
0.070757
-0.365958
0.252173
0.083725
-0.081443
-0.061086
-0.093081
0.161189
0.014174
0.003417
-0.116999
-0.304402
-0.033122
-0.043226
-0.029170
0.050785
0.139468
0.000623
0.290811
-0.149039
-0.057128
-0.000340
-0.214264
-0.094955
0.032127
0.164490
-0.219321
0.153942
-0.179191
0.069138
0.068367
0.027622
-0.024124
-0.117741
0.007187
0.259380
0.023159
0.339804
0.212495
-0.052982
0.024843
0.048298
0.105879
0.113471
0.052642
0.141210
0.142050
0.133298
0.321155
-0.081987
-0.359871
-0.036575
0.033996
0.143420
-0.013167
0.116417
0.156496
-0.054971
0.092992
-0.206783
0.020572
-0.001633
-0.022614
-0.003426
0.034732
-0.264713
0.010135
-0.112260
-0.055528
0.002388
0.108870
-0.029794
0.115480
-0.077187
-0.187701
0.043017
0.062211
0.113594
-0.025418
-0.040175
-0.012107
-0.023688
-0.350207
0.092899
0.108995
0.027536
0.004108
-0.011326
0.080455
-0.018988
0.068252
-0.023446
0.042435
-0.035813
0.246956
-0.057252
-0.070535
-0.251209
0.054020
-0.036060
-0.065132
0.008671
-0.051668
0.058594
0.123195
0.149073
0.138576
0.032971
-0.199275
-0.205063
-0.503549
0.007631
-0.250162
0.051471
-0.255437
0.078158
0.004641
0.062470
0.015880
0.075717
-0.046256
0.354112
0.151517
-0.104401
0.135331
0.066789
0.098743
0.035748
-0.047830
0.019173
-0.096802
-0.137722
-0.209952
0.051883
0.023029
0.184484
-0.127954
0.162855
0.047758
-0.269561
-0.034296
-0.039816
0.447869
0.217032
0.109453
-0.171828
0.328541
0.051863
0.097562
-0.104404
0.002389
0.189653
-0.099805
0.298383
0.234415
-0.010776
0.067690
0.343613
0.075451
-0.173785
-0.155670
0.028464
0.091470
-0.318259
-0.034346
-0.046456
0.067463
-0.073978
0.011482
0.085782
0.186716
0.072191
-0.126197
0.113189
-0.306877
0.120762
0.126274
0.081818
-0.001281
0.091666
-0.018274
-0.059994
0.080899
0.220677
0.069293
0.177857
-0.075223
0.000145
-0.112058
0.424931
0.093278
-0.051637
0.061555
-0.020319
0.081232
-0.009500
-0.113594
0.155807
-0.066733
0.147573
-0.103632
0.131813
0.078071
-0.019360
-0.175325
-0.088959
0.009352
0.006723
0.200186
0.089049
0.045901
-0.147294
0.252510
-0.124173
0.029435
-0.058502
0.070923
0.148027
0.031103
-0.024904
0.019459
-0.035721
0.008469
-0.012744
0.121518
-0.060076
0.247858
-0.046725
0.080330
0.170743
-0.282800
-0.214922
-0.126546
0.028930
0.103781
-0.045371
0.043558
0.082494
-0.078325
-0.106451
0.032590
0.159921
-0.122403
-0.292045
0.272001
-0.048290
0.246676
0.020534
-0.041348
-0.011000
0.142295
0.023995
-0.074163
-0.233185
-0.085282
-0.007142
-0.134742
0.044287
0.181404
0.080257
-0.235583
0.045769
-0.226748
-0.100129
0.132316
-0.208118
-0.063795
-0.213866
-0.206616
0.186600
-0.060396
-0.135550
-0.277454
-0.035814
-0.025612
0.218028
-0.156709
0.103071
-0.433139
-0.024171
-0.272923
-0.397379
-0.241614
-0.151298
0.207817
0.077554
0.031655
-0.095011
-0.191656
0.085917
-0.370016
-0.035861
-0.073477
0.036135
0.058753
-0.305629
-0.154105
0.137764
0.070112
0.062833
-0.159432
-0.013030
-0.035918
-0.034992
0.022889
-0.052614
-0.066175
-0.220679
-0.044457
0.005051
-0.141305
-0.309512
0.059769
-0.108170
-0.347677
-0.172975
0.041621
-0.103480
0.039061
0.083108
-0.230516
-0.030964
-0.013349
0.080634
-0.208109
0.030998
-0.020627
0.032933
-0.120188
0.015612
-0.039221
-0.275529
0.144175
0.013890
-0.128673
-0.023647
0.074144
0.115446
-0.026907
-0.136530
-0.029660
-0.004564
0.027651
-0.115726
0.035871
-0.071958
-0.078034
-0.043913
-0.265313
0.160949
0.091546
0.003958
-0.110643
-0.020548
0.137948
-0.040932
0.090124
-0.143766
0.042465
-0.018492
0.127355
0.221783
0.020605
0.105246
-0.106849
0.006012
-0.010743
-0.169102
-0.040563
0.062195
0.321475
0.044834
-0.005548
-0.068959
-0.232711
0.183314
-0.165730
0.118808
0.191180
0.024089
0.032905
0.030146
-0.376736
-0.008739
0.102722
0.217578
0.094088
0.068907
-0.288061
0.062737
0.019666
0.006363
-0.141016
0.104834
0.284762
0.163064
-0.759447
0.062129
0.156801
-0.141404
0.014421
0.003953
-0.132576
0.223286
0.119651
0.067663
0.227647
0.035290
-0.018839
-0.126762
-0.146915
-0.081573
-0.074373
-0.084956
0.188639
-0.099555
-0.034496
0.078714
-0.246922
0.184260
-0.312433
-0.122216
0.334027
0.139205
-0.057394
0.067236
-0.074720
-0.148042
-0.036895
-0.057803
-0.038880
-0.058741
-0.015456
-0.096091
-0.181889
-0.245579
0.063666
-0.000014
-0.115585
-0.342011
-0.052391
0.020209
0.096735
0.035106
0.069940
-0.001288
-0.118686
-0.011583
-0.059892
0.214487
0.092647
-0.295683
0.160760
-0.208188
0.154751
-0.008422
-0.313773
-0.081260
-0.015643
-0.055567
0.154034
-0.149965
-0.045687
0.094886
0.243311
-0.005053
0.229764
0.048221
0.046551
0.001517
0.133781
0.050696
-0.073580
-0.085751
-0.046302
0.027414
0.156238
-0.327958
0.159653
0.016031
0.299044
0.148019
-0.013896
0.208899
-0.049809
-0.004425
0.129734
-0.124496
-0.053783
-0.004352
-0.059387
-0.159480
-0.024753
0.014793
0.164551
0.082823
0.029465
-0.049793
-0.139847
-0.058188
0.078829
0.018312
-0.185501
0.113984
0.078318
-0.029332
0.158999
0.184737
-0.435185
0.022269
0.109892
0.100005
0.186329
0.228188
-0.223045
0.206974
-0.201641
0.175418
0.180564
-0.168231
0.270397
0.089383
-0.302362
0.161693
0.086273
0.133409
0.003148
-0.074811
0.120559
-0.078677
-0.151739
0.004509
0.139627
0.196504
0.019026
-0.146477
0.180377
0.135949
-0.366017
0.064849
-0.114855
-0.037943
0.150703
0.242502
-0.065306
-0.010572
0.055961
-0.068035
0.103695
0.029950
-0.352683
-0.254225
0.078560
0.107588
-0.067282
0.253538
0.003323
0.185741
-0.219840
0.034991
-0.069921
0.280205
-0.196209
-0.043966
0.092110
0.051797
0.054087
-0.050285
-0.124279
0.209454
0.066503
-0.316813
0.182160
-0.135004
-0.133781
-0.063258
0.018987
-0.393694
-0.037702
-0.007970
0.340355
-0.115322
0.048561
0.312411
0.157284
0.267476
0.521018
0.029892
-0.291402
0.125558
-0.478120
0.045534
-0.249910
-0.112218
-0.245379
-0.002726
-0.038374
-0.080615
-0.233161
-0.077014
0.304042
0.109463
0.049828
-0.033142
0.221890
0.023383
0.056063
0.106500
0.074720
0.023810
-0.058300
0.069827
-0.006773
-0.070565
0.028066
-0.012812
-0.046129
0.052358
-0.014285
0.048172
-0.158803
-0.030279
-0.040712
-0.004454
0.060496
-0.129803
0.019581
-0.086546
-0.089683
-0.117559
-0.091163
-0.075585
-0.033151
-0.102255
-0.033643
-0.056456
-0.126492
-0.092691
-0.013587
0.011411
-0.111659
0.026628
-0.074868
-0.095700
-0.141249
-0.089075
0.020092
0.016314
0.019102
-0.014611
-0.058273
0.002754
-0.138687
-0.020907
-0.005661
-0.022323
-0.057864
0.017966
0.020183
0.029572
0.007688
0.066520
-0.016623
-0.043586
-0.080128
-0.019711
0.041228
-0.140997
-0.111979
-0.092683
-0.020025
-0.129808
0.084229
0.019393
-0.013819
-0.112601
-0.003276
-0.054701
-0.008416
-0.088996
0.002433
-0.007339
-0.122766
0.044533
-0.009466
0.054366
-0.001351
0.018855
-0.094539
-0.081119
0.044501
-0.019252
-0.021140
-0.076607
0.013441
-0.017254
-0.048125
-0.060995
0.084743
-0.062289
-0.009733
-0.072728
0.046118
-0.033631
-0.043688
-0.106075
0.040716
-0.043034
-0.058058
-0.109524
-0.136560
-0.026099
-0.115287
-0.040008
-0.081441
0.010234
-0.110191
0.007472
-0.091786
0.003160
-0.101040
0.075016
-0.021295
-0.115396
0.008138
-0.015480
-0.096527
-0.244115
0.001589
-0.062207
0.042524
-0.126191
0.077179
0.052299
0.036432
-0.121193
-0.120457
0.208978
0.129969
0.132564
-0.032106
0.004820
-0.087823
0.248307
0.050054
-0.038327
0.246214
0.182221
-0.212227
-0.312019
-0.052993
-0.072958
-0.098211
0.174651
-0.152053
-0.254691
-0.012873
0.153587
-0.061513
-0.019475
0.067342
0.681596
-0.234203
-0.032612
0.007487
0.070923
-0.048819
-0.191094
-0.043243
-0.070172
0.098682
0.081600
0.122296
-0.063382
-0.109951
0.177181
-0.210805
-0.123749
-0.034100
-0.331418
-0.167300
0.019503
-0.000287
-0.237979
0.032545
0.047831
0.091287
-0.048993
0.031202
0.020128
-0.339545
-0.179884
-0.076459
-0.052244
-0.026982
0.026544
-0.018875
-0.006556
0.040261
-0.051819
-0.195639
-0.082364
0.075642
0.029114
-0.051528
0.033809
0.013150
0.079592
-0.535373
-0.044698
0.060832
-0.053744
0.124322
0.005562
0.203120
0.030859
-0.111646
0.020100
0.084245
0.066596
0.238716
-0.176960
-0.064726
0.200960
-0.225770
-0.190179
0.677444
-0.005432
-0.145836
0.179449
-0.091060
-0.162444
0.106031
0.014448
0.058218
0.043546
-0.046921
-0.112362
0.103979
0.106815
-0.010005
0.072112
0.159906
-0.151180
-0.002882
-0.067168
-0.277344
0.077231
0.062822
-0.098246
-0.049768
0.059083
0.143524
-0.078334
0.068161
0.120766
-0.033698
-0.192623
0.042772
0.228989
0.068875
-0.012403
0.112547
-0.213408
-0.043864
-0.220591
-0.124481
0.278984
0.104515
0.130980
-0.045888
0.044660
0.234797
-0.295161
0.076334
-0.222632
0.007743
-0.198075
-0.217928
0.238274
0.278202
0.076698
0.171236
-0.036179
0.029097
-0.517537
0.085936
0.201887
-0.145265
-0.051477
-0.361077
-0.047275
-0.059574
-0.104652
0.224673
0.104555
-0.139246
0.035209
0.184870
-0.066634
-0.112686
0.047152
-0.174587
-0.088804
0.054276
-0.038550
0.046082
0.285741
0.260590
-0.121642
-0.336249
0.141854
0.054171
-0.027861
0.105112
-0.173377
-0.282332
-0.330314
0.119458
-0.273263
0.146125
-0.085448
0.026661
-0.035008
0.198740
-0.059756
0.150284
-0.066373
-0.061751
-0.035749
0.026725
0.265802
-0.124313
0.033175
-0.109014
-0.046202
0.001565
0.093287
0.053383
0.058366
-0.013636
-0.039859
0.061755
-0.243720
0.105192
-0.255790
-0.315970
-0.062941
0.155501
-0.114578
0.133613
0.194814
0.264402
-0.092570
-0.046617
-0.082223
-0.183272
0.075605
-0.000486
0.189308
-0.157584
-0.332682
0.402436
0.003236
-0.066079
0.039864
-0.044643
0.214290
-0.000652
0.103469
-0.155320
0.063587
0.229386
-0.134522
0.199188
-0.015398
0.058954
-0.289722
-0.111546
0.016633
0.074031
0.041780
0.123752
-0.173315
0.080097
-0.176900
-0.230427
0.295511
0.065210
-0.105744
0.096825
-0.088751
0.253212
-0.047282
0.045776
-0.154737
-0.183823
-0.149377
-0.115545
0.304415
0.294604
-0.114248
0.048556
0.326167
-0.021994
-0.158176
0.074851
0.070009
-0.071375
-0.025078
-0.332709
0.074804
0.152186
-0.145805
0.249362
0.231778
0.034662
0.091567
0.009696
0.001109
0.115455
0.023709
-0.168146
-0.241974
0.002672
-0.113236
0.072508
0.109687
0.160671
-0.375679
-0.254835
0.087016
-0.034731
0.018146
0.120038
-0.076986
-0.450013
-0.326735
0.161726
-0.089718
-0.032438
0.027972
-0.069338
-0.067163
0.233704
-0.000740
0.083328
0.011931
0.009770
-0.044882
0.025818
0.360711
-0.060362
0.207742
-0.265263
0.035457
0.078444
0.220610
-0.011662
0.193623
0.116447
0.019189
0.141267
-0.080143
-0.069168
-0.038817
-0.373405
0.070693
0.210033
-0.079776
0.257406
0.017987
0.282631
0.076532
-0.145051
0.030598
-0.450517
0.054382
0.035797
0.142729
-0.055314
-0.468409
0.126390
0.135810
-0.247745
-0.012843
-0.143729
