-0.276615
-0.167826
-0.014791
-0.109376
-0.260204
0.227858
-0.133021
-0.029339
-0.294626
0.207643
-0.184363
-0.078257
-0.429933
-0.613426
-0.027446
-0.608689
-0.175273
-0.044090
0.060645
0.152552
0.046610
-0.530794
0.067295
0.109703
0.087875
0.140071
0.304685
-0.377954
-0.043254
0.229902
0.126237
-0.086415
-0.386810
-0.174766
-0.070798
-0.002633
0.072202
-0.055478
-0.216741
-0.329713
-0.150879
0.295945
0.269276
0.146989
-0.099818
0.031050
-0.186838
-0.007977
-0.251288
0.085161
-0.031382
0.232601
-0.115831
-0.322066
-0.006666
0.107787
-0.318507
-0.022813
0.098918
-0.017132
0.052489
-0.075517
-0.222808
-0.309341
-0.229987
-0.010838
-0.163066
-0.613864
0.341747
-0.214645
-0.185300
-0.149641
-0.434027
-0.187428
0.132092
0.172863
-0.052009
-0.072566
-0.492676
0.086548
-0.081789
0.169398
-0.087636
-0.006445
0.137320
-0.120283
-0.134372
-0.047535
0.139836
-0.083056
0.210014
-0.007932
-0.487906
-0.190609
0.072518
0.180543
-0.196673
0.188151
0.026410
0.135167
-0.126894
0.060374
0.116192
0.041466
-0.032760
-0.073986
0.050721
-0.020824
-0.494603
0.121778
-0.405081
0.016238
-0.813904
-0.228871
-0.571155
-0.369513
0.167686
0.275738
0.099159
-0.253188
0.069571
-0.017489
0.107808
0.023715
-0.049976
0.168999
-0.133129
-0.339904
0.079784
0.000245
-0.153448
0.072803
0.067221
-0.170464
-0.181547
-0.192394
0.139437
0.375988
-0.158211
0.083990
0.120351
-0.409047
0.014599
-0.380819
-0.049277
-0.206289
0.127910
-0.175963
-0.018048
-0.127593
-0.018652
0.101526
0.042190
-0.099027
0.064322
-0.261721
0.063182
0.185394
-0.295406
-0.045105
0.142228
-0.063612
0.073279
0.281948
0.065856
0.197011
-0.116844
-0.428228
-0.073914
-0.227204
-0.004403
-0.090670
0.397396
0.162983
-0.346437
-0.061036
-0.003028
0.125859
-0.038994
-0.121284
-0.269902
-0.440003
0.069059
0.188090
0.288853
-0.172617
-0.483428
-0.119014
-0.058632
0.103543
-0.043486
0.036085
-0.439995
0.058818
-0.374816
-0.126276
0.128067
0.252605
-0.045857
-0.093852
-0.182258
-0.210195
0.076092
-0.282352
-0.412150
-0.120224
-0.154536
0.028828
0.311572
0.139444
-0.561473
-0.315810
0.076218
-0.089007
-0.068384
-0.435123
0.143925
-0.153543
-0.000392
-0.019430
0.207962
-0.061770
-0.160828
0.145171
0.175460
0.112049
0.037623
0.128508
-0.133036
0.076151
0.150464
-0.177356
0.182087
0.117673
-0.086679
-0.260573
-0.042312
-0.014451
0.167951
-0.406525
-0.393805
-0.272911
0.095935
0.118146
-0.292778
-0.169412
-0.245839
0.135261
-0.070498
-0.318845
-0.058300
0.135466
-0.163258
-0.132057
0.125066
0.054291
-0.085650
-0.292051
-0.552811
-0.036017
-0.018545
-0.314922
0.146868
-0.636783
-0.211879
0.312220
0.048058
0.130421
-0.211042
-0.136669
-0.498833
-0.546023
0.057485
-0.237730
0.020943
0.008956
-0.042811
-0.236393
0.117437
-0.042777
-0.157212
0.199836
-0.143120
0.175618
-0.263289
-0.327810
0.122649
-0.205061
0.102111
0.022978
0.181257
0.228000
-0.080188
-0.347364
0.202357
-0.284920
-0.106372
-0.012174
-0.350530
0.153836
-0.117114
-0.197372
-0.075405
0.125787
0.167669
0.135156
-0.069288
0.034335
-0.288836
-0.010312
0.140616
0.224805
0.076899
0.112510
-0.141985
-0.114264
-0.377674
-0.148633
-0.128768
-0.330586
-0.303920
0.099566
0.090159
0.269304
0.143721
-0.451387
-0.034645
0.068836
0.085053
-0.261578
-0.610871
-0.304475
-0.063133
-0.248863
0.254562
0.190422
-0.021770
-0.327929
0.049933
-0.040565
-0.291352
0.141955
0.113629
-0.133617
0.252138
0.001078
0.010061
0.063032
0.028034
0.180651
0.028513
-0.402336
0.073330
-0.087851
-0.322107
-0.053878
-0.325098
-0.083130
-0.040154
-0.114774
0.080678
-0.274684
0.017059
0.101924
0.161960
0.052423
0.158989
-0.441259
0.008782
-0.131290
-0.215334
0.001361
0.163404
-0.097592
-0.484764
0.102592
-0.124799
-0.397247
0.003586
0.166892
-0.077937
0.045244
0.173533
-0.397005
0.272975
-0.070290
0.228343
0.061719
-0.270399
-0.247101
-0.041332
-0.139284
0.117858
0.030741
-0.157663
0.047483
-0.516577
0.219133
0.329409
-0.014355
0.134223
-0.303408
-0.195884
0.073738
-0.604101
-0.219313
-0.121813
-0.242164
0.117435
0.346869
-0.079812
0.131327
-0.027677
0.169521
0.173082
-0.125274
0.022049
-0.012250
-0.286813
-0.376430
0.120275
0.220121
0.012095
0.026526
-0.368874
-0.210590
0.007710
0.032255
0.142204
0.144553
-0.358676
0.089507
0.148850
-0.332635
-0.098086
-0.026507
-0.095496
-0.189217
0.255336
-0.031843
0.043624
-0.518305
0.011916
0.064682
0.135126
-0.060759
-0.416789
0.178071
0.116630
-0.141516
-0.117170
0.100381
-0.480950
-0.155710
-0.140558
0.262184
-0.420766
0.027239
0.161011
-0.416292
-0.001426
0.091728
-0.191939
0.089007
0.001799
0.067548
-0.340394
0.174113
0.211632
-0.165924
0.044908
-0.250197
-0.279097
0.232912
-0.146267
0.115763
-0.217149
-0.236037
0.124929
-0.075355
0.076697
0.002546
-0.061717
-0.107732
-0.424164
0.065677
-0.381823
-0.559269
-0.100962
0.176418
-0.141916
0.202726
0.071293
0.110820
-0.082925
-0.232142
0.210826
-0.190183
-0.400480
-0.178133
-0.154652
-0.133204
-0.150770
-0.378272
-0.189347
0.274076
-0.283785
0.041341
-0.052640
0.087192
-0.297739
-0.049832
-0.548853
0.148603
-0.326048
0.060118
0.125380
-0.350624
-0.049937
-0.011125
0.111916
0.030816
0.168395
0.167946
-0.056657
-0.175440
0.036704
-0.072679
-0.182741
-0.145570
0.160917
-0.256138
0.068010
-0.412879
-0.171546
0.042944
-0.308494
-0.275669
-0.238301
-0.008479
-0.110533
-0.010987
0.187380
-0.260778
0.028338
-0.160603
0.242662
0.163634
-0.104465
-0.012152
0.010762
-0.162620
-0.132294
-0.037500
-0.407439
0.105361
-0.257886
-0.607529
-0.014906
-0.029184
0.125932
-0.159470
-0.352368
0.172197
-0.012096
-0.088514
-0.387165
-0.229116
-0.286272
0.068246
-0.040169
-0.130388
-0.078369
-0.549498
0.091466
-0.091175
-0.452563
0.142521
-0.316786
0.006466
0.170008
-0.026148
-0.111095
-0.190493
-0.059676
-0.104745
-0.227003
-0.062926
0.001095
0.170670
-0.151093
-0.004171
-0.099909
-0.715699
0.153241
-0.108437
0.084910
-0.195018
0.039800
-0.329509
-0.039129
0.123087
0.023328
0.172867
-0.026796
-0.570168
-0.092199
-0.192628
-0.072289
0.196091
-0.073092
-0.114992
0.339593
-0.021262
-0.081360
-0.069924
0.052663
-0.023519
0.093523
-0.476000
0.064735
0.021469
-0.233575
0.064131
-0.080332
-0.074661
-0.026815
0.193584
-0.372971
0.161534
-0.166882
-0.147644
0.068357
-0.036426
0.322757
-0.037496
-0.256780
-0.132931
-0.414950
-0.278147
0.141090
-0.372162
0.010311
0.227752
0.049800
-0.226371
0.106572
-0.335361
-0.171455
-0.250769
-0.353485
-0.309720
0.158750
-0.566268
-0.302395
0.221005
0.231764
0.140978
0.112427
-0.059252
-0.000468
-0.237882
0.099594
0.157499
-0.192097
-0.059641
0.191156
0.216222
0.002901
-0.253570
-0.111638
-0.086493
-0.079740
0.014033
0.214048
-0.078080
-0.585900
-0.296770
-0.184972
-0.051623
-0.428730
-0.350539
0.261114
0.286371
0.317501
-0.398486
-0.067765
0.013394
0.196129
-0.207163
0.190200
0.098416
0.107276
-0.038443
0.030062
-0.061346
-0.318281
-0.153120
-0.410169
-0.296294
-0.030212
-0.104465
-0.153957
0.261981
-0.180839
0.122790
-0.007661
0.154081
-0.226472
0.055584
-0.104531
0.049775
0.067680
-0.099472
-0.232908
-0.094314
-0.031599
-0.018038
0.175091
0.029593
-0.218176
-0.042085
-0.561796
0.278883
0.001245
-0.289422
0.013812
-0.594223
-0.013033
0.070377
-0.307205
-0.252249
0.157845
0.189016
-0.152024
0.303010
0.056395
0.028584
0.201708
-0.437459
0.233361
-0.246119
-0.057894
-0.105134
0.076778
-0.220609
0.114379
-0.283023
-0.205480
-0.286308
0.123717
-0.250969
-0.058130
0.039609
0.177044
0.229015
-0.268546
0.055572
-0.023155
-0.037326
0.030325
0.063209
0.044390
-0.119022
-0.062539
0.071103
-0.191507
-0.107575
-0.051567
0.011232
-0.112477
-0.447552
-0.427103
-0.114388
-0.109732
0.115105
0.001840
0.254857
-0.013702
-0.072964
-0.005678
0.059179
0.057108
0.204623
0.113612
-0.065241
0.149809
-0.196234
0.282949
0.227875
-0.044955
-0.378388
0.102185
0.040830
-0.445660
-0.351150
0.022087
-0.425192
0.175039
-0.156069
0.026358
0.052862
-0.210923
0.153312
-0.167460
-0.001005
0.323287
0.169696
-0.383187
0.159622
-0.003130
-0.327243
-0.456288
0.050644
0.037312
-0.282200
-0.099264
-0.309575
0.112711
0.108186
0.056400
0.036229
-0.088771
0.250308
-0.547999
0.162447
-0.627730
0.142603
0.185862
-0.077101
0.194097
-0.177819
-0.317579
0.054723
-0.022187
-0.209646
-0.136689
-0.190522
0.089135
0.085841
